GAMES,ROUNDS,NoHits4,NoOpen4,NoMisses4,NonHitSpaces14,NonHitSpaces24,NonHitSpaces34,NonHitSpaces44,NonHitSpaces54,NoHits5,NoOpen5,NoMisses5,NonHitSpaces15,NonHitSpaces25,NonHitSpaces35,NonHitSpaces45,NonHitSpaces55,NoHits3,NoOpen3,NoMisses3,NonHitSpaces13,NonHitSpaces23,NonHitSpaces33,NonHitSpaces43,NonHitSpaces53,NoHits2,NoOpen2,NoMisses2,NonHitSpaces12,NonHitSpaces22,NonHitSpaces32,NonHitSpaces42,NonHitSpaces52
10,84,-0.000242015405531136,-0.00207421642290633,-0.00258638443879802,0,0,-4.98621280447792E-05,-4.99862578119817E-05,-4.97137948308743E-05,0.00134544126397014,0.00228883203518402,-0.000600257427762222,0,0,0,0,-4.99513068193417E-05,0.000333253016312242,-0.0118579636388193,-0.0100269221557954,-4.97876246932762E-05,-4.95596177193807E-05,-9.81415947159484E-05,3.37443409665092E-06,-0.000441414705332482,-0.00163957301434582,-0.0426485067356028,-0.0218782010647749,0,-9.38166754697087E-05,-0.000238142456001669,-6.98810690408097E-05,-0.000437481446942473
20,86,-0.000130612252061979,-0.00580862971985514,-0.00614398259338072,5.02042281687059E-05,0,-0.000199087288129469,-0.000397761540537213,-4.91295538880512E-05,0.00184428431991649,0.00178151313321883,-0.000253856291616507,0,0,4.98623554600598E-05,0,-4.99513068193417E-05,0.00229854416264705,-0.0135648039600902,-0.0181875665343874,-4.69606191093076E-05,-0.000294909362905798,-0.000237717366157761,-0.00028165800081822,-0.000437939869378145,-0.001032188876575,-0.0832354338738145,-0.0418028857155278,5.29162852198131E-05,-0.000123036123011026,-0.000215809632718797,-0.000392282887733279,-0.00118252705616384
30,93,0.000184594308872917,-0.00573100360387311,-0.00693706113467845,5.02042281687059E-05,5.04793971126158E-05,-0.000199087288129469,-0.000397761540537213,-9.84939017087953E-05,0.00184428431991649,0.00178151313321883,-0.000253856291616507,0,0,4.98623554600598E-05,0,-4.99513068193417E-05,0.00280953214039403,-0.0247400281718824,-0.0321085029227761,3.91344906600053E-06,-0.000338086638665523,-0.000430277503414385,-0.000571998925151544,-0.00158595688121714,0.00110443380961347,-0.11668885276084,-0.0619636148722934,0.000157083447517099,-1.45088247205738E-05,-0.000361890778408263,-0.000521900615564712,-0.00166973163213987
40,85,0.000337651582904941,-0.00542495790329103,-0.0068860994069625,5.02042281687059E-05,5.04793971126158E-05,-0.000199087288129469,-0.000397761540537213,-9.84939017087953E-05,0.00184428431991649,0.00178151313321883,-0.000253856291616507,0,0,4.98623554600598E-05,0,-4.99513068193417E-05,0.00378973928957961,-0.0413301663618442,-0.0460760817880372,-4.37404214294827E-05,-0.000429997670261321,-0.000885581511129311,-0.000885972209648587,-0.00161435876572559,0.00366967699409512,-0.129273529466299,-0.0776508833662406,0.000157083447517099,-6.55628863985565E-06,-0.000588644027771775,-0.00104964548861657,-0.00236069101682331
50,90,0.000151379774328893,-0.00837685340109991,-0.011339919415092,5.02042281687059E-05,5.04793971126158E-05,-0.000197550345277068,-0.000593938219548623,-0.000392997658164295,0.00234207334060355,0.00193098245976366,0.000194142565072019,0,0,9.95537929584387E-05,0,-4.99513068193417E-05,0.00465841743744738,-0.0563730626311307,-0.0643406412078073,-0.000132207785487477,-0.000461075519836367,-0.0010438209737015,-0.0014641622928483,-0.00209753852369868,0.00694045614306702,-0.142977193582223,-0.0883000955374986,0.000210395432555809,-0.000117277582543081,-0.000589564095156677,-0.000882360617291472,-0.00277561458774465
60,81,0.000305822167041211,-0.00837198249185955,-0.0114367678560001,5.02042281687059E-05,5.04793971126158E-05,-0.000197550345277068,-0.000593938219548623,-0.000392997658164295,0.00234207334060355,0.00193098245976366,0.000194142565072019,0,0,9.95537929584387E-05,0,-4.99513068193417E-05,0.00584057824603572,-0.0619094300907295,-0.0682871553469849,-0.00017939932890509,-0.000451299155273117,-0.00153774766692404,-0.00155485193950555,-0.00176589420427038,0.0111183468651073,-0.144164816103328,-0.108049848852209,8.38823524326498E-05,-0.000352186504771947,-0.000615464386807688,-0.00173261115726024,-0.00281524429298642
70,80,0.000349845891110266,-0.0111671468052812,-0.0139463427231534,5.02042281687059E-05,0.00015251810103224,-0.000342657064298763,-0.000441400834987235,-0.00039078464875894,0.00318273509647842,-0.00202151654843124,-0.00309796010016807,0,-5.03928018104049E-05,0.000149594977594213,2.20876716513103E-07,0.000100025096512101,0.00724006259076524,-0.0724282633625551,-0.0789936461181901,-0.000227823011627396,-0.000451299155273117,-0.0017489797242099,-0.0019696386216043,-0.00190118882334133,0.0149991571393661,-0.149074233673861,-0.115853593626897,8.38823524326498E-05,-0.000295408608210021,-0.000855851685946068,-0.00179543801856143,-0.00261568614394307
80,89,0.000349845891110266,-0.0111671468052812,-0.0139463427231534,5.02042281687059E-05,0.00015251810103224,-0.000342657064298763,-0.000441400834987235,-0.00039078464875894,0.00398648329718709,-0.00140296664509917,-0.00338470199909364,0,-5.03928018104049E-05,9.98463668513922E-05,2.20876716513103E-07,-4.92648614519056E-05,0.00829319824135741,-0.0771639126975314,-0.0869388435776728,-0.000312044576854974,-0.000490228942797087,-0.00156850934856038,-0.00199479994029956,-0.00164115032268773,0.0192224505566019,-0.167402674208987,-0.133023740847331,0.000148385258506593,-0.000595891026043374,-0.000861934390959192,-0.00192189609057568,-0.00283455854832244
90,83,0.000330513462050507,-0.0117655532509105,-0.0148313022865281,5.02042281687059E-05,0.00015251810103224,-0.000342657064298763,-0.000441400834987235,-0.000582987811362712,0.00458666189233291,-0.000990577115350521,-0.00357617508866735,0,-5.03928018104049E-05,9.98463668513922E-05,2.20876716513103E-07,-9.89615183368221E-05,0.0094291283836051,-0.0849180476381558,-0.0915344609873957,-0.00036001452283332,-0.000490228942797087,-0.0015351540149591,-0.00191842061442012,-0.00160118670147095,0.0240109580595862,-0.170403594841044,-0.147779065992829,0.000222576882467515,-0.000416753696291384,-0.00128183400997009,-0.00189474946234714,-0.00314356717134224
100,84,0.000794545927934516,-0.0173584414072467,-0.0191631487795999,5.02042281687059E-05,0.000102894069781389,-0.000342657064298763,-0.000725082598773356,-0.000631060692259811,0.00483450630222129,-0.000342179381250137,-0.00362617154408753,0,-5.03928018104049E-05,9.98463668513922E-05,2.20876716513103E-07,-0.000198567736484392,0.0114579394674369,-0.0937063782293651,-0.107224940025221,-0.000394035882009454,-0.000629989341096942,-0.00194632397940906,-0.00244495294479701,-0.00140072912681262,0.027150077884915,-0.170437342860248,-0.15358538303516,8.66366340436765E-05,-0.000757878406773196,-0.00121635801746387,-0.00201494953025766,-0.00322034981266966
110,83,0.00112834803795282,-0.0185293528645117,-0.0189160586134791,5.02042281687059E-05,0.000102894069781389,-0.000341221414917025,-0.000674145569083259,-0.000578777086206594,0.00507990093157479,-0.00064443190553176,-0.00347754875387844,-2.19129045906365E-07,-9.79961320658458E-07,0.000149830458764243,2.20876716513103E-07,-0.000198567736484392,0.0125969164045604,-0.0951073348203202,-0.112209439962554,-0.000289543925045617,-0.000767315248232102,-0.00197876555756893,-0.00212990035704512,-0.00186621993923115,0.031654594593269,-0.176803229141956,-0.166971019391379,5.57517040072531E-05,-0.000696942424722257,-0.00147418756525118,-0.00189118610852804,-0.00360125969790707
120,81,0.00144034079808864,-0.0226778760117707,-0.0235409232326708,5.02042281687059E-05,0.000102894069781389,-0.000341221414917025,-0.000722699487359292,-0.000722991351607452,0.00557551640665895,1.54414227437964E-06,-0.00337743428248252,-2.19129045906365E-07,-0.000200745046639259,0.000149830458764243,2.20876716513103E-07,-0.000198567736484392,0.014736260244271,-0.101838147352333,-0.118442917923949,-0.000372961322382791,-0.000779434990148954,-0.00229059490419651,-0.00233517552986683,-0.00235441364563528,0.0360427673346721,-0.177638255952673,-0.17478245541861,0.000109146182253848,-0.000742683458322861,-0.00147418756525118,-0.00205501862434862,-0.00381116424351358
130,93,0.00144034079808864,-0.0226778760117707,-0.0235409232326708,5.02042281687059E-05,0.000102894069781389,-0.000341221414917025,-0.000722699487359292,-0.000722991351607452,0.00760132153021375,0.000902471675266678,-0.00219014968993791,-2.19129045906365E-07,-0.000151647847907303,0.000298863323957645,2.20876716513103E-07,-9.85757841458485E-05,0.0165470067006724,-0.113750852357136,-0.129210822161751,-0.000372961322382791,-0.000712257862290165,-0.00213588034114016,-0.00217677456776563,-0.00244422660907013,0.0389769482894846,-0.18777544660721,-0.188064374313314,0.000109146182253848,-0.000742683458322861,-0.00148636085392879,-0.00211850807914743,-0.00406844202755349
140,83,0.00126182377070074,-0.0254172725087659,-0.0261137721095001,5.02042281687059E-05,0.000102894069781389,-0.000341221414917025,-0.000722699487359292,-0.000961148637868957,0.00760132153021375,0.000902471675266678,-0.00219014968993791,-2.19129045906365E-07,-0.000151647847907303,0.000298863323957645,2.20876716513103E-07,-9.85757841458485E-05,0.0178332727821004,-0.118141233666716,-0.134383773054342,-0.00050212187864457,-0.000636037914787017,-0.00216371728814573,-0.00233370819275611,-0.00252464401003233,0.0445622280298531,-0.182431060463534,-0.200164434437603,0.000162882858017245,-0.000841191652845451,-0.00168687916207239,-0.00276880312440885,-0.00454048966864323
150,88,0.00172836486656454,-0.0266083156995691,-0.0285859003636193,5.02042281687059E-05,0.000102894069781389,-0.000628119357431187,-0.000816775428241953,-0.00102006589312213,0.00809657972655333,0.000950866642102661,-0.00169405618093358,-2.19129045906365E-07,-0.000151647847907303,0.000348356493724676,4.99224345512009E-05,-9.85757841458485E-05,0.0187701779326751,-0.119620313634343,-0.14198799567321,-0.00050212187864457,-0.000719334293815974,-0.00224062796664963,-0.00258366453055627,-0.00299902180360539,0.0505584738103477,-0.186878680783339,-0.212108967926017,0.000195709189378456,-0.000918718171199565,-0.00165719175788489,-0.0027135562597786,-0.0047263815958745
160,87,0.0011355274224407,-0.033554093072265,-0.0344771226526507,0.000153334312314931,0.000102894069781389,-0.000574469075916338,-0.000856634876918112,-0.00130237640113761,0.00893099796820876,-0.000645328951354996,-0.00378310257544037,-5.0771352256325E-05,-0.000102331825486308,0.000298541066795635,-2.72958538399065E-07,-4.83441813453345E-05,0.0196274470669675,-0.118086925539701,-0.144983716022823,-0.000541595836272102,-0.000704781757105059,-0.00221048091539944,-0.00270922771529471,-0.00303873960959466,0.0550348373608476,-0.191256488952842,-0.224006122464578,0.00014984046582694,-0.000948736314700377,-0.00178497887076497,-0.00274231460809418,-0.00470003505965985
170,81,0.00187145637042342,-0.0338727875751532,-0.036545958498304,0.000153334312314931,0.000102894069781389,-0.000764688811705316,-0.000856634876918112,-0.00134975442991958,0.00960948047672267,0.000726258449558737,-0.00329329953359393,-5.0771352256325E-05,-0.000102331825486308,0.000298541066795635,-2.72958538399065E-07,-9.89806608230537E-05,0.0203783165906058,-0.127971053012726,-0.154948046208385,-0.00043163577704317,-0.000799862420892315,-0.00233002801237945,-0.00262187858792523,-0.00339864143005748,0.0592477841801237,-0.188111119548257,-0.23113859215548,0.000201582988718626,-0.00111847092135412,-0.00186359678496852,-0.0025879823666898,-0.00449174107842108
180,85,0.0019818074245148,-0.0361453671733436,-0.0387714418524955,0.000153334312314931,-3.76228528116459E-05,-0.000764688811705316,-0.00104501551983545,-0.00139787295099308,0.00978485659199011,-0.00517117710519808,-0.00879095329802601,-5.0771352256325E-05,-0.000102331825486308,0.00019781534611502,-9.96159281021612E-05,3.56445246550336E-06,0.0215815425466237,-0.131529368648222,-0.162354760341123,-0.00043163577704317,-0.000899471309225047,-0.0026267104966019,-0.00283775786398458,-0.00419154800892364,0.0643271305686895,-0.181457744278375,-0.238971496186948,0.000121901583956886,-0.00111847092135412,-0.00197139765085803,-0.00336175245802576,-0.00493809887024946
190,82,0.00185541688799722,-0.0423496041038616,-0.0411311797419808,0.000153334312314931,-3.76228528116459E-05,-0.000764688811705316,-0.000935680023982935,-0.00138934154027664,0.0103936562308154,-0.00592007732661349,-0.0105101704294316,-5.0771352256325E-05,-0.000102331825486308,0.000148324006975949,-9.96159281021612E-05,-9.40303807256854E-05,0.0229022806025384,-0.133671217551285,-0.167013041942582,-0.00043163577704317,-0.000933625256721447,-0.00286783331218803,-0.00288247655732601,-0.00421137288108068,0.0698730999632009,-0.18183442287175,-0.247537083222939,0.000237992801924038,-0.00115756613568373,-0.00158329257916526,-0.00350440028873325,-0.0048330511909226
200,83,0.00185541688799722,-0.0423496041038616,-0.0411311797419808,0.000153334312314931,-3.76228528116459E-05,-0.000764688811705316,-0.000935680023982935,-0.00138934154027664,0.0112046395257795,-0.00431479506260333,-0.00972797934553071,-5.0771352256325E-05,-0.000102331825486308,0.000198853312207455,5.10142317558123E-05,7.51993932845794E-06,0.0236654159067305,-0.136729489751068,-0.173346351471898,-0.00043163577704317,-0.0008215341054209,-0.00290872329540624,-0.00295659001826807,-0.00433628166743179,0.0737303803088672,-0.183173531960782,-0.255402000371393,0.000354046400205266,-0.00103031155677353,-0.00176768726875991,-0.00370168867679477,-0.00517439640849994
210,84,0.00196227545355153,-0.0426364268455997,-0.0418767505143948,0.000153334312314931,-3.76228528116459E-05,-0.000711611979503228,-0.000935680023982935,-0.0013310129480673,0.0112046395257795,-0.00431479506260333,-0.00972797934553071,-5.0771352256325E-05,-0.000102331825486308,0.000198853312207455,5.10142317558123E-05,7.51993932845794E-06,0.0265756597771299,-0.144408894472073,-0.182303323017149,-0.000375079028172004,-0.000820495047262311,-0.00282554250673499,-0.0028752937653157,-0.00478377583819163,0.0769547497229234,-0.180273890560326,-0.261896496377651,0.000426629808329946,-0.00118701264480622,-0.00173928178865233,-0.00401179185453901,-0.00517565094182412
220,88,0.00223390311422828,-0.0424185464535463,-0.0417970819875375,0.000153334312314931,-3.76228528116459E-05,-0.000711611979503228,-0.000935680023982935,-0.0013310129480673,0.0112046395257795,-0.00431479506260333,-0.00972797934553071,-5.0771352256325E-05,-0.000102331825486308,0.000198853312207455,5.10142317558123E-05,7.51993932845794E-06,0.0281197531310562,-0.147466378634188,-0.190834603790321,-0.000375079028172004,-0.00083682760287715,-0.0029462937434261,-0.00303343661703522,-0.00527326847155676,0.0817962284726307,-0.182594431069613,-0.271192634903433,0.000381358365237618,-0.00127274407616652,-0.00159573485311649,-0.00404947708301703,-0.00530676403664786
230,88,0.00245328734547301,-0.0490283408183354,-0.0503344850333385,0.000153334312314931,-2.65546813296257E-05,-0.000603414205026917,-0.00115414641170951,-0.00146349297961767,0.0116648712309442,-0.00687952406955734,-0.0125596828748392,-5.0771352256325E-05,-0.000102331825486308,-4.86357439367023E-05,5.2042454171863E-05,5.84475275373603E-05,0.0302261925014843,-0.152278886571863,-0.196611716260113,-0.000321977205368544,-0.000873426633269412,-0.00321607302348736,-0.0030611026745264,-0.00541102583815363,0.0856397872489174,-0.183414382887326,-0.276114698015273,0.000381358365237618,-0.00124934030344145,-0.001367039713355,-0.00444409589288052,-0.00553488846671222
240,85,0.00240697613066442,-0.0509167318727272,-0.0511090064885493,0.000153334312314931,-2.65546813296257E-05,-0.000603414205026917,-0.00110066187367064,-0.00146349297961767,0.0123192828928172,-0.00596277657850153,-0.0117488507611504,-5.0771352256325E-05,-0.000102331825486308,-4.86357439367023E-05,0.00015328090198014,5.84475275373603E-05,0.0326642318522511,-0.155396509015566,-0.203962453979197,-0.000321977205368544,-0.000960053899389383,-0.00324630610643019,-0.00280317350616872,-0.0054395531288257,0.0891628670573319,-0.185448024280123,-0.283679471098023,0.000331761595472014,-0.00129511691786205,-0.00175763504807786,-0.00444168737037176,-0.00568267180851353
250,84,0.00234332804829468,-0.0523912510110239,-0.0544716356355127,0.000159477524623202,-2.65546813296257E-05,-0.000603414205026917,-0.00110066187367064,-0.00155570778478047,0.0124748238828877,-0.00648175875868543,-0.0134250487274829,-5.0771352256325E-05,-0.000102331825486308,5.26609664441226E-05,0.000303691729461418,0.000159940778724894,0.0345153360058147,-0.160176229767555,-0.211738305644464,-0.000406647511518483,-0.00104202299157936,-0.00313648587966505,-0.00303223280309271,-0.00565018007105493,0.0920355073788918,-0.181897400502926,-0.289962009536857,0.000487125378893517,-0.00129093802812534,-0.00161516195108023,-0.0046052534930146,-0.00605902531417827
260,90,0.0022588402904355,-0.0529991485063171,-0.0555547026753514,0.000159477524623202,-2.65546813296257E-05,-0.00064811255796172,-0.00132205294485183,-0.00155570778478047,0.0125315468533978,-0.00685468391941194,-0.0143364415624121,-0.000149720887030299,-0.000102331825486308,5.26609664441226E-05,0.000303691729461418,0.000112812605447707,0.0369009974093932,-0.164114826838109,-0.219926873569848,-0.000493061096695782,-0.00109068423848671,-0.00311880517694435,-0.00297971828769407,-0.00585456507898175,0.0961408956900293,-0.182003453677997,-0.297650012845062,0.00056043770993083,-0.00147869577043677,-0.00170955516919906,-0.00452530095415491,-0.00640696468521667
270,79,0.00266028484160644,-0.0530173839961655,-0.0580778679291467,0.000159477524623202,-0.00016106533559263,-0.00064811255796172,-0.00132205294485183,-0.00155505449868668,0.012885735121969,-0.00614649413047553,-0.0141848941695212,-0.000149720887030299,-0.000102331825486308,5.26609664441226E-05,0.000303691729461418,0.000112812605447707,0.0387315545003103,-0.16410569845031,-0.225565173415954,-0.00049091153658635,-0.0010774671915964,-0.0033375724167346,-0.00311789438861738,-0.00602962645699739,0.101220409625485,-0.18147907241686,-0.303352931040555,0.00056043770993083,-0.00170521149142918,-0.00179040418863861,-0.00514216577934475,-0.00658125598180592
280,92,0.00328500454815515,-0.0521411675096188,-0.0584005779377978,0.000159477524623202,-0.00016106533559263,-0.000629793411539568,-0.0013526878306861,-0.00155505449868668,0.0131916425508043,-0.00600581996410362,-0.0146530888401172,-0.000149720887030299,-0.000102331825486308,5.26609664441226E-05,0.000303691729461418,0.000112812605447707,0.0400186552164318,-0.169425161127881,-0.23637198914093,-0.00053623982311006,-0.00111840446302412,-0.00336846035771134,-0.00321830121221064,-0.00646609987801274,0.106384987632741,-0.180555265099178,-0.311761705836963,0.000612246947767732,-0.00170521149142918,-0.00183298950352288,-0.00510258792245182,-0.00693614812377314
290,89,0.00328500454815515,-0.0521411675096188,-0.0584005779377978,0.000159477524623202,-0.00016106533559263,-0.000629793411539568,-0.0013526878306861,-0.00155505449868668,0.0138015970801344,-0.00622791770105892,-0.0151717569914379,-9.9432552610025E-05,-0.000102331825486308,0.000103147456518241,0.000506435266392309,-0.00017727922444101,0.0408378948911446,-0.169132530614137,-0.240589120292937,-0.000559449983804072,-0.00123384041446006,-0.00352812458568788,-0.00355843027906443,-0.00703195368144761,0.11258425537102,-0.17971092492806,-0.322651691387514,0.000645884066558696,-0.00179032544650504,-0.00185900310743593,-0.005720649304064,-0.00716294707023034
300,80,0.00449936070598627,-0.0550643241582315,-0.0637448924594688,0.00021221922407333,-0.000209776229301647,-0.000761257946597676,-0.00139420782321159,-0.00173853622784788,0.0136815355458171,-0.00967868350807444,-0.0184351684646972,-0.000149006584406473,-0.000102331825486308,5.37725352400403E-05,0.000556833384920147,-0.000513707111921713,0.0417606690658639,-0.169662264838149,-0.244026652451423,-0.000500241590073256,-0.00138366511602542,-0.00356610037270934,-0.00362780160607963,-0.00727975938329857,0.115311933665402,-0.17270346072937,-0.328999646632108,0.000538408921434444,-0.00181642049340263,-0.0017550555676356,-0.00590361963052569,-0.00729575930272605
310,85,0.0046982333895218,-0.0548264421966519,-0.0656178051693279,0.00021221922407333,-0.000209776229301647,-0.000761257946597676,-0.00139420782321159,-0.00184921955516921,0.0136815355458171,-0.00967868350807444,-0.0184351684646972,-0.000149006584406473,-0.000102331825486308,5.37725352400403E-05,0.000556833384920147,-0.000513707111921713,0.0445467041206367,-0.171431632134524,-0.249590097770083,-0.000545188534524488,-0.00142442143932297,-0.00360682715832286,-0.00371442651597223,-0.00763404088389236,0.119278829837955,-0.174382824669474,-0.336312765898305,0.000553268239683153,-0.00186971346780298,-0.00194729014734667,-0.00598675957765512,-0.00762297984569008
320,86,0.00473954579418081,-0.0549860328027081,-0.0660409602239299,0.00021221922407333,-0.000209776229301647,-0.000761257946597676,-0.00144115985049877,-0.0018958880644844,0.0139912016532238,-0.00954091607915934,-0.0185865553362109,-0.000149006584406473,-5.1115257577609E-05,5.37725352400403E-05,0.000506940799466075,-0.000513707111921713,0.0503070454022339,-0.173719850375164,-0.258747319096226,-0.000545188534524488,-0.00120492818271342,-0.003889287968038,-0.00376146947287421,-0.00779861918621637,0.122161525423179,-0.180452994275529,-0.339277191085173,0.000613511449281449,-0.00188347977824278,-0.0020154742789561,-0.00620195494422481,-0.00765104306904182
330,84,0.00588013406522569,-0.0568768546961853,-0.0691127963067268,0.000265264604395164,-0.000209776229301647,-0.000678774424554236,-0.00166434200842723,-0.00193788251122813,0.0139648238111339,-0.012313130005039,-0.0218595738429685,-0.000246043026309441,-4.96371656453328E-05,5.37725352400403E-05,0.000506940799466075,-0.000513707111921713,0.0530125393276775,-0.171735049945397,-0.262518554614559,-0.000539479236534913,-0.00117632031731162,-0.00398894436025888,-0.00353682478244444,-0.00786193289752775,0.126302996306361,-0.179138061983526,-0.347382846587552,0.000668981077638298,-0.00193366803878444,-0.00220664758248391,-0.00652309536258089,-0.00788797640024667
340,85,0.00621284460802545,-0.0582053985121902,-0.071354164266143,0.000265264604395164,-0.000209776229301647,-0.000665514036794038,-0.00166434200842723,-0.00186520245601633,0.0148895140991808,-0.0108346210160014,-0.0226269071752537,-0.000295885156518343,-4.86357689344124E-05,0.000104625948728866,0.000506940799466075,-0.000513707111921713,0.0553556860204257,-0.173336735721936,-0.268159455579336,-0.000486463160453706,-0.00121050815083357,-0.00391152848413454,-0.00365573516352542,-0.00816760675818128,0.12965803733992,-0.179683680601928,-0.35426523764673,0.000668981077638298,-0.00193366803878444,-0.00214549312970951,-0.00665054801041566,-0.00803329949404544
350,86,0.00651155325467508,-0.0584788664530297,-0.0721575744888263,0.000216888353498022,-0.000154539564880303,-0.000791990680535848,-0.00166434200842723,-0.00189104875300578,0.0151635418601982,-0.0111722184404841,-0.0238509869673797,-0.000245770426114531,-4.86357689344124E-05,-4.35676595777608E-05,0.000457930584922285,-0.000513707111921713,0.0582745525089273,-0.171448848579031,-0.272750064948838,-0.000486463160453706,-0.000909423425136225,-0.00398953362162317,-0.00387296457743408,-0.00838374871897583,0.134012467864213,-0.1838820602392,-0.360032045520798,0.000724591121435544,-0.00198823847244719,-0.00209020120557311,-0.00705635372643905,-0.00811702382904071
360,83,0.00675263536751778,-0.0615917390802121,-0.0756418456518333,0.000216888353498022,-0.000154539564880303,-0.00073675163307334,-0.0016582495930298,-0.00201121407864355,0.0157447378103558,-0.010672209640032,-0.0242195622402678,-0.000245770426114531,1.53556110222318E-06,6.02406037884365E-05,0.000462171063725547,-0.000513707111921713,0.06004585946126,-0.170120203601204,-0.275803245384899,-0.000486463160453706,-0.000909423425136225,-0.00397151140777025,-0.00402792607766706,-0.00818345881385142,0.139997510179676,-0.181936016085139,-0.367842289793542,0.000833420281342677,-0.00202807453963183,-0.00204294854689545,-0.00717059727495742,-0.0081730249609605
370,89,0.00752743705567309,-0.0625645675286816,-0.0785892029245112,0.000216888353498022,2.04963801080905E-05,-0.000872975898254138,-0.0018196113585636,-0.0020947520379847,0.0162649093379849,-0.0129241222238996,-0.0269391194633635,-0.000144498301121004,1.53556110222318E-06,6.02406037884365E-05,0.000366086735952123,-0.000412247456099142,0.0613737888881161,-0.173200836727075,-0.281866998800284,-0.000524129566544906,-0.000842171015974112,-0.00401993573668833,-0.00420071282861155,-0.0078051338901759,0.14287232141139,-0.185757041747549,-0.373851122674817,0.000882072811943442,-0.00214367311981158,-0.00201948034771763,-0.00725822178865534,-0.00821058303144543
380,88,0.00774102047233949,-0.0659444557934744,-0.0813102986270951,0.000171811723501999,2.04963801080905E-05,-0.00120875892019042,-0.00186149440867199,-0.0020947520379847,0.0170061381310195,-0.0130396615687812,-0.0270965347679552,-0.000144498301121004,1.53556110222318E-06,0.000110505384629044,0.000316346633648775,-0.000457692299455689,0.0637145793268652,-0.174349156525621,-0.286423869532598,-0.000548364289348747,-0.000874398482706488,-0.00400795948593189,-0.00435872893076319,-0.0079653694536348,0.147089318953205,-0.185466912405828,-0.382040120075163,0.000793483631652907,-0.00231393104137705,-0.00245536851191022,-0.00685495241771384,-0.00842191944047706
390,87,0.00792203634803945,-0.0712954509096292,-0.0853121859848022,0.000171811723501999,8.01729140077449E-05,-0.00124162820271878,-0.00186149440867199,-0.00217842312173021,0.0170061381310195,-0.0130396615687812,-0.0270965347679552,-0.000144498301121004,1.53556110222318E-06,0.000110505384629044,0.000316346633648775,-0.000457692299455689,0.065517899002718,-0.17522124388791,-0.294081641431774,-0.000621383928578312,-0.000812762703762967,-0.00399873115236361,-0.00479671091646318,-0.00822955098410938,0.15123096132126,-0.179565924405457,-0.388608192154544,0.000771191942365337,-0.0024291511607685,-0.00272952999308272,-0.00735570655026148,-0.00826242541699931
400,89,0.00876067520405714,-0.071657306999635,-0.0864298112083496,0.000171811723501999,-3.53420917587051E-05,-0.00117344848399925,-0.0019875518793837,-0.00204690671743236,0.0172602171787801,-0.0158259253653719,-0.0304552066236711,-0.000144498301121004,5.21984657638171E-05,0.000113328992811086,0.000316346633648775,-0.000457692299455689,0.0663679051926098,-0.175839483248606,-0.297262144954166,-0.000621383928578312,-0.000812762703762967,-0.00382768095487153,-0.00482018244129302,-0.00828998823264112,0.155923011463446,-0.187889296218981,-0.395909012503456,0.000700395790620259,-0.00224041567653509,-0.00271954751234946,-0.0072110391199918,-0.0087025569646633
410,87,0.00910207031865318,-0.0722729770053989,-0.0873875112661897,0.000171811723501999,-8.12399352785374E-05,-0.001216879496107,-0.00202639200270223,-0.00196563176337001,0.0178845716099462,-0.0163967754061327,-0.0316039442245343,-9.42930303813424E-05,5.21984657638171E-05,0.000118404933275796,0.000316346633648775,-0.000553059206681095,0.0681533820122602,-0.178258350177932,-0.301618352015984,-0.000696992965772407,-0.000852699033343343,-0.00344153402878716,-0.00483796800944952,-0.00830478963777533,0.161337127882481,-0.188541281835756,-0.40135685573087,0.000643731258602757,-0.00222092403680814,-0.0029899252144353,-0.0071743941858528,-0.00837536702369819
420,90,0.00991517655326592,-0.0710307681276365,-0.0873472270420009,0.000171811723501999,-8.12399352785374E-05,-0.00126029925495887,-0.00202639200270223,-0.00196563176337001,0.0186963610235322,-0.0172290324272273,-0.0337297445480256,-9.42930303813424E-05,5.64629841385872E-05,3.19116649212209E-05,0.000316346633648775,-0.000694824081648196,0.0695024266072411,-0.179631193273907,-0.306339823246457,-0.000696992965772407,-0.000921939481367877,-0.00340620749289553,-0.0050343861338917,-0.00826705870420879,0.163657451693822,-0.190730030265273,-0.410152739670169,0.00071356507592455,-0.00225171100652264,-0.00309358350135173,-0.00719557712438371,-0.00890392315649239
430,86,0.0102628413879194,-0.0705296071045985,-0.0866327669040601,0.000171811723501999,-8.12399352785374E-05,-0.00126029925495887,-0.00202639200270223,-0.00185158744649035,0.0189902974354605,-0.0174128436776135,-0.0345264607225119,-9.42930303813424E-05,6.4916456909309E-05,3.19116649212209E-05,0.000273781019257444,-0.000640951595490108,0.0708511486637878,-0.183473748786365,-0.311750156640778,-0.000696992965772407,-0.00102403762879951,-0.00369037061651259,-0.0053230825795906,-0.00899343138403607,0.167868151158019,-0.184747366253615,-0.416219913041682,0.000779585137500726,-0.00229551047010771,-0.00320748388100796,-0.00753777429707067,-0.00886949047258137
440,91,0.0105284526680596,-0.0706585006452839,-0.0871676106301016,0.000223730477413266,-8.12399352785374E-05,-0.00126029925495887,-0.00202639200270223,-0.00185158744649035,0.0189902974354605,-0.0174128436776135,-0.0345264607225119,-9.42930303813424E-05,6.4916456909309E-05,3.19116649212209E-05,0.000273781019257444,-0.000640951595490108,0.0731858251753707,-0.185925196967836,-0.322948111982282,-0.000682515420242384,-0.00105346074653642,-0.00362876944914499,-0.00575076601963588,-0.00954900418117365,0.171825319835014,-0.179636958904631,-0.421997475479091,0.000829755270875384,-0.00224955758892149,-0.00319064870819446,-0.00773807211743528,-0.00984908725476071
450,84,0.0106665182903962,-0.0731555686206646,-0.0903740927706113,0.000223730477413266,-0.000129259429846258,-0.00126029925495887,-0.00211461422469604,-0.00196758462741296,0.019684716311695,-0.0174739948152108,-0.0343846155652095,-9.42930303813424E-05,6.4916456909309E-05,8.25231971771777E-05,0.000324472456244688,-0.000438748684801289,0.074638355475459,-0.188863752977516,-0.328648273313348,-0.000682515420242384,-0.00108696284432242,-0.00355814081524871,-0.00587859023713956,-0.00967440498258071,0.175602925962619,-0.180342662465731,-0.426597942116275,0.000936047556829381,-0.00224535126227374,-0.00319064870819446,-0.00777261263696552,-0.00974365333089709
460,90,0.0115990885997136,-0.0723642276317412,-0.0920956316902021,0.000134048300302469,-0.000129259429846258,-0.00130599226198766,-0.00196965608629171,-0.00196758462741296,0.019684716311695,-0.0174739948152108,-0.0343846155652095,-9.42930303813424E-05,6.4916456909309E-05,8.25231971771777E-05,0.000324472456244688,-0.000438748684801289,0.0766777774549516,-0.192879217084292,-0.330821433179898,-0.000684342200263721,-0.000985369786314206,-0.00365996727421308,-0.00582920263960785,-0.00966814112450589,0.180388062157214,-0.181666396513934,-0.430935260702645,0.000936047556829381,-0.00241399801825936,-0.00307098951153229,-0.00784210166223697,-0.00959057208704022
470,74,0.0118089852204667,-0.0723749210851647,-0.093028491323218,0.000134048300302469,-0.000129259429846258,-0.00130599226198766,-0.00196965608629171,-0.00201065377727588,0.0199818802622939,-0.0173838398366193,-0.0357266562036636,-9.42930303813424E-05,0.000114709906116296,0.00013328079280168,0.000376186000183729,-0.000580066548618309,0.0788579762849963,-0.190460347735932,-0.33528168901332,-0.000632799861732307,-0.000997211176717088,-0.00360256717720171,-0.00600838672702498,-0.0105154624873905,0.183911670965388,-0.178815706656132,-0.43357696383995,0.00106886251968328,-0.00242730081466623,-0.00300424386978478,-0.00767666843997358,-0.0099258108224451
480,86,0.0127595689939178,-0.0741354351469506,-0.0963306504717557,0.000237810754302055,-0.000129259429846258,-0.00130599226198766,-0.00201544479123935,-0.00194541168059629,0.0208887938529642,-0.0156113331983833,-0.0376666155525877,-9.42930303813424E-05,6.64255370155588E-05,0.000288942725692957,0.000385106627769934,-0.000677650155163153,0.0793375238840588,-0.193644013567242,-0.33845084360223,-0.000632799861732307,-0.000997211176717088,-0.00352982794212591,-0.0064938875749558,-0.0106681084137248,0.187273427627201,-0.185914532744048,-0.439661417440295,0.00106886251968328,-0.00237286761786992,-0.00311362830416297,-0.00785527275826251,-0.00993273456052607
490,84,0.0130244689564316,-0.0740058455329637,-0.0970997545086419,0.000237810754302055,-0.000208372144737138,-0.00139390725358885,-0.00201544479123935,-0.00194541168059629,0.0204813059787394,-0.0158569309288201,-0.0396850615322041,-9.42930303813424E-05,6.64255370155588E-05,0.000145728226646971,0.00038983870276943,-0.000677650155163153,0.0831765761994245,-0.200364271076066,-0.344889812293816,-0.00052175771413465,-0.000959225777698235,-0.00346019445102288,-0.00720955054520036,-0.0110461084392024,0.191739116532037,-0.17612626689083,-0.443235326948972,0.00106886251968328,-0.00227378936532788,-0.00309657913296366,-0.00795981861192921,-0.0097758772625117
500,91,0.0137014589458234,-0.073744505756671,-0.0984865556696068,0.000237810754302055,-0.000293736328630421,-0.00139390725358885,-0.00195309586853144,-0.00212046066150807,0.0204813059787394,-0.0158569309288201,-0.0396850615322041,-9.42930303813424E-05,6.64255370155588E-05,0.000145728226646971,0.00038983870276943,-0.000677650155163153,0.0848632842942771,-0.202394186478047,-0.351613156775275,-0.000307895436761017,-0.000882303634049302,-0.00357615314962132,-0.00714400031166621,-0.0110726999964394,0.194608687895052,-0.176048625676778,-0.447271200576993,0.00106886251968328,-0.00217899232810603,-0.00280114355649892,-0.00824474770323506,-0.00995803641683247
510,78,0.0140540639031701,-0.0766875303628509,-0.101056362228267,0.000237810754302055,-0.000336383312295665,-0.00143833781850395,-0.00215975571374332,-0.00206477160929524,0.0213858712178386,-0.0170325856048815,-0.0405854810966884,-9.42930303813424E-05,0.000117926308271164,9.70596540898933E-05,0.00038983870276943,-0.000677650155163153,0.0862852582365436,-0.200571092717297,-0.353526094271148,-0.000307895436761017,-0.00091150059029542,-0.00368933292236991,-0.00720313186313837,-0.0111363873261365,0.199077370283054,-0.1737736857663,-0.451926955036048,0.000986398684598469,-0.00217694572222045,-0.00245357353466078,-0.0079967320674371,-0.0103171099996659
520,87,0.0141933934930667,-0.0763943825514215,-0.100900258627959,0.000237810754302055,-0.000321182416985733,-0.00148110786049344,-0.00215975571374332,-0.00204666905001304,0.0228346020042536,-0.0193927725523469,-0.0433915861968375,-9.21850225808156E-05,0.0002761210257826,0.000352889828813535,0.000298196295609098,-0.000765211517806898,0.0885471674303093,-0.20266061802345,-0.358819233236168,-0.000293826377264628,-0.000985837468970419,-0.00380041827291671,-0.00737800962569022,-0.0112399191990471,0.20215905488107,-0.173700732506054,-0.456196230764466,0.00114091765957427,-0.00213227489037373,-0.0026922446605507,-0.00825130676209692,-0.0108896099741519
530,85,0.0144607093545836,-0.0800785726968415,-0.107984999534325,0.000289407259631138,-0.000363989222098793,-0.00142910709086427,-0.00270747250469815,-0.00216784270929423,0.0228346020042536,-0.0193927725523469,-0.0433915861968375,-9.21850225808156E-05,0.0002761210257826,0.000352889828813535,0.000298196295609098,-0.000765211517806898,0.0910543106243063,-0.202351590427551,-0.362775684007297,-0.00035736133340512,-0.000857137470194387,-0.00367148840819785,-0.00744699561142636,-0.0111413511742014,0.207043675001746,-0.174262133809055,-0.459422840674893,0.00108140607017861,-0.00196640176720858,-0.00260574329285664,-0.00828890668429587,-0.0111745899819285
540,88,0.0146546860938789,-0.0809696548945975,-0.109686862336126,0.000289407259631138,-0.000363989222098793,-0.00131447159446831,-0.00279299428456547,-0.00223995058794943,0.0230100952273377,-0.0198790551358018,-0.0447749867534241,-9.21850225808156E-05,0.0002761210257826,0.000352889828813535,0.000350191701685807,-0.000758014920419986,0.0935841043985463,-0.196668672435365,-0.368690229481131,-0.000302843891613098,-0.000731479162592239,-0.00369741061580292,-0.00778446221134926,-0.0114378956008296,0.208900046328505,-0.177406723472492,-0.464248731646182,0.00108140607017861,-0.00199366266877852,-0.00256610622743702,-0.00828118281173938,-0.0116215972105549
550,82,0.014721206696719,-0.0820212031022331,-0.113468456048774,0.000289407259631138,-0.000294297754366614,-0.00135712404060079,-0.00292104989608758,-0.00233748415981853,0.0240462412074012,-0.0214296650867823,-0.0479564031666288,8.87312674120333E-06,0.000228251888079274,0.000404480890129242,0.000462383606789801,-0.000898997460434817,0.0947927363637971,-0.197449304568863,-0.371361859658628,-0.000337292357197359,-0.000731479162592239,-0.00374048321638263,-0.00782743489445878,-0.0113384569362389,0.212485577865883,-0.179271278523727,-0.469284048483067,0.00108140607017861,-0.00219174839104024,-0.00232211255506935,-0.00844781987767289,-0.011524584764245
560,87,0.0152374302278789,-0.0835489211770784,-0.11638569287212,0.000246533864239463,-0.000178249427072059,-0.0013743935011732,-0.00293769464952685,-0.00235641489593623,0.0240462412074012,-0.0214296650867823,-0.0479564031666288,8.87312674120333E-06,0.000228251888079274,0.000404480890129242,0.000462383606789801,-0.000898997460434817,0.0975866161062507,-0.195139166466614,-0.373934250967363,-0.000337292357197359,-0.000860911065275622,-0.00371949002873427,-0.00814103558429561,-0.0113052211843846,0.217369075198182,-0.176320098754685,-0.473882881248186,0.00113049837264452,-0.00216200882871194,-0.0024998667421403,-0.00889338344474283,-0.0117369133863667
570,86,0.015320293501055,-0.0839952124244924,-0.117580501715454,0.000246533864239463,-0.000178249427072059,-0.00141287658968419,-0.00293769464952685,-0.00243480284711342,0.0242961349588889,-0.0258680180062423,-0.0526225103336614,8.87312674120333E-06,0.000280146282211967,0.000510361378279228,0.000487891352250507,-0.00103915450297721,0.0986494144351687,-0.198583913508384,-0.378705059267809,-0.000382789711406664,-0.000936209971579033,-0.00356152041962638,-0.00817016761597978,-0.0115436018616802,0.21925883591954,-0.174400181264682,-0.477516875043885,0.00125447320560546,-0.00229034438864701,-0.00278198106801277,-0.00917478452109605,-0.0118003459163119
580,82,0.0161740749563863,-0.0846313613953921,-0.119908695783586,0.000246533864239463,-0.000243302520987566,-0.00148933492746192,-0.00282338592307437,-0.00249935199273763,0.0252802849945148,-0.0250814669417115,-0.0525552480364055,8.87312674120333E-06,0.000283559167165967,0.000563013815350089,0.000307492747437647,-0.00098395007239242,0.101890783963799,-0.194334361242404,-0.381583629209784,-0.000382789711406664,-0.000936209971579033,-0.00348535793477466,-0.00828298026493461,-0.0115577767066756,0.221461016111889,-0.17496181127567,-0.483091247198975,0.00125447320560546,-0.00240563891882905,-0.00295911236488324,-0.00968314795293632,-0.0118877418682873
590,84,0.0171572987484762,-0.082612592909221,-0.119717728532535,0.000246533864239463,-0.000243302520987566,-0.0015656470003427,-0.00290505454374829,-0.00249346144207227,0.0261522299523009,-0.0275714179306564,-0.0557128695346395,-4.10976357513574E-05,0.000393815705151381,0.000597204561343113,0.000425027382955154,-0.00098395007239242,0.103036491152555,-0.191133932436999,-0.38334691864962,-0.000382789711406664,-0.00089840606113977,-0.00360069944110238,-0.00816939241245348,-0.0115330540538526,0.222740988532976,-0.181033095709112,-0.489503880757002,0.00123502035972398,-0.00233386913629254,-0.00305386436407801,-0.0096136844800233,-0.0120381182233717
600,84,0.0176744006945839,-0.0871001719310691,-0.124713624019712,0.000304421573815766,-0.00017492013178337,-0.00164461114002479,-0.00303142573745125,-0.00239952355844779,0.0270411007633792,-0.0351882319569668,-0.0631719381891314,-3.58608227667417E-05,0.000447061938646455,0.000597204561343113,0.000425027382955154,-0.00102900058036985,0.10511447746745,-0.188360856220393,-0.385198929792811,-0.000364562063084475,-0.000966066418678926,-0.00367745297101866,-0.00809961705256166,-0.0113267846177936,0.225322164240704,-0.181281319472756,-0.493613711206159,0.00120304794885449,-0.00237288514492013,-0.00320206536368246,-0.00963974387000827,-0.0119832766238175
610,85,0.0176744006945839,-0.0871001719310691,-0.124713624019712,0.000304421573815766,-0.00017492013178337,-0.00164461114002479,-0.00303142573745125,-0.00239952355844779,0.027108094075392,-0.0377012067805832,-0.0656582096132155,-8.33734720744439E-05,0.000447061938646455,0.000597204561343113,0.000425027382955154,-0.00102900058036985,0.106770706518969,-0.192334344625303,-0.390032713519288,-0.000290350350936385,-0.000943582301461544,-0.00383726277713447,-0.00838309339414338,-0.0117743918228738,0.22840255281024,-0.176447588092581,-0.496973431879495,0.00120304794885449,-0.00242128717617754,-0.00344329248599884,-0.00990085368161295,-0.0125613547885187
620,84,0.0183918967834433,-0.0872278130760052,-0.126421597756463,0.000210174989946835,-0.00017492013178337,-0.00168103312546826,-0.0032739638031806,-0.0022470579536192,0.0273919587119136,-0.0422022168077947,-0.0699028447367636,-8.33734720744439E-05,0.000447061938646455,0.000597204561343113,0.000479481618453891,-0.00102900058036985,0.107094114458932,-0.1951554581378,-0.391308419649621,-0.000231206948992757,-0.000871256496025903,-0.00390622552188289,-0.008444300939061,-0.011811758895061,0.231981233009209,-0.174863296887945,-0.500250541233565,0.00131794247709338,-0.00242956789182925,-0.00339147495780735,-0.00988878577721724,-0.012826851141772
630,83,0.0185375272164912,-0.0871695466824293,-0.12667880091647,0.000210174989946835,-0.00017492013178337,-0.00168103312546826,-0.00331350880914358,-0.00228856364338666,0.0280074145749829,-0.0454380462261955,-0.0742318828794091,-0.00012698610311393,0.000447061938646455,0.000597204561343113,0.000597443177979705,-0.00124634968001581,0.10903155559025,-0.192186286246916,-0.39608044275634,-0.000169859735156583,-0.000703834192735218,-0.00383935032418966,-0.00850720963101603,-0.011909030724758,0.236292529680078,-0.175390213333392,-0.502654789151434,0.0013745623882215,-0.00231410550444347,-0.00318902433110073,-0.00988787658161409,-0.0128125100406294
640,80,0.0185375272164912,-0.0871695466824293,-0.12667880091647,0.000210174989946835,-0.00017492013178337,-0.00168103312546826,-0.00331350880914358,-0.00228856364338666,0.0283421258464069,-0.0462631801018008,-0.0755554092187787,-0.00012698610311393,0.000447061938646455,0.000597204561343113,0.000763344343339351,-0.00124634968001581,0.110373066986074,-0.193533196682522,-0.399109976296246,-0.000231432380526182,-0.000815463089309434,-0.00380046274217798,-0.00890507809884474,-0.0120431144478208,0.239853285777685,-0.172386046338217,-0.505534982011395,0.00144700778741836,-0.00214589755317653,-0.00311193147254269,-0.0102053742417861,-0.0133216199643366
650,89,0.0185375272164912,-0.0871695466824293,-0.12667880091647,0.000210174989946835,-0.00017492013178337,-0.00168103312546826,-0.00331350880914358,-0.00228856364338666,0.0289484051741912,-0.0486899053695743,-0.0807775596782452,-0.00012698610311393,0.000504650059611147,0.000706562928961384,0.000763344343339351,-0.00117562559258368,0.112301878919072,-0.190070839879223,-0.401480198403779,-0.000231432380526182,-0.00082729324519727,-0.00368452015647493,-0.00900872930337887,-0.0119903989365916,0.242240018178663,-0.178440299289759,-0.511508337629209,0.00144700778741836,-0.00228009000029319,-0.00337939641133842,-0.0100753054686487,-0.0136123233915113
660,85,0.0200109135829103,-0.0878764783442604,-0.131540678850178,0.000169886273223819,-4.24726349472862E-05,-0.00158215550367823,-0.00332062055140309,-0.00251578745785344,0.0291516118722249,-0.0477711926865578,-0.0827941551122415,-0.00012698610311393,0.000504650059611147,0.000706562928961384,0.000828430507279799,-0.00122258288519769,0.113805331241887,-0.195803449127774,-0.404542694892104,-0.000231432380526182,-0.000691078310342248,-0.00366401981822382,-0.00906578096389462,-0.0122773410331074,0.244677694792233,-0.176403961489718,-0.515778458467529,0.00153414823357487,-0.00226945812100112,-0.00317138960089888,-0.010155226327403,-0.0138560398267794
670,84,0.0197976155617576,-0.0902374678840161,-0.134367250345997,0.000169886273223819,-4.24726349472862E-05,-0.00162550521333151,-0.00332062055140309,-0.00251578745785344,0.0298870595200208,-0.0469947021033094,-0.0818654103998678,-0.00012698610311393,0.000504650059611147,0.00076121903516174,0.000828430507279799,-0.00115475995372066,0.115244288507799,-0.196583490514611,-0.406343144489944,-0.000231432380526182,-0.000691078310342248,-0.00364732374661804,-0.00894574985453139,-0.0127068597052849,0.246836659448116,-0.175496962898185,-0.520776461558348,0.00139999223246187,-0.00239837434237181,-0.00297545649212132,-0.0100505877829683,-0.0141023147001495
680,84,0.0200222650812863,-0.0906386770045089,-0.13651206884046,0.000169886273223819,-4.24726349472862E-05,-0.00169992202614546,-0.00335721541126558,-0.00258798957863335,0.0303343280223357,-0.0484922032783397,-0.0842098295507023,-0.00012698610311393,0.000515211957928921,0.000682649690778681,0.000794893696674605,-0.00115475995372066,0.117326790806281,-0.19644982522483,-0.411281731236402,-0.000332084604575,-0.000732677907534829,-0.00405989789541306,-0.00936779813440391,-0.0128862487338582,0.248825326324115,-0.176498890804416,-0.522930034598156,0.00144201771870832,-0.00245813437605008,-0.00281399051455052,-0.0101406654808468,-0.0141869224409849
690,83,0.0202611124181488,-0.0899930604788831,-0.137077463908598,0.000169886273223819,-0.000172616283054796,-0.00169992202614546,-0.00340372104872578,-0.00252455864048571,0.031102512898903,-0.0503332824061854,-0.0868339212012524,-0.00012698610311393,0.000515211957928921,0.000634582703272813,0.000849063488623879,-0.00109850572318088,0.120714607068045,-0.192744084432346,-0.413467530545221,-0.0001881300779588,-0.000721075330369621,-0.00408867282558308,-0.00930346607469416,-0.0130238795850419,0.251997334475609,-0.181524040749545,-0.525460773159575,0.00144201771870832,-0.00252915520051396,-0.00293704686830853,-0.0101534909526301,-0.0140490811595192
700,86,0.021202671952839,-0.0912354559080462,-0.138643089160358,0.000225760210311982,-0.00021580908502406,-0.00163910694142493,-0.00328266691463249,-0.00256820029601174,0.031102512898903,-0.0503332824061854,-0.0868339212012524,-0.00012698610311393,0.000515211957928921,0.000634582703272813,0.000849063488623879,-0.00109850572318088,0.124635249353912,-0.192635059152599,-0.415642697688102,-0.00022788345626987,-0.000685367738663634,-0.00408223775721865,-0.00906869626084015,-0.0128115104481221,0.254172622241743,-0.181753663196543,-0.529105592736321,0.00145362228459221,-0.00262508276204619,-0.00331496932750844,-0.0105593675835995,-0.0138201821505298
710,88,0.0212387579517471,-0.0945071569101275,-0.142957088662089,0.000225760210311982,-0.000289894064113252,-0.00157952603541319,-0.0031576608242379,-0.00282542081930584,0.0324052344934562,-0.0498797891196021,-0.0862535948422542,-0.00012698610311393,0.000515211957928921,0.000749753072404965,0.000849063488623879,-0.00109850572318088,0.125669314308553,-0.194713755652111,-0.420336535390289,-0.000210705582281329,-0.000778786282069456,-0.00409613824406992,-0.00926175260629075,-0.0132679401920466,0.257382090482567,-0.178916412013049,-0.531979441541459,0.00153905611168455,-0.00266752113842608,-0.00338456221420047,-0.0106387777944399,-0.0140916627634583
