GAMES,ROUNDS,HitSpacesInRow4,AdjMisses4,NonMissSpaces14,NonMissSpaces24,NonMissSpaces34,NonMissSpaces44,NonMissSpaces54,NoDiagHitsWithAdjHit4,HitSpacesInRow5,AdjMisses5,NonMissSpaces15,NonMissSpaces25,NonMissSpaces35,NonMissSpaces45,NonMissSpaces55,NoDiagHitsWithAdjHit5,HitSpacesInRow3,AdjMisses3,NonMissSpaces13,NonMissSpaces23,NonMissSpaces33,NonMissSpaces43,NonMissSpaces53,NoDiagHitsWithAdjHit3,HitSpacesInRow2,AdjMisses2,NonMissSpaces12,NonMissSpaces22,NonMissSpaces32,NonMissSpaces42,NonMissSpaces52,NoDiagHitsWithAdjHit2
10,69,-0.00443919594922064,-0.418566659543655,-0.0109065530396682,-0.0297114516321083,-0.0109366463640809,-0.0138477961770951,-0.00970860810216054,0.0206494211888088,-0.0262894392426302,-0.249380988711117,-0.00928899471675637,0.000770295182594889,-0.00927794671715126,-0.00424546782594238,-0.0093135031919159,0.0052621470412887,-0.013110240766458,-0.425042190107042,-0.0107876814030681,-0.0275801584676346,-0.0533626867864141,-0.0309304444696044,-0.0056732056805858,0.0884301622735635,-0.0689109271724916,-0.312589913586371,-0.0254367776537692,-0.0200927065540188,-0.0427857275861257,-0.0518718571688979,-0.0541443300738101,0.165167088684474
20,62,0.0486440097056296,-0.411597817706687,-0.0147471280830204,-0.0267457999178455,-0.00147949647594509,-0.00716394601653126,-0.0173738695451709,0.0521043696704775,-0.0122847695428726,-0.309175199555716,-0.00928899471675637,-0.00642720778611296,-0.0113369809519546,-0.00855831767126797,-0.00590137325013382,0.0130976534869441,0.0879840411739237,-0.344965059113421,-0.00979696981459324,-0.0187228623373833,-0.0468147559933998,-0.0331110482555724,-0.0107833553640349,0.16596567182288,-0.00440452927452619,-0.458930093305934,-0.0263535075375067,-0.0726221474331801,-0.0567764393261695,-0.0577744387917421,-0.138593693220017,0.367531395635699
30,63,0.0486440097056296,-0.411597817706687,-0.0147471280830204,-0.0267457999178455,-0.00147949647594509,-0.00716394601653126,-0.0173738695451709,0.0521043696704775,0.004584943997942,-0.361619577483502,-0.0110702002961555,-0.00642720778611296,-0.0129895674504495,-0.00428132061290765,-0.0113479136201237,0.0130976534869441,0.211584825167753,-0.335289126609426,-0.00817542136949963,-0.00117585923783337,-0.0639165719469228,-0.0707383715356808,-0.059142808828904,0.255649205744019,-0.0263511809224351,-0.563120414142649,-0.0371833258940325,-0.0960968958839838,-0.0994358509345362,-0.0849239487620078,-0.19796722900368,0.513357279647814
40,58,0.114480494180985,-0.385924301851814,-0.0118695922449521,-0.0440141715034455,-0.00555734996519349,-0.00716394601653126,-0.0294000949897495,0.0863971588617535,0.0118078959951198,-0.441023032199202,-0.0179241953275849,-0.0134069338343836,-0.019838532505618,-0.0230401717137785,-0.0141593506038043,0.0130976534869441,0.236528113888368,-0.384401230885848,-0.00255920700194174,-0.0149735104569465,-0.0879321880192705,-0.120343376337269,-0.0853900648163144,0.343884890321921,-0.034104751111445,-0.506734254280289,-0.0606559969877858,-0.0810779464008698,-0.126933288004883,-0.109644350305127,-0.199605174678913,0.614338510559431
50,61,0.131054905375947,-0.407838726304083,-0.0229134194758111,-0.0508959036932969,0.0144156080102072,-0.0166459230932077,-0.0500190578780756,0.121477333265746,0.0846224196853533,-0.431236568158711,-0.00529082757055126,-0.00948682854903164,-0.0277953757633086,-0.0207439842432221,-0.0310654035565455,0.0337649228627678,0.0300023863521285,-0.570148445283858,-0.0350050858782757,-0.00593290177641059,-0.0915496772509848,-0.16420520900596,-0.0962986770387955,0.349215993466924,-0.0111350900781151,-0.500032378304052,-0.0739839477175461,-0.101782748724151,-0.135896317800666,-0.125331324413857,-0.217130760495143,0.700657805286301
60,62,0.15745132620467,-0.402925159562118,-0.0107879286050695,-0.0453103819666849,0.0213754335826644,-0.0311623930593907,-0.0641776778496391,0.154675801002481,0.139331780354912,-0.369820999846254,-0.00529082757055126,-0.00948682854903164,-0.0277953757633086,-0.0207439842432221,-0.0310654035565455,0.041515598047843,0.115171391030421,-0.529753930394568,-0.0322970492141012,-0.0167874031572511,-0.0903868478505544,-0.187868297583191,-0.100248041719028,0.394831656328074,-0.0319139425534591,-0.532803252754609,-0.0938816337589984,-0.11631391099752,-0.160718600339363,-0.16955931233032,-0.237528562893471,0.771375476458229
70,59,0.202038691382841,-0.361743175996726,-0.0107879286050695,-0.0437754230335859,0.0173245649600053,-0.0201783409065253,-0.0517362809174353,0.156246605179537,0.139331780354912,-0.369820999846254,-0.00529082757055126,-0.00948682854903164,-0.0277953757633086,-0.0207439842432221,-0.0310654035565455,0.041515598047843,0.232384579694002,-0.418174602912497,-0.0173799057530062,-0.0322637654845258,-0.118448509094228,-0.188996684652376,-0.0989687754503558,0.439257715769119,-0.100392953641816,-0.506721390254529,-0.108510488518255,-0.154570206465909,-0.210417300531384,-0.194775051983555,-0.230208577345663,0.845922744292302
80,57,0.251221658208448,-0.351594346567424,-0.0159868264750631,-0.0328751599226331,0.0213439574986036,-0.0418700103564661,-0.0596022763414972,0.206797164600243,0.139331780354912,-0.369820999846254,-0.00529082757055126,-0.00948682854903164,-0.0277953757633086,-0.0207439842432221,-0.0310654035565455,0.041515598047843,0.0848324040676171,-0.482991713925205,-0.0224248899836718,-0.0356573672329794,-0.180238228603681,-0.195832022458202,-0.103461032972659,0.420220938727792,-0.158839183129375,-0.538497971509331,-0.125993110037904,-0.132424917870071,-0.205479132318778,-0.22211462072491,-0.240690225443401,0.918939714474001
90,54,0.331041025493475,-0.287199732862608,-0.00771376618188802,-0.0288859917570653,0.0213439574986036,-0.0365137431916229,-0.0596022763414972,0.220480858776438,0.161355420374694,-0.359246810606396,-0.00529082757055126,-0.00948682854903164,-0.0277953757633086,-0.015509616305821,-0.0310654035565455,0.041515598047843,0.053993963982975,-0.505800660505069,-0.0422671185808215,-0.0430514194622835,-0.196417787177803,-0.211444234969989,-0.111518080380352,0.411681766504004,-0.144567794513062,-0.488627883402594,-0.113950966505,-0.137644585776567,-0.215886126047447,-0.238046613283053,-0.250296433639395,0.985813265363893
100,61,0.263820399662291,-0.308028839328986,-0.0170874524019802,-0.0288859917570653,0.0197154522367371,-0.0459133127269402,-0.0480941379084269,0.221548506311371,0.161355420374694,-0.359246810606396,-0.00529082757055126,-0.00948682854903164,-0.0277953757633086,-0.015509616305821,-0.0310654035565455,0.041515598047843,0.0543430529562595,-0.576152255030578,-0.0261416484501747,-0.0433423949446598,-0.214811310571355,-0.239247804295773,-0.133978125668553,0.469626345584849,-0.180147715211478,-0.4939745563518,-0.124240997272764,-0.142028320188288,-0.214370848304466,-0.27672212991079,-0.24554148406263,1.04704975268235
110,61,0.172800190014196,-0.402492469809609,-0.0147367600722473,-0.025298202063462,0.0222996254989874,-0.0721779353469625,-0.0841968015473865,0.215964366028904,0.161233074601557,-0.385081082400766,-0.00529082757055126,-0.0125980114616469,-0.0277953757633086,-0.0194198133824238,-0.0310654035565455,0.0433509151047894,0.0637849373727259,-0.560879251575855,-0.0500261022446005,-0.0620156422093775,-0.219055480827807,-0.267192084227714,-0.164645380269443,0.497136227173836,-0.201404229310635,-0.547313433455673,-0.11350913247737,-0.146684588900449,-0.216622253221343,-0.309871305109614,-0.277967695947047,1.04025853982474
120,62,0.170062687890366,-0.445968956674128,-0.0146313334105468,-0.0256054098291995,0.0150541287223273,-0.0885223545200904,-0.0733641986705984,0.235002178015245,0.213931225649362,-0.334190759811575,-0.00529082757055126,-0.00652292145760802,-0.0311657055851837,-0.0194198133824238,-0.0425496444729284,0.0628433585468139,0.0168511080828356,-0.500168786098572,-0.0350141922368775,-0.0670543053172561,-0.247714264870816,-0.28901426446812,-0.157693017627853,0.552428887461165,-0.188574031734749,-0.590490596832368,-0.129772167811496,-0.129251642854114,-0.230334268791534,-0.310948547101792,-0.298604729073863,1.0883498773536
130,57,0.211269189489057,-0.393605558211895,-0.0141551108004525,-0.0242254265861172,0.00506559841856564,-0.084944274814231,-0.0697426010349189,0.282032021412256,0.256862689544118,-0.37033067431852,-0.00316387488499872,-0.0176108395537362,-0.0341299914896072,-0.0354465864592056,-0.0353092468238624,0.0913000828246334,0.0756518395097511,-0.485983010662235,-0.0587774989989696,-0.0745433034840031,-0.258256972434737,-0.30802413773015,-0.20631595684695,0.620854446256353,-0.239936148429933,-0.562493297059015,-0.129985646452108,-0.143367523930418,-0.211431437455642,-0.311105484936758,-0.320254985563617,1.12130487872758
140,61,0.208210239663812,-0.391333562740345,-0.0141551108004525,-0.0296315154305657,-7.91373985561126E-05,-0.0757317818821308,-0.0697426010349189,0.284277638882021,0.282207355657769,-0.393934134146037,0.0212422961348569,-0.0300007650604408,-0.0290761150683215,-0.0392018991155876,-0.0465570461471193,0.128094143345168,0.0547595272814705,-0.58356691363972,-0.0676058274995442,-0.108963780451192,-0.287659513898634,-0.316770888307658,-0.209131917452936,0.702550946773135,-0.157036204520356,-0.529266464288008,-0.134339842397973,-0.165754603717178,-0.237492499646793,-0.304714011675932,-0.324902166854441,1.1510943028736
150,64,0.197912014807427,-0.400506799817512,-0.0079698856704781,-0.0296315154305657,-0.00892002479218682,-0.0837193166694986,-0.0640544457883537,0.289131522631864,0.213522829976337,-0.466608368312136,0.0270929907345227,-0.0326890917610743,-0.0329549684898191,-0.0683466010077119,-0.0566091765896877,0.127988784775382,0.110089861071758,-0.585213167881598,-0.0700181032555621,-0.126448563817677,-0.285905263184653,-0.339741745988849,-0.24779986182464,0.730632183229302,-0.1848353109881,-0.635300792755476,-0.15908642100844,-0.190557287830569,-0.246146327748161,-0.318601839696436,-0.340438741011582,1.17211811939536
160,60,0.168814915107047,-0.4280541276396,-0.0203055457122038,-0.0269627035035567,-0.0166858236273673,-0.0768160140189296,-0.0698599185573067,0.298743047329465,0.256547554201339,-0.461378469634532,0.0270929907345227,-0.0376073763081446,-0.0371684867754416,-0.0680646643785645,-0.0551384363832067,0.144002364277154,0.193895415102715,-0.448352006887539,-0.0625217567374331,-0.119789072213803,-0.273025156020875,-0.3184811452461,-0.266624148762606,0.763253742873145,-0.221600065706044,-0.597736920707296,-0.154685539634992,-0.230719446822673,-0.271186248039597,-0.326977876462917,-0.351158014716963,1.20130920756187
170,60,0.189968831165462,-0.406262592608798,-0.0235346867589589,-0.0269627035035567,-0.0199586604430468,-0.0768160140189296,-0.0763488113840682,0.308682489247948,0.271394320594683,-0.457804296447807,0.0270929907345227,-0.0340414077414416,-0.0371684867754416,-0.0680646643785645,-0.0551384363832067,0.144002364277154,0.011791238968228,-0.485924838850539,-0.0808889475747418,-0.131443001801164,-0.291056545142385,-0.340287758592676,-0.277747150148061,0.792675994137099,-0.263287919463751,-0.662307551846304,-0.15715586174349,-0.258972463616133,-0.278623663704209,-0.356069811406935,-0.388392976431439,1.1984020120931
180,59,0.206926923850651,-0.395208012995234,-0.0235346867589589,-0.0269627035035567,-0.0144860903862976,-0.0768160140189296,-0.0763488113840682,0.308682489247948,0.271394320594683,-0.457804296447807,0.0270929907345227,-0.0340414077414416,-0.0371684867754416,-0.0680646643785645,-0.0551384363832067,0.144002364277154,-0.0118060523446921,-0.406304752607159,-0.082981110474075,-0.121081412999111,-0.270987880585281,-0.349813663881612,-0.272154927791683,0.81797232473219,-0.240682143654204,-0.638814494114686,-0.155595197695158,-0.251111454237356,-0.309020505518583,-0.412676884860271,-0.417911409878825,1.27373810737287
190,52,0.169360658718699,-0.420083381045832,-0.0289040315160416,-0.0269627035035567,-0.0198912968451149,-0.0926736837558889,-0.0811580320199237,0.301624049328374,0.271394320594683,-0.457804296447807,0.0270929907345227,-0.0340414077414416,-0.0371684867754416,-0.0680646643785645,-0.0551384363832067,0.144002364277154,-0.00517308871176121,-0.454790890230511,-0.0925315209516964,-0.122472290140359,-0.254658018173295,-0.35297011878475,-0.278974676949522,0.825170199126877,-0.106913809862244,-0.582278976926639,-0.146416394413085,-0.257650344518869,-0.308236398843533,-0.389826953709225,-0.411753479917805,1.31353871311528
200,59,0.20319637807164,-0.432043566444585,-0.0266524633133487,-0.0302227365002233,-0.0450984288151459,-0.0787865139674951,-0.0959098908774437,0.321904342824712,0.27514293938314,-0.404085460885305,0.0306822249199677,-0.0335873850758818,-0.0449083449940865,-0.102532665233225,-0.0611722945657382,0.163247525100634,-0.00197679301060229,-0.472672398443757,-0.105405854313091,-0.135868141552022,-0.284216968358025,-0.364333909496713,-0.297933330153102,0.874655955095445,-0.261288345313378,-0.552341470648692,-0.144426425612349,-0.240622272039961,-0.317075698032266,-0.401693946517703,-0.386310658563442,1.29725185025579
210,56,0.214546865162637,-0.390304820325808,-0.021766420424965,-0.0247289988150353,-0.0393924344216764,-0.0787865139674951,-0.0943725346841548,0.331795878205445,0.224660395160877,-0.45081558776156,0.0349117166290559,-0.0247115343597559,-0.052367351555235,-0.124995954944116,-0.0804427383729184,0.174096936519185,0.172645741486106,-0.521291076254184,-0.101024149101273,-0.123614879466092,-0.294628062213713,-0.351430980563778,-0.319778528241104,0.910758010821595,-0.217725377813914,-0.591030751083888,-0.145079082029507,-0.242594439810468,-0.343191197268261,-0.402419843887934,-0.381406080243823,1.3392094755964
220,57,0.214546865162637,-0.390304820325808,-0.021766420424965,-0.0247289988150353,-0.0393924344216764,-0.0787865139674951,-0.0943725346841548,0.331795878205445,0.254046126692816,-0.472317687407056,0.032139240049844,-0.0360651292701661,-0.055838390433339,-0.124334204787601,-0.088624473692323,0.190404026443236,0.0697011069192872,-0.543220259200764,-0.115450161993173,-0.117200319303487,-0.309251466183684,-0.368926857510139,-0.32950698236896,0.94037834154222,-0.265141481859269,-0.564870912249614,-0.145671389725775,-0.257646234796322,-0.328984189089128,-0.40671416141326,-0.44208481494849,1.34991411198507
230,58,0.214546865162637,-0.390304820325808,-0.021766420424965,-0.0247289988150353,-0.0393924344216764,-0.0787865139674951,-0.0943725346841548,0.331795878205445,0.268737667528621,-0.468780272006001,0.032139240049844,-0.0360651292701661,-0.055838390433339,-0.124334204787601,-0.088624473692323,0.190404026443236,0.0234590298079273,-0.566272700201707,-0.126766565867355,-0.151234440083343,-0.315321772181179,-0.382630954024712,-0.352599845656061,0.963686238349806,-0.242318231569187,-0.578656578834613,-0.146995251588921,-0.2389013052409,-0.350797756095732,-0.424061074179065,-0.440119098935129,1.32751387353114
240,64,0.171203160425818,-0.435485448791908,-0.0327561584434493,-0.0319240237307665,-0.0508008066961726,-0.0856781697791035,-0.103816634930626,0.338898250399297,0.224926951874253,-0.528191914268039,0.0276806448491459,-0.0469734743159476,-0.0778153975280151,-0.133224406206284,-0.0932319307589834,0.19594358755915,0.0133751473385928,-0.641533651930342,-0.129332002199797,-0.163955540383525,-0.29981604491145,-0.421276757090171,-0.39025042394006,0.972689512055125,-0.218027419494046,-0.632821338897319,-0.140509812631351,-0.246195665106753,-0.348836601037169,-0.454764930841169,-0.46452551638778,1.30830082955262
250,56,0.208185798805417,-0.420566935334592,-0.0327561584434493,-0.0319240237307665,-0.0508008066961726,-0.0856781697791035,-0.103816634930626,0.338898250399297,0.37577961239011,-0.403644646880693,0.0312051821729484,-0.0428181387423825,-0.0880651277700848,-0.108339856150481,-0.0847019505141814,0.217997899221228,0.017564442159663,-0.60061856978246,-0.148986426598355,-0.168664307791576,-0.302419042842641,-0.4135756129944,-0.386594328914993,0.975371623280082,-0.237912870767703,-0.611639386547862,-0.106237493188504,-0.247411569797372,-0.36930633958128,-0.463393130812057,-0.48682990139167,1.30962518068051
260,61,0.22579710961789,-0.429385088609674,-0.0382659101435409,-0.035683375350204,-0.0642900764957363,-0.117125097053752,-0.112028291459841,0.354354017325017,0.362178782212076,-0.421141324691585,0.0212617790652235,-0.0379994906070868,-0.0764919134427786,-0.108339856150481,-0.0823150940287931,0.219409609553307,-0.0538879510517072,-0.570195697581757,-0.138194485251383,-0.177353045879342,-0.311412557016496,-0.40505698881424,-0.390008148392214,0.997747801218272,-0.145719602140977,-0.658363736161026,-0.0761160516016336,-0.264864956654622,-0.362684191280426,-0.466134510417235,-0.503946698636446,1.31391216992565
270,58,0.199354463036676,-0.474134431375962,-0.042477768688718,-0.046842540888213,-0.0725237012484967,-0.110880823630503,-0.113504364231904,0.352171785424547,0.319144809379264,-0.459310827088714,0.00944075038668736,-0.0417800642421725,-0.0846490398482855,-0.104574198247935,-0.100763864103553,0.240107011385729,-0.0600118125555493,-0.614419991054376,-0.137178105668691,-0.187084955881782,-0.308812192763767,-0.410110260006645,-0.364303452992168,1.01634692238664,-0.223481038692329,-0.576053185568103,-0.0833376298913678,-0.285186472115565,-0.358564577672237,-0.466464848254987,-0.512739944813527,1.31927876471246
280,57,0.173686053364591,-0.508649345851923,-0.0523728402417125,-0.0558562665052562,-0.076559543011324,-0.107304989241904,-0.119428289216447,0.347433436267236,0.237426983442214,-0.483340513949034,0.0104235926610234,-0.048445310537131,-0.126803666650079,-0.115409322422091,-0.124752158048449,0.234209563011551,-0.0509701317566973,-0.59726183477555,-0.132259828752402,-0.165119032759286,-0.296492628582742,-0.426768325917543,-0.352840706513451,1.05608463770423,-0.165703607901903,-0.559612954311802,-0.0755519405316443,-0.291848115459364,-0.392070594646392,-0.476248379754219,-0.522232327500013,1.31853855479777
290,58,0.227696706991719,-0.46227820182996,-0.0474696882661167,-0.0574795980227487,-0.0842843035886495,-0.101895199755988,-0.122589491008222,0.371889581461203,0.260925471993393,-0.472402162244137,0.00536495925857642,-0.048445310537131,-0.136854367614672,-0.12143527939153,-0.128813094454959,0.249812462241503,-0.116659582114005,-0.671758199389885,-0.141433441754096,-0.176006970225285,-0.306566474735799,-0.443450265158787,-0.397615211615905,1.06958158314956,-0.157101567773899,-0.440767288577946,-0.076850855689783,-0.296799266233004,-0.384222902067997,-0.47593819022364,-0.507076252928803,1.28563461823155
300,59,0.275667699796244,-0.417379561144042,-0.0395841494643386,-0.0726939253529848,-0.0927766295778079,-0.109090424750005,-0.118022082250875,0.403340450951625,0.287872941663902,-0.446419654695258,0.00536495925857642,-0.048445310537131,-0.136854367614672,-0.12143527939153,-0.122557560480623,0.256053332012237,-0.0330085788618797,-0.679579569798164,-0.158039504001523,-0.196165322070284,-0.315027909574181,-0.426313362305674,-0.416674299508914,1.13055694328425,-0.265225537267572,-0.532343331953905,-0.0805288167251472,-0.292808958796689,-0.38888352777555,-0.496022951311749,-0.494429168128656,1.21716615592976
310,56,0.273238308030647,-0.403578648720158,-0.0360099122644986,-0.071625431832641,-0.103437530315182,-0.113226874459165,-0.127358806129164,0.417736575765516,0.298515873086628,-0.446419654695258,0.00536495925857642,-0.048445310537131,-0.134275936057407,-0.12143527939153,-0.122557560480623,0.256053332012237,-0.0630154107491969,-0.701750282755255,-0.15511776510447,-0.200671025999443,-0.334243752212717,-0.428971764620988,-0.408636989187023,1.1311448502399,-0.216951298266326,-0.592637785812508,-0.0830463691523922,-0.280815171199801,-0.370324449895211,-0.537472966668219,-0.547057055924887,1.27386343585021
320,58,0.244540667889913,-0.336588868173146,-0.0360099122644986,-0.0643652947393695,-0.0841202237032885,-0.127649323255343,-0.121887683446597,0.417003335644726,0.329009094945655,-0.430503593282774,0.00536495925857642,-0.0455871562920821,-0.130479542790397,-0.118215382803003,-0.134064125389649,0.263811717877153,0.0750021747010729,-0.65310687508533,-0.170409591211557,-0.189965574651225,-0.305169305943702,-0.405421740254938,-0.417756221330788,1.24009327767665,-0.227223243381155,-0.636060038253844,-0.076211521279235,-0.300390073852541,-0.398297768674318,-0.556180714980468,-0.558565741491161,1.24874646032092
330,55,0.220282902396352,-0.337417081299171,-0.0416879678984748,-0.059381696242179,-0.0692904723409131,-0.119748440144233,-0.121887683446597,0.408097857146172,0.329009094945655,-0.430503593282774,0.00536495925857642,-0.0455871562920821,-0.130479542790397,-0.118215382803003,-0.134064125389649,0.263811717877153,-0.0610255045244838,-0.592437190277873,-0.187960262871262,-0.199305717530874,-0.304423763803583,-0.41323891677531,-0.464502469164798,1.23274138535207,-0.183439097570948,-0.609358363161765,-0.0833125687932051,-0.277976399801994,-0.405748784750568,-0.551490425865661,-0.568047861895175,1.26185619834054
340,55,0.242307517501781,-0.321903386425805,-0.0416879678984748,-0.054441028665538,-0.0639861696377529,-0.115634390848135,-0.127679448261805,0.419372056517184,0.309061903309565,-0.424167310159588,0.00437354562833113,-0.0577935947462085,-0.130042515419594,-0.133398378036381,-0.160496466392258,0.291434786264575,-0.0921579218746228,-0.574484270286976,-0.202641864189964,-0.206292377043731,-0.303478466771075,-0.413537384618975,-0.465386832248991,1.24565714958879,-0.27721787963764,-0.539589501854467,-0.106388206564162,-0.287523646184947,-0.406817553479787,-0.527626182626529,-0.538499784170247,1.26567514577306
350,58,0.261298489112108,-0.303668308204936,-0.0416879678984748,-0.054441028665538,-0.0639861696377529,-0.115634390848135,-0.127679448261805,0.42375055541469,0.292057625797449,-0.417365876231246,-0.000249740327110066,-0.0577935947462085,-0.127512878867024,-0.139844366349071,-0.159235599818958,0.293456365241247,-0.0227418859250802,-0.663417189389589,-0.212911798075211,-0.2210246495763,-0.307095155739263,-0.404078176310058,-0.470314921704161,1.24973749163462,-0.181493383248179,-0.534543962514947,-0.0745226770212954,-0.282789965005854,-0.407796825457546,-0.511737280259367,-0.521843078592938,1.25376296747886
360,56,0.161904471300344,-0.320070956344759,-0.0369393730594059,-0.0498571660872672,-0.0649474298002561,-0.106894737458102,-0.132950879627314,0.398645236387605,0.291907584534085,-0.419535280863916,-0.000249740327110066,-0.0577935947462085,-0.127512878867024,-0.148261973839028,-0.159235599818958,0.293456365241247,-0.167099228901231,-0.72814030058076,-0.187686286147658,-0.220759213194789,-0.327531250494508,-0.415759848909529,-0.474894972477254,1.24951640596993,-0.162110528920619,-0.533055047393183,-0.05086114653077,-0.282076068930935,-0.39132447103319,-0.508334930294155,-0.54078583472867,1.25297651957648
370,61,0.193967713972828,-0.284744906570894,-0.0369393730594059,-0.0498571660872672,-0.055535694552303,-0.106894737458102,-0.132950879627314,0.409482765983452,0.310244166648252,-0.410976083896928,-0.000249740327110066,-0.0577935947462085,-0.127512878867024,-0.148261973839028,-0.159235599818958,0.294778672343023,-0.0533716332896714,-0.589361478930465,-0.195366357312588,-0.232606311573634,-0.350657429528356,-0.416739067644881,-0.474618831723057,1.32523196661043,-0.184771226483267,-0.46106139665538,-0.0250757849194571,-0.295467207667665,-0.351936442543126,-0.480936374505183,-0.548796674640663,1.29342838640203
380,59,0.173894194481444,-0.28012202699296,-0.0338738433595772,-0.0500065268174124,-0.0459208777060882,-0.116112700788352,-0.137705328448261,0.398721422211849,0.31483722788169,-0.412062618555162,-0.000249740327110066,-0.0577935947462085,-0.127512878867024,-0.148261973839028,-0.164511198617241,0.29673471527344,-0.0100063128775301,-0.564189603178732,-0.201426378144133,-0.246186509008949,-0.369405463430893,-0.427023208287173,-0.505795158690009,1.33675346718544,-0.279999271644192,-0.51622432169211,-0.0328245394442206,-0.283168263922366,-0.337549843191402,-0.462151646788872,-0.541677751973979,1.22428275984696
390,58,0.163777902441392,-0.265684630891294,-0.0338738433595772,-0.0500065268174124,-0.0416964779057226,-0.112362421167588,-0.137705328448261,0.402935518525083,0.328262916361477,-0.408824870344997,-0.000249740327110066,-0.0577935947462085,-0.127512878867024,-0.148261973839028,-0.161280535236138,0.29673471527344,0.06712444074515,-0.575933053986683,-0.205049037713223,-0.259108693075819,-0.362188627747496,-0.426055551311671,-0.484333051803513,1.31173729822326,-0.21454214086601,-0.50548352799026,-0.0643629295441065,-0.287275439648115,-0.337949587586856,-0.482284210560818,-0.536584825842413,1.33583949630794
400,64,0.199477240965371,-0.219111886243032,-0.0287071413675647,-0.0500065268174124,-0.0416964779057226,-0.112362421167588,-0.131680739380651,0.408089317037478,0.389715682622054,-0.349827684442809,-0.000249740327110066,-0.0577935947462085,-0.118019535512178,-0.148261973839028,-0.161280535236138,0.305975500706872,-0.0631206065060696,-0.619138789297945,-0.199366487043181,-0.262824305921004,-0.38751024557539,-0.441939492988041,-0.50393167715861,1.29261993234067,-0.266069475645581,-0.623462942509019,-0.0911528129440935,-0.308454677154501,-0.36890643038259,-0.505223836398662,-0.476840085624515,1.35832506576327
410,55,0.205202178296974,-0.230866582209699,-0.0228543353318543,-0.0435540852176222,-0.0468416010563176,-0.116822569518078,-0.128216842825281,0.411299580053092,0.336603936606907,-0.35781565022523,-0.000249740327110066,-0.0577935947462085,-0.118019535512178,-0.154884729974431,-0.156430110870508,0.31081381076603,-0.111477386782953,-0.616695117661442,-0.17319476443084,-0.283693700328742,-0.402040215437769,-0.439309397229317,-0.509916253592418,1.30476225702053,-0.31591036887169,-0.664189489839743,-0.105435984768473,-0.312624964416811,-0.356194025386799,-0.519851324434134,-0.47297951487012,1.28478586369278
420,55,0.159609265103223,-0.228246656230992,-0.0281851147475835,-0.0488201494779072,-0.0468416010563176,-0.116822569518078,-0.130346007862458,0.409173608023827,0.369947755740379,-0.343923703613747,-0.000249740327110066,-0.0577935947462085,-0.1204277269407,-0.159498290374762,-0.170102812693935,0.325142679953675,-0.102929123847428,-0.553064888886471,-0.173314312430003,-0.287722410643282,-0.410474974404082,-0.441439849530018,-0.479820432518168,1.32385298969553,-0.208292118167747,-0.600643003727679,-0.100520620591301,-0.27286740760072,-0.362295435765314,-0.509930446100614,-0.491966341764279,1.31271971755303
430,56,0.0960185568308784,-0.259902935327792,-0.0235189411715158,-0.0490683671192181,-0.0575046622262363,-0.126661288946121,-0.14093211681357,0.418835039014807,0.321400620017805,-0.358575435388627,-0.00723550798635202,-0.0540923487493183,-0.110237515721555,-0.162693307839072,-0.170102812693935,0.314239187355183,-0.06177663517724,-0.536273618119327,-0.135834428230372,-0.292688198675588,-0.437308063487041,-0.444126661667918,-0.474664720925365,1.34243022446953,-0.239937116462518,-0.557088329382829,-0.108826733444233,-0.271194371166738,-0.374859796972724,-0.521095331295671,-0.459012320787524,1.3390537422018
440,54,0.107676169656247,-0.287582009301114,-0.0322172671678517,-0.0485056461028497,-0.0612988528277289,-0.137119711820524,-0.134816920715051,0.433477169386348,0.321400620017805,-0.358575435388627,-0.00723550798635202,-0.0540923487493183,-0.110237515721555,-0.162693307839072,-0.170102812693935,0.314239187355183,-0.153861300208244,-0.538965853635124,-0.144622362364276,-0.304337599526828,-0.447081394654029,-0.443799228386587,-0.480213149527914,1.37344265272242,-0.203133979041852,-0.540511697725746,-0.113922012663542,-0.246975439779423,-0.378440945797317,-0.550483067728516,-0.493621205202948,1.37424614956355
450,58,0.0358668707558635,-0.387581910451154,-0.0437844226093675,-0.0561416433031486,-0.0729454588919548,-0.130912295208597,-0.151977925996117,0.423226619200451,0.328632788005403,-0.363768089072612,-0.00952604639455536,-0.0495396464892247,-0.110237515721555,-0.159567475032893,-0.170102812693935,0.307866593903151,-0.0999122457424999,-0.625486373717837,-0.154938089538628,-0.290780249046657,-0.458867918513133,-0.451048818091451,-0.48855410013065,1.38630541748954,-0.196281352976207,-0.475197119617274,-0.0889350904006262,-0.260865766854736,-0.400601712445116,-0.549238976811905,-0.468725626596407,1.33115405238961
460,58,0.0358668707558635,-0.387581910451154,-0.0437844226093675,-0.0561416433031486,-0.0729454588919548,-0.130912295208597,-0.151977925996117,0.423226619200451,0.316925126052345,-0.357835442471591,-0.00952604639455536,-0.0460205741543951,-0.107976530228375,-0.151016632292171,-0.176704551498486,0.312380657335746,-0.0456055696261372,-0.622312289211818,-0.148864247503472,-0.291669719380539,-0.442323291403989,-0.480294782492023,-0.492198048418585,1.42208692921362,-0.289841079140811,-0.614096642676963,-0.0892409780454936,-0.296623052163224,-0.421456603347255,-0.510746223517589,-0.429966729342679,1.2987409145716
470,60,0.0248410225336677,-0.433562738869827,-0.0437844226093675,-0.0516069805671088,-0.0681910248602083,-0.15165764218787,-0.151977925996117,0.436572349436422,0.301927128620635,-0.350660129843064,-0.00952604639455536,-0.0509055430202644,-0.113427928490382,-0.151472542319217,-0.197120009059168,0.320631644687267,-0.113751549948987,-0.651435599384284,-0.144762712921638,-0.284844829839614,-0.453395165741635,-0.486078678747511,-0.499133935387318,1.42599885736043,-0.222788630533045,-0.57681325384708,-0.106283783344436,-0.260284679890562,-0.412450433983709,-0.527942160144815,-0.433420308307582,1.31492367508511
480,61,0.00419302436764241,-0.47293947884554,-0.0462816330595014,-0.0543869693755222,-0.0705480842574374,-0.150005650891622,-0.159621918037369,0.436572349436422,0.325595162291585,-0.330871556125488,-0.00320067885444588,-0.0502654131768771,-0.123370405990699,-0.167485687167527,-0.189687890253697,0.334770217316222,-0.0569178891706705,-0.670478990777681,-0.153522976128676,-0.285857056264628,-0.448549348288744,-0.476234656331593,-0.511651635508506,1.44046750120026,-0.272623694284278,-0.680428624277514,-0.11747506257723,-0.283879647829091,-0.43047355653501,-0.555670481525155,-0.437118398755735,1.22343118451043
490,61,0.0493378035635957,-0.431668945655304,-0.0462816330595014,-0.0521311633984418,-0.0705480842574374,-0.160574403080242,-0.151606656038244,0.450627642550464,0.339574419896217,-0.299172166255894,-0.00320067885444588,-0.0574952988602989,-0.120552820110229,-0.16353061951092,-0.189687890253697,0.343436114131189,-0.0994900194210611,-0.679734551973993,-0.160546839089912,-0.264333013853437,-0.455018853393885,-0.493295255457111,-0.530778646627989,1.40900471593141,-0.212406210830088,-0.679556236355567,-0.125046081205195,-0.328121184603029,-0.423726783441404,-0.55181666496898,-0.467223426642692,1.30111364759104
500,56,0.0811626610533884,-0.42537953863503,-0.0424286755887197,-0.0466692524753206,-0.0705480842574374,-0.160574403080242,-0.151606656038244,0.455659090392026,0.284367493785129,-0.315854041145621,-0.0074809278256966,-0.0546729392028235,-0.120552820110229,-0.167917690094832,-0.189687890253697,0.34823805553062,-0.138195604216011,-0.675203502967194,-0.152268213201766,-0.300479082950956,-0.449357658501207,-0.485453604602549,-0.525034684736578,1.4068650291336,-0.235844964998316,-0.607130860789922,-0.127641158454585,-0.320811848373759,-0.449896307639969,-0.560046122498294,-0.450254135653361,1.29276354793635
510,61,0.106305661426255,-0.413283392488227,-0.0424286755887197,-0.0466692524753206,-0.0705480842574374,-0.160574403080242,-0.151606656038244,0.455659090392026,0.283055350989414,-0.312611861258387,-0.0074809278256966,-0.0514971848326299,-0.117292772507441,-0.163072441310261,-0.189687890253697,0.356324092236589,-0.121933786614447,-0.632665750080217,-0.154944178808065,-0.298930554724191,-0.447437662121436,-0.455061044511171,-0.538814026035922,1.43373543308657,-0.276930114797842,-0.69211245040336,-0.132399923133867,-0.357896979824209,-0.460268425770147,-0.563163666234557,-0.45456315714614,1.27083007969691
520,59,0.184797871536001,-0.325031929644338,-0.0332631987364358,-0.0544417310217665,-0.0741822661625132,-0.155501302711502,-0.165417360394655,0.496464449946916,0.241176563247461,-0.29154428260896,-0.0074809278256966,-0.0514971848326299,-0.112484070351093,-0.169670946069005,-0.181384155201854,0.368277915181155,-0.0423957037446141,-0.650959223652656,-0.159494801357346,-0.295919331459646,-0.427703559563843,-0.458779142046041,-0.549526455429799,1.44902061506407,-0.220841324400875,-0.720025788058685,-0.139786158864204,-0.37932720586855,-0.442447964997828,-0.576324963121082,-0.478260429262839,1.35443373847207
530,53,0.180849508827066,-0.332017457255038,-0.0285706340010206,-0.0541444364148023,-0.0780614179318859,-0.155784971392521,-0.165280733262403,0.482449478907694,0.288929688609018,-0.257517505611325,-0.0074809278256966,-0.0514971848326299,-0.112484070351093,-0.165827180507625,-0.181384155201854,0.372507622319562,-0.113065178295618,-0.650954546194463,-0.159505628943311,-0.29980295043243,-0.432679670125582,-0.468677601781836,-0.554324515466368,1.43374258259549,-0.171008948934524,-0.668586654037816,-0.124021831376455,-0.364434959916142,-0.45933676722613,-0.600077563764241,-0.476819241094286,1.36906827249728
540,61,0.19364312491625,-0.356040636149631,-0.0316903528656752,-0.0642310349095874,-0.0888073824203758,-0.166448648820917,-0.168099454629188,0.478295945520187,0.282737372761351,-0.263505313268745,-0.0074809278256966,-0.0514971848326299,-0.112484070351093,-0.161517388556474,-0.181384155201854,0.371055348140196,-0.0856639282226832,-0.743726995410952,-0.17753425516147,-0.299970137271819,-0.448098892802865,-0.491637328857055,-0.550450197405902,1.40504290469515,-0.182826148094304,-0.607879334192902,-0.120573166442382,-0.372756028318474,-0.425203411118519,-0.610407347654568,-0.504416346038192,1.36939032608884
550,60,0.248344138287358,-0.276710061159326,-0.0382424025984834,-0.0610255968795018,-0.0905187129265678,-0.166448648820917,-0.156765843711427,0.502302496771267,0.315485312558656,-0.226525336663043,-0.0074809278256966,-0.04646932863632,-0.108629216142186,-0.161517388556474,-0.181384155201854,0.374901074763868,-0.0527862953940881,-0.726212936467442,-0.17717914915373,-0.319118319437842,-0.437340368574676,-0.490338558092825,-0.532220033695186,1.43567175225942,-0.231477120811686,-0.590313018678878,-0.133351218238943,-0.352985548587786,-0.446865918902075,-0.617439918707825,-0.557323757471013,1.33406911505439
560,57,0.277916351371428,-0.257800496985824,-0.0382424025984834,-0.0579310480008259,-0.0905187129265678,-0.163429979916922,-0.156765843711427,0.508402747801293,0.273004140660571,-0.278150635217352,-0.012483421748057,-0.04646932863632,-0.113357909840836,-0.166924991627471,-0.191872147534061,0.364848817753613,-0.116745917498125,-0.71266084923359,-0.163862955274372,-0.283739019805625,-0.437894060081838,-0.491931217741424,-0.541586120999813,1.42939502719892,-0.166015656104267,-0.573740330499496,-0.117642778590994,-0.373381496491233,-0.477716801065589,-0.588281336855205,-0.585833925714967,1.36794400960405
570,57,0.345605685277021,-0.193027956641246,-0.0318347475041091,-0.0621119001402335,-0.082927207023169,-0.153198323792336,-0.153649197540229,0.524009275770352,0.252907784623926,-0.295389376877225,-0.010952293269197,-0.0428241437999164,-0.11429725644104,-0.177436125054205,-0.195638825804264,0.372262131389478,-0.170945574051267,-0.697686707856395,-0.164222399244901,-0.308506663441967,-0.443598899625939,-0.489748203528224,-0.540124714114571,1.39033601200495,-0.0512664147119221,-0.487791597098811,-0.0919163234515516,-0.361362390223953,-0.49862330182604,-0.610930353447876,-0.610449904841087,1.43486983516684
580,55,0.345605685277021,-0.193027956641246,-0.0318347475041091,-0.0621119001402335,-0.082927207023169,-0.153198323792336,-0.153649197540229,0.524009275770352,0.260022714846644,-0.290728086258416,-0.0056635686859048,-0.0467485725483888,-0.114862799489593,-0.175905185752034,-0.195638825804264,0.370033922494135,0.00804860202778114,-0.558176355497757,-0.171252312404667,-0.325188872206358,-0.457051233561856,-0.473360615499554,-0.519556275899984,1.47167266861264,-0.132761581331281,-0.57995421617339,-0.106862717251116,-0.33985152969951,-0.473876686363816,-0.623547705722688,-0.60660237570884,1.42110481095875
590,56,0.294103239475341,-0.227500343286987,-0.039903733701437,-0.0627566407033128,-0.082927207023169,-0.157163547778534,-0.158265828466967,0.537589082375137,0.287876612560126,-0.295659759149659,-0.0152105766439169,-0.0508113931725254,-0.104105427606391,-0.175905185752034,-0.20015128278948,0.380768093339603,-0.122302711147948,-0.632256095513422,-0.173350204432943,-0.333883503844941,-0.470001364174257,-0.487750437497634,-0.533763571584046,1.4176789736887,-0.12539611983085,-0.532436329024118,-0.113388418292216,-0.359040015088734,-0.455522694708911,-0.616593692438986,-0.586317562055512,1.42811774945074
600,55,0.214461262568447,-0.255091622948561,-0.0441912057604285,-0.0585038784966866,-0.0880756571807512,-0.179892403090798,-0.182075694210657,0.533592563916651,0.28480291729215,-0.266203240442491,-0.00796747775282439,-0.0459361061443935,-0.110988698777714,-0.175905185752034,-0.20015128278948,0.385996609438127,-0.152780520143979,-0.637525788598802,-0.176901128937566,-0.325840188478766,-0.471620647436132,-0.470834388280375,-0.528792263296845,1.42981897287416,-0.253085110394681,-0.580416685658993,-0.0930510344780707,-0.395506350055566,-0.457865570248847,-0.612464374060774,-0.557743772593377,1.40776587911902
610,62,0.0956366035140974,-0.319456251255275,-0.0541980846976638,-0.0639072804539751,-0.0909121182214353,-0.182802177457899,-0.195932804954252,0.549281669056989,0.28480291729215,-0.266203240442491,-0.00796747775282439,-0.0459361061443935,-0.110988698777714,-0.175905185752034,-0.20015128278948,0.385996609438127,-0.0747790890789501,-0.636833101021554,-0.171619330763854,-0.344889066509599,-0.490587251877722,-0.452410485941595,-0.511153494607022,1.44830856596971,-0.0537450315932297,-0.519320117251148,-0.0899187499231468,-0.391519515153306,-0.479606421141409,-0.583721331886568,-0.587609919263159,1.48592810854711
620,60,0.0262163516324437,-0.433478375756443,-0.0646477004312206,-0.0845533027311676,-0.105525738225086,-0.204053830979989,-0.191535378273869,0.559062159295948,0.296524920444558,-0.261205107327043,-0.00796747775282439,-0.0459361061443935,-0.110988698777714,-0.166712987164053,-0.195750734005471,0.382413430103983,-0.0240222830100296,-0.581885391858833,-0.190870324336953,-0.341482838481631,-0.486082646690963,-0.47946460906619,-0.485908863724544,1.46045407654019,-0.162441466766774,-0.63592896674189,-0.0751987824492348,-0.37051149575081,-0.490529780618506,-0.542273144337709,-0.582148902142806,1.41765589404932
630,63,0.0945178464596699,-0.408170849609326,-0.0574038588442633,-0.0735137984088269,-0.11191013590218,-0.209969572148831,-0.188899078204348,0.56629151494431,0.317069500612666,-0.241482157995041,-0.00796747775282439,-0.0459361061443935,-0.110988698777714,-0.166712987164053,-0.191016978527019,0.382413430103983,-0.0776990794527538,-0.681166806396305,-0.192826660318423,-0.361938973999066,-0.474004636796786,-0.530709883173546,-0.529439536059108,1.45215348661118,-0.278694958656835,-0.633342706893721,-0.0724968453773089,-0.365685232975893,-0.498578763817781,-0.546649726981072,-0.600484153896562,1.39320585820216
640,64,0.111677637486738,-0.375020567514188,-0.0574038588442633,-0.0694541505226765,-0.11191013590218,-0.214528003362315,-0.191585192337502,0.568746340718964,0.30765258543069,-0.235125108315487,-0.00366819166203081,-0.0459361061443935,-0.110988698777714,-0.166712987164053,-0.191016978527019,0.382413430103983,-0.0352901922193761,-0.636721462386381,-0.182792479326657,-0.400860894552785,-0.49662297448067,-0.533074000484388,-0.538060901865163,1.47982847988906,-0.209783029506843,-0.673541490477994,-0.0906263280083455,-0.356392510397234,-0.523614223053463,-0.553967179829706,-0.601353518486488,1.38095328306097
650,56,0.126965434097349,-0.367533585058274,-0.0528073591085385,-0.065311707858089,-0.114476056012183,-0.214528003362315,-0.18609722071049,0.572195525346215,0.275439181335521,-0.300588269543654,-0.0112066702977705,-0.04218544906331,-0.114839532978912,-0.174567300486934,-0.191016978527019,0.37234053894085,-0.0806343272091374,-0.611776711924426,-0.167320749271159,-0.433589186644545,-0.459263080459591,-0.530780661158679,-0.518491918789236,1.47670810866442,-0.260364959287252,-0.576142236357787,-0.109646349139031,-0.358733114906817,-0.52122231452969,-0.539803882082824,-0.575442027944638,1.42450338408377
660,56,0.153282688246486,-0.329369604457515,-0.0570379625088591,-0.0612786960298277,-0.119994501124253,-0.206985108939315,-0.187658970079198,0.581680467836239,0.300854342354806,-0.285364104797677,-0.00756816834685024,-0.04218544906331,-0.114839532978912,-0.167549231971542,-0.191016978527019,0.375361195860909,-0.0471307012306396,-0.614706112822559,-0.157061360803995,-0.427532871918598,-0.439908503233716,-0.538568466758069,-0.521556544494544,1.44582400251452,-0.263806091757435,-0.571506822738958,-0.126314192215362,-0.345245301978678,-0.529657636363482,-0.525625646987991,-0.560305381553051,1.43450110793286
670,55,0.117697884807623,-0.412849489864653,-0.0693135598599881,-0.0923114434417169,-0.131281274418556,-0.20623410335696,-0.227810534516011,0.596051474207552,0.30838614466632,-0.25510162321239,-0.00756816834685024,-0.0436969496297619,-0.119592040511841,-0.184147113495955,-0.19116855498562,0.388772416073947,-0.0838941681653271,-0.530916748440414,-0.146405899190793,-0.424371087475984,-0.428130383264795,-0.530984356526524,-0.548404985750545,1.43903467465198,-0.355562238996619,-0.50736864913888,-0.126702378568628,-0.360591527864023,-0.524743086870546,-0.544578680654793,-0.547779970227893,1.40693590217905
680,53,0.049728139343664,-0.443372267058977,-0.0787369232348004,-0.0923114434417169,-0.148927447483649,-0.226153258101341,-0.250272648751956,0.621152117231131,0.2333789966056,-0.274492349177851,-0.0028545830720719,-0.0410638089575682,-0.132202974618302,-0.211022958374149,-0.190047261943775,0.367204593468153,-0.152771839390416,-0.571243392984426,-0.145677422937934,-0.424648886517352,-0.434705266189277,-0.550109327894746,-0.556511912828683,1.41703243356155,-0.208701215770555,-0.470207579470342,-0.142589428604221,-0.372433576791224,-0.531458814758025,-0.521639473107932,-0.533329883774675,1.47311633847229
690,55,0.0442596438837344,-0.44970602750764,-0.0724618954500809,-0.0917013521508303,-0.162954113487902,-0.235180130664039,-0.263525540578621,0.626440172727141,0.214190943675756,-0.279123114907336,-0.0028545830720719,-0.0410638089575682,-0.138127042558635,-0.207280689339813,-0.186004294192084,0.367204593468153,-0.0813742588409336,-0.49214805098798,-0.145606815795797,-0.435192978153917,-0.440121329725266,-0.556226610664575,-0.579879240121617,1.45456046116448,-0.211435453344494,-0.539244160551899,-0.130882844021119,-0.36485360326813,-0.519566327418848,-0.52650219830698,-0.542197066473927,1.40581875275008
700,56,0.0788674483618236,-0.440148459418111,-0.0761399681133039,-0.0899332842328254,-0.177111144346439,-0.237878304728087,-0.262552513629979,0.638863794918925,0.273450188344115,-0.244184598569531,-0.0028545830720719,-0.0410638089575682,-0.133752891327365,-0.203263122390334,-0.186004294192084,0.367204593468153,-0.0766740801387991,-0.561478606703413,-0.127940894658495,-0.409032769468031,-0.437139291924381,-0.572788154138738,-0.556273785537216,1.43503504492185,-0.294423861898167,-0.559685971916098,-0.130159781321111,-0.363672139251054,-0.504526839191715,-0.527802842756181,-0.527441010313159,1.37963511111562
710,55,0.0595861080957969,-0.45818963531311,-0.0761399681133039,-0.0942616470069199,-0.177111144346439,-0.231714601609019,-0.253736018807789,0.636099157500719,0.267035569748682,-0.229149757342651,-0.00472734271817989,-0.0381567487776119,-0.149838765424519,-0.198545878068635,-0.183840060695529,0.354686586349994,-0.0167838269267168,-0.483500733181228,-0.130208285542496,-0.411201873329969,-0.423675177980143,-0.560064192291732,-0.540493871404743,1.45206059337,-0.293343733196483,-0.59522580789687,-0.119681351684821,-0.38837902381497,-0.493147333589241,-0.528656142662032,-0.543811546094682,1.3946700549423
720,61,0.0261422577380715,-0.488003527604995,-0.0733654821500497,-0.100436381153629,-0.188958339077274,-0.245635203001437,-0.260254451497841,0.63895988877462,0.276685847581131,-0.226916780571891,-0.00472734271817989,-0.0307910283213194,-0.149838765424519,-0.202998146273222,-0.183840060695529,0.364303159340023,-0.10693192796371,-0.595764329444941,-0.147517131798967,-0.381025245238649,-0.455778762770412,-0.582543749717949,-0.566395494734712,1.43044953081116,-0.282220304408794,-0.612119060355681,-0.114940956725723,-0.393929831171519,-0.489684205889795,-0.525118067579725,-0.540377422411689,1.34677281880426
730,63,0.113488220406835,-0.480891299834857,-0.0748830677892508,-0.0939917558603466,-0.192276843583451,-0.243305989372633,-0.260682006209584,0.659948269008679,0.268912382929546,-0.22760040527381,-0.00973348148353645,-0.0219611458583785,-0.154371541454025,-0.214467226385547,-0.18676300750688,0.360087314818572,-0.129485378772355,-0.679861232771016,-0.150715640768622,-0.401239850707807,-0.470028791961775,-0.552305488780279,-0.566977492843193,1.44354130355395,-0.246180256673384,-0.531454081003724,-0.113370226604032,-0.434878920817954,-0.485852368645987,-0.56003998126772,-0.519333307664338,1.38353953162659
740,58,0.123468103133582,-0.522933460153659,-0.0821927668590822,-0.1098826169965,-0.194647610075326,-0.24576294894668,-0.273106560509809,0.671516063953267,0.268912382929546,-0.22760040527381,-0.00973348148353645,-0.0219611458583785,-0.154371541454025,-0.214467226385547,-0.18676300750688,0.360087314818572,-0.100604260908073,-0.727068261684342,-0.136078823414835,-0.412893482994067,-0.476482848746238,-0.540175708946543,-0.567133566177488,1.44582802077756,-0.279212608520482,-0.474352063192484,-0.104944021507821,-0.443437184628311,-0.468937605501663,-0.557196329140928,-0.540561681942691,1.41978188248613
750,57,0.212645629579639,-0.436736744641555,-0.0851153081315862,-0.1098826169965,-0.172552302810425,-0.252962395139006,-0.265772675652117,0.694505097195951,0.275545316853326,-0.227504152841934,-0.0155243860782753,-0.0219611458583785,-0.154371541454025,-0.211348339820489,-0.182464335099897,0.361710868951337,-0.115524116100502,-0.689544985047367,-0.164861949359965,-0.403756375871488,-0.482708733454385,-0.519914034749024,-0.565872444208208,1.47723288332536,-0.308107575463786,-0.578304086373941,-0.123132592348376,-0.430764618331215,-0.471007752902195,-0.536546343849972,-0.533561104337188,1.36588032667373
760,55,0.212645629579639,-0.436736744641555,-0.0851153081315862,-0.1098826169965,-0.172552302810425,-0.252962395139006,-0.265772675652117,0.694505097195951,0.274441288528372,-0.220126351447006,-0.0105711992096071,-0.0219611458583785,-0.158923731586786,-0.193013031824039,-0.217505839334991,0.358178631120043,-0.116187482714993,-0.738865759102227,-0.152472067099197,-0.415901358000842,-0.47774690125925,-0.542600506943264,-0.572156597275231,1.4792038618413,-0.270442230975708,-0.562924643814507,-0.117942296888648,-0.466654332409264,-0.448396852888248,-0.540265956485082,-0.499709684711341,1.37111292966526
770,53,0.155469161797219,-0.49431116086189,-0.0851153081315862,-0.11636954022463,-0.175938999610869,-0.258321481874789,-0.258387053343092,0.699481783826993,0.173323309391108,-0.323100000246991,-0.0250977058746812,-0.0462368266150424,-0.17003817736268,-0.20702440638347,-0.209104851690853,0.344316786974513,-0.146350114401892,-0.738416131428663,-0.146364099103451,-0.398633376168534,-0.480158739898661,-0.536704966083893,-0.598838703459871,1.475132307706,-0.27220606695396,-0.551118790341937,-0.101524914294589,-0.456622971037406,-0.446810177853535,-0.550986125625913,-0.489740428887474,1.36748140315164
780,57,0.135038113732919,-0.486951631040103,-0.0851153081315862,-0.11636954022463,-0.178894047178329,-0.261760040901705,-0.262130091041074,0.706473193147509,0.194939891112008,-0.31272245334909,-0.0250977058746812,-0.0462368266150424,-0.17003817736268,-0.20702440638347,-0.203967910462022,0.344316786974513,-0.0965578213963953,-0.695416904882685,-0.151658978893689,-0.401528116829862,-0.479233593689949,-0.518561525576972,-0.616634132806837,1.484591180509,-0.272421998162311,-0.594741513932587,-0.11520670207249,-0.441010352249379,-0.466333621193875,-0.553617994915385,-0.477629839376085,1.39877725572187
790,59,0.181507314622871,-0.513510358471734,-0.0919669951325548,-0.127123702288075,-0.17562106773941,-0.264822440824374,-0.264752159924193,0.725424390537989,0.210279913819389,-0.29822670753597,-0.0250977058746812,-0.0504532513783487,-0.17003817736268,-0.20702440638347,-0.198441275242081,0.349829754941582,-0.11345628793257,-0.629414910015252,-0.150244557894619,-0.396468198217447,-0.485602223412582,-0.527227702515784,-0.629499452282409,1.49395137462837,-0.340471404322192,-0.603554911195727,-0.130018480081878,-0.431234508876658,-0.465601705858739,-0.568426118218283,-0.493682292889538,1.38804810452778
800,59,0.242070457128886,-0.440389778539915,-0.0981610104550601,-0.124050893668109,-0.171070290253616,-0.253451344727046,-0.267875541791035,0.743878968584125,0.225452674066799,-0.294575323941099,-0.0250977058746812,-0.0468103279656951,-0.17003817736268,-0.20702440638347,-0.198441275242081,0.349829754941582,-0.124022615978704,-0.71254564593288,-0.139305062039878,-0.405737890227349,-0.501126287545058,-0.533076401836385,-0.625413402981563,1.48661438819271,-0.317304079562266,-0.565120533898475,-0.120241293141186,-0.405172132652597,-0.462367099471631,-0.556378428670724,-0.483655111995965,1.37640163508573
810,57,0.11901310215519,-0.452111502459516,-0.113695383560813,-0.138545943486415,-0.181751290559673,-0.257216584474963,-0.26477305234588,0.756303596241532,0.225452674066799,-0.294575323941099,-0.0250977058746812,-0.0468103279656951,-0.17003817736268,-0.20702440638347,-0.198441275242081,0.349829754941582,0.0821743236890544,-0.594442407020272,-0.115075780447834,-0.445428513005919,-0.507027419019861,-0.553125896117973,-0.634720539433751,1.58055461998499,-0.309814986162255,-0.549893523952798,-0.120241293141186,-0.393965482628511,-0.440235869920318,-0.546410096375026,-0.48870726923533,1.32295244480692
820,60,0.132901048122317,-0.392505917806259,-0.117617878531671,-0.146346513746431,-0.182317323923567,-0.267823232040227,-0.247416415960324,0.77466780695066,0.244311726459127,-0.285520766665314,-0.0250977058746812,-0.0468103279656951,-0.17003817736268,-0.20702440638347,-0.193958825113539,0.349829754941582,-0.0205771083394782,-0.5609778704953,-0.121769677240162,-0.480217921020886,-0.490097012610631,-0.559660480689837,-0.637151129685678,1.56599349193356,-0.130504444465001,-0.523681146291933,-0.144982070850128,-0.435622103095182,-0.454024273969602,-0.5197373394933,-0.414987752354914,1.3753137983815
830,54,0.133749659641447,-0.376679812206874,-0.106013478644487,-0.144264437938445,-0.18716429719269,-0.275099650166695,-0.254583033720665,0.772382445862664,0.188916424663014,-0.286655050134891,-0.020586614363518,-0.046446015532088,-0.181131559235541,-0.20641057370488,-0.208411063576643,0.34887806551756,-0.0761736015531223,-0.547098087874177,-0.125067985388032,-0.476046358473433,-0.4753680034064,-0.551131364927703,-0.64367054412418,1.57222132724458,-0.219542572447781,-0.496092321565857,-0.128527941592795,-0.425425119706824,-0.437203267549212,-0.527557411458171,-0.452097413288453,1.35373667500994
840,55,0.168440499199415,-0.32644089014916,-0.100295503581685,-0.149058703543857,-0.185677947315324,-0.275099650166695,-0.248591008662491,0.778447049531423,0.159234775157862,-0.292754011284993,-0.0261580501650202,-0.0508602602891439,-0.176767285364007,-0.197198610454504,-0.208156221437302,0.351674454506966,-0.143962730531911,-0.553951258517405,-0.125067985388032,-0.474737328956195,-0.472406220876863,-0.552459177283522,-0.645853683709613,1.54846006117997,-0.241304998908313,-0.504434350976891,-0.150767355668994,-0.410460841610909,-0.444370490051655,-0.52039975606227,-0.457430330856239,1.40048673463498
850,60,0.134336300490418,-0.382514492081798,-0.104148373186894,-0.144376058400811,-0.189668590222167,-0.272216538485854,-0.267431636526706,0.777198894767733,0.159234775157862,-0.292754011284993,-0.0261580501650202,-0.0508602602891439,-0.176767285364007,-0.197198610454504,-0.208156221437302,0.351674454506966,-0.112456276518396,-0.686982828492546,-0.130787968531013,-0.479523120383201,-0.474357885305275,-0.571073023121904,-0.673564533787031,1.53806433148413,-0.276919043539285,-0.466264541168465,-0.149282333309786,-0.433068359312417,-0.455347456790617,-0.535781778071921,-0.467762132540576,1.40425927673272
860,56,0.20432325741663,-0.391752960580474,-0.0960198687868294,-0.149921162333731,-0.189668590222167,-0.274640154903572,-0.265079237239933,0.769088969485036,0.173731687881647,-0.283306419405198,-0.0261580501650202,-0.0508602602891439,-0.172090557269908,-0.197198610454504,-0.208156221437302,0.356339541436041,-0.00668505364754684,-0.682400412362371,-0.143040480455656,-0.473234917794159,-0.474080087406168,-0.58885518300161,-0.66119543393863,1.54525540439998,-0.365904460799481,-0.487824837175738,-0.141022520444911,-0.447712989895249,-0.470612940825201,-0.52844321525097,-0.487311057699142,1.39517626932235
870,55,0.192037162879514,-0.341060803614813,-0.0960198687868294,-0.155621811349606,-0.189668590222167,-0.274640154903572,-0.251570611736891,0.77224856951337,0.173731687881647,-0.283306419405198,-0.0261580501650202,-0.0508602602891439,-0.172090557269908,-0.197198610454504,-0.208156221437302,0.356339541436041,-0.069259406475888,-0.580730838542217,-0.164305763710072,-0.481156490194399,-0.469962874873159,-0.55204988014321,-0.679991423415011,1.56253046125078,-0.258869533902334,-0.470354887536258,-0.145105164120215,-0.42865222451615,-0.45590045546579,-0.534429756148393,-0.495665542537991,1.40708791763151
880,57,0.115058560293253,-0.442917066412763,-0.0991821801233352,-0.178548389880648,-0.195672417467,-0.299145564227034,-0.280634496110126,0.774033055270708,0.173731687881647,-0.283306419405198,-0.0261580501650202,-0.0508602602891439,-0.172090557269908,-0.197198610454504,-0.208156221437302,0.356339541436041,-0.161203430286211,-0.562155176775598,-0.176318618413226,-0.474901771241026,-0.470832883555903,-0.5583828279751,-0.675952888630915,1.5568765673331,-0.292510608462937,-0.541827329131504,-0.14244072682422,-0.43778527629699,-0.464298805024792,-0.549115042912886,-0.51645621112095,1.4005620664271
890,59,0.153712285336735,-0.399971623611642,-0.106297670467936,-0.17191273465736,-0.206966212444084,-0.295966904238271,-0.279129954904558,0.798406950466972,0.246692887028734,-0.189119569127523,-0.0309842641527447,-0.0645921565214575,-0.153039881899636,-0.190478425911332,-0.213912569812929,0.366485054324059,-0.108172261123067,-0.489636048207689,-0.171559245608559,-0.457417802806327,-0.470106362027202,-0.538710737479058,-0.656445507161834,1.57944143873498,-0.162641263057064,-0.579529990556318,-0.126683607858347,-0.4297304832331,-0.478538550289439,-0.535701843418939,-0.479828602862548,1.41485974070686
900,53,0.192427807985087,-0.361697327753062,-0.0972993975335748,-0.17191273465736,-0.203331217959297,-0.295966904238271,-0.272284462482685,0.812158564448719,0.249256649923636,-0.182648974317432,-0.0309842641527447,-0.0621725148215427,-0.146133459634904,-0.190478425911332,-0.213912569812929,0.372402176801983,-0.0426957576094851,-0.522152115060227,-0.168855534849125,-0.463313860986594,-0.478170465796557,-0.560702878624353,-0.633613930860157,1.56959963734956,-0.240283520966615,-0.523233884338922,-0.134157751595033,-0.430754430308139,-0.470902967850622,-0.530311287975782,-0.479764766830545,1.40659914102918
910,62,0.183846852082967,-0.358428393636106,-0.0916523004849899,-0.17191273465736,-0.203331217959297,-0.294599768570949,-0.276848366473058,0.812158564448719,0.249256649923636,-0.182648974317432,-0.0309842641527447,-0.0621725148215427,-0.146133459634904,-0.190478425911332,-0.213912569812929,0.372402176801983,-0.13282714774437,-0.645078448319664,-0.167017233627074,-0.48300624522257,-0.46402727041762,-0.589128044253125,-0.654684133820334,1.51106427971921,-0.230031689515979,-0.582911999011289,-0.137154646656873,-0.420937107388296,-0.472658503932972,-0.561417172308886,-0.459262180650228,1.38807392379019
920,52,0.201744748434989,-0.330770116291752,-0.0754568853178656,-0.187620619914529,-0.207824634045833,-0.305435864075172,-0.285904873770203,0.837728233869369,0.276227220198514,-0.167310328517039,-0.0309842641527447,-0.0621725148215427,-0.146133459634904,-0.190478425911332,-0.209479337700505,0.372402176801983,-0.194504620972638,-0.68990023669208,-0.135904268795563,-0.476924032705186,-0.474482669895517,-0.606067652531672,-0.652852874188983,1.51145073914604,-0.304403365328589,-0.560195038225743,-0.126946050898941,-0.41977371582874,-0.472785742333423,-0.548879810420964,-0.482954464486704,1.32360595977946
930,64,0.192304152305753,-0.368489677240922,-0.0787587182359044,-0.177288437252088,-0.212771859381085,-0.314458924664243,-0.288890970300347,0.851015761908402,0.276227220198514,-0.167310328517039,-0.0309842641527447,-0.0621725148215427,-0.146133459634904,-0.190478425911332,-0.209479337700505,0.372402176801983,-0.108261416824326,-0.521698033798391,-0.137199180243224,-0.457034677512375,-0.480306866692918,-0.599032085037807,-0.662778412253868,1.53747179944637,-0.267109158358398,-0.602947593654427,-0.115280630934644,-0.456710150445142,-0.497854528410216,-0.544014681017133,-0.51688160399207,1.36232238107683
940,58,0.217927020716656,-0.365382237050252,-0.0766935381329157,-0.174503809346017,-0.207725946022821,-0.314458924664243,-0.294695626114219,0.850066082892819,0.263255888080672,-0.170043366351147,-0.0280444931960255,-0.0588115675508966,-0.146133459634904,-0.190478425911332,-0.207175833756072,0.373422311898733,-0.116511085005819,-0.599979098890043,-0.153008153198654,-0.448404185919718,-0.494243879104501,-0.591719323553877,-0.673359266454984,1.55520457041676,-0.200411779257581,-0.59984441297052,-0.122958799138357,-0.450323564174682,-0.518146122205127,-0.538282693642882,-0.527515552460516,1.3829157462822
950,60,0.204123431654081,-0.367392332025951,-0.0766935381329157,-0.174503809346017,-0.207725946022821,-0.30928529210674,-0.30187776132963,0.842898505841539,0.276828887381976,-0.17605130246794,-0.0280444931960255,-0.0555624726458634,-0.155589437082324,-0.191828929205183,-0.207175833756072,0.379675292160969,-0.207515661644464,-0.763972432956506,-0.163101272053392,-0.477318038929357,-0.529585021746505,-0.567075176160503,-0.689607116444495,1.53716253687278,-0.283520552312356,-0.551211308911356,-0.130269899118563,-0.454539959452439,-0.510768726353544,-0.525466844505661,-0.527049292864051,1.36308510135746
960,56,0.240451423080974,-0.344401544600007,-0.0766935381329157,-0.180643903638757,-0.207725946022821,-0.30928529210674,-0.30187776132963,0.840735814492042,0.249097687819784,-0.2198941060222,-0.0331099773019744,-0.0640958941145497,-0.164279214729963,-0.1957270089935,-0.193303391570719,0.390079302727559,-0.0982079988462009,-0.66302734744344,-0.152708358815546,-0.497156028881487,-0.552816196314475,-0.602033530115504,-0.662848575602051,1.54572939528426,-0.250975712123868,-0.533473252770818,-0.137331246044253,-0.487355857636612,-0.493073126785643,-0.498656665234544,-0.52371280602866,1.40846587866121
970,60,0.240451423080974,-0.344401544600007,-0.0766935381329157,-0.180643903638757,-0.207725946022821,-0.30928529210674,-0.30187776132963,0.840735814492042,0.249097687819784,-0.2198941060222,-0.0331099773019744,-0.0640958941145497,-0.164279214729963,-0.1957270089935,-0.193303391570719,0.390079302727559,0.018719840386701,-0.626683305097741,-0.134000141702153,-0.500892420548686,-0.559658786283671,-0.629305591198594,-0.629884516026123,1.58127318014652,-0.155364621900622,-0.571292562372626,-0.134152115366066,-0.483418578776878,-0.486391333976362,-0.522980222538321,-0.521841976390487,1.36976599786667
980,55,0.24504107427427,-0.303374807522401,-0.0811875323895117,-0.184861597027848,-0.20408154196207,-0.30429545807017,-0.316739388449854,0.850222846811485,0.228969819876956,-0.262481825649313,-0.0331099773019744,-0.0777399211314946,-0.167527051716848,-0.193972557114428,-0.197140497089195,0.391502836744379,0.0064729889502871,-0.510637085721183,-0.134412909553478,-0.46076276568754,-0.574566717025826,-0.646329888088547,-0.644789460842619,1.60205494924966,-0.259704479098307,-0.617243065510106,-0.138943545386266,-0.492537015579646,-0.500150839784987,-0.526416081293582,-0.510537322197672,1.34219523667725
990,54,0.268182905258324,-0.293682378812943,-0.0811875323895117,-0.19635872723119,-0.199097611079072,-0.30429545807017,-0.304456234705621,0.846109047177263,0.207661791924223,-0.255144947984203,-0.0331099773019744,-0.0777399211314946,-0.167527051716848,-0.189925205107671,-0.188667540329812,0.390438583528666,-0.00663073570073399,-0.572126163562121,-0.138020239541193,-0.499019629520802,-0.598308476275702,-0.628452653063505,-0.653250982214006,1.57966697608854,-0.120551545999781,-0.58508558429234,-0.148534885525199,-0.503889272567282,-0.507264985065762,-0.574724102584269,-0.478593501161596,1.39528357244827
1000,58,0.1704817840439,-0.320674099020884,-0.0760439764435629,-0.192584818436355,-0.208811049872721,-0.308318603290088,-0.313301989621764,0.840414450525252,0.163276674566764,-0.286770502242459,-0.0331099773019744,-0.0846563834281171,-0.166590507905306,-0.183132287426603,-0.192982605332349,0.396900698837384,-0.0716487998873768,-0.517663768596608,-0.120489242535322,-0.510458081017037,-0.611954196758986,-0.644050851419606,-0.664784948458699,1.58832861504254,-0.23324362586977,-0.572245695697089,-0.141173016787059,-0.50162690985993,-0.517444078809459,-0.583787615951058,-0.481367231943156,1.34930538558922
1010,60,0.186454687647477,-0.310264407794514,-0.0760439764435629,-0.192584818436355,-0.208811049872721,-0.308318603290088,-0.313301989621764,0.840414450525252,0.18984951996134,-0.27061136925511,-0.0331099773019744,-0.0846563834281171,-0.166590507905306,-0.183132287426603,-0.192982605332349,0.400785863814579,-0.0835488014122257,-0.540208718270898,-0.109252421212513,-0.509908751629438,-0.619340401213983,-0.627243228396092,-0.6573078613698,1.58044557624546,-0.124864206801476,-0.579635257361287,-0.163231436171431,-0.491023804999212,-0.509916207961796,-0.589522819748202,-0.479828164874763,1.37607799377828
1020,51,0.193923442110701,-0.284859182370751,-0.0834890018582654,-0.197539454136945,-0.208811049872721,-0.302559887785234,-0.313301989621764,0.846601284143034,0.231466045148077,-0.240123656147158,-0.0286032081828929,-0.0846563834281171,-0.166590507905306,-0.183132287426603,-0.203634479856066,0.400149643398801,-0.0931266603519373,-0.603206215380024,-0.111200600515425,-0.514695888219902,-0.60510976273979,-0.646387614509042,-0.633062108304964,1.57123253416866,-0.315515924214454,-0.552431075075314,-0.140258496046767,-0.467459019577546,-0.545145998167411,-0.599875701052411,-0.515617213998257,1.34178918603222
1030,59,0.176489326876688,-0.28963268539936,-0.0834890018582654,-0.197883627223299,-0.214348327194439,-0.302559887785234,-0.313301989621764,0.84554963343767,0.231466045148077,-0.240123656147158,-0.0286032081828929,-0.0846563834281171,-0.166590507905306,-0.183132287426603,-0.203634479856066,0.400149643398801,-0.117945669286743,-0.672660221989303,-0.114707208818187,-0.513909881177456,-0.626702143937914,-0.657383179743385,-0.65070989297117,1.56497230855165,-0.382321520659983,-0.576643145022116,-0.13319153256529,-0.454650170689482,-0.53994937522871,-0.587239378903832,-0.52675932686759,1.35880679024584
1040,57,0.217757567491004,-0.240793907687765,-0.075249937175865,-0.197883627223299,-0.214348327194439,-0.302559887785234,-0.313301989621764,0.857273098009171,0.240103047834596,-0.216499776298464,-0.0257127286922964,-0.0803956479467264,-0.166282848174963,-0.183132287426603,-0.199225300122406,0.404087513217891,-0.146120060125831,-0.555668835856285,-0.10156108812828,-0.509749761656179,-0.642183821940664,-0.641710725723514,-0.653629725939369,1.59837788039053,-0.295393049035053,-0.606238718556657,-0.126423757216657,-0.470732944708773,-0.527976690323942,-0.590649409057979,-0.525027252947215,1.41092841085499
1050,57,0.0963819347380819,-0.330946957391445,-0.0828642558966162,-0.206158772644352,-0.231120673432564,-0.314919983212235,-0.311726161411228,0.846196201924874,0.256811092161732,-0.200438151251958,-0.0257127286922964,-0.0803956479467264,-0.16242080706217,-0.183132287426603,-0.199225300122406,0.407940403376158,-0.210189112698366,-0.573584860878052,-0.108979645679546,-0.518652135239388,-0.626853624709227,-0.649754623083008,-0.646264391152819,1.57990284459443,-0.293556441876478,-0.588396188649193,-0.11806238048579,-0.452652689529257,-0.502431070239702,-0.595805043055536,-0.519722250598071,1.46885310857876
1060,51,0.105811888413036,-0.350140081571149,-0.0869722462479312,-0.217446422186479,-0.234822377134853,-0.319364797249612,-0.303778631063262,0.861983401439,0.224609412891538,-0.172242215648592,-0.0205512975951557,-0.0767339670539758,-0.16242080706217,-0.178670797856937,-0.220915393656519,0.423271351638314,-0.191740408004795,-0.590581087489162,-0.116949395595539,-0.521647347291931,-0.595754080674047,-0.647957885514366,-0.64181472890916,1.61173517711823,-0.306585665205268,-0.572608526892573,-0.129488546793741,-0.436734432164241,-0.491342285983818,-0.611476940709176,-0.533331899953678,1.44981904059405
1070,60,0.161698666500213,-0.304942823808453,-0.0820759335035052,-0.217446422186479,-0.228688321451108,-0.322154832669117,-0.305300536512337,0.868012468932341,0.223068010122047,-0.171195485122784,-0.0175566773764433,-0.0767339670539758,-0.16242080706217,-0.178670797856937,-0.227046752146667,0.423271351638314,-0.183343568169272,-0.565622018738406,-0.114710151227079,-0.508359727196732,-0.600795195533078,-0.65694296984495,-0.64181472890916,1.62084864135579,-0.174644071656871,-0.608558215680406,-0.135045497089894,-0.440421768695337,-0.500647587461658,-0.53779249216552,-0.59359143434905,1.42364412436345
1080,65,0.198043317285438,-0.258892585616288,-0.075515948333614,-0.217446422186479,-0.232586531329039,-0.322154832669117,-0.297829093222666,0.867829672371524,0.240499346285119,-0.181510684720607,-0.0175566773764433,-0.0767339670539758,-0.172191910871282,-0.187842716794538,-0.22907200707212,0.437735509428283,-0.121389034642555,-0.539568819416654,-0.0985536356399694,-0.496324154894618,-0.590726749854001,-0.653496855344308,-0.657592467956745,1.62828286258944,-0.269746248182212,-0.56965968321357,-0.138774550250611,-0.46427977194797,-0.521006071515876,-0.489333231767627,-0.617155376520183,1.41586891153951
1090,58,0.227385329283079,-0.255297879562378,-0.0820993528035629,-0.20963855852737,-0.240644558222178,-0.332813495336951,-0.297932245772136,0.882042926945176,0.258150686448529,-0.164552499781883,-0.0175566773764433,-0.0767339670539758,-0.172191910871282,-0.187842716794538,-0.22907200707212,0.437735509428283,-0.15952412499623,-0.530626282535765,-0.128221252824803,-0.490755415389058,-0.57663209100638,-0.64793905590276,-0.665155698302736,1.62585100072818,-0.215890391818358,-0.583769869629226,-0.132680421486328,-0.469059568928069,-0.521432490720837,-0.496958145773833,-0.621435032227501,1.45811719013229
1100,62,0.236406342830803,-0.249397069223286,-0.0820993528035629,-0.206712640224352,-0.240644558222178,-0.332813495336951,-0.297932245772136,0.884962792805628,0.270598202716238,-0.152527821087792,-0.0146506538078167,-0.0767339670539758,-0.172191910871282,-0.187842716794538,-0.22907200707212,0.44063554580049,-0.121836470702862,-0.752402727598056,-0.155901606846901,-0.505218590487039,-0.557884614577478,-0.660005038177319,-0.650009403181682,1.61978466898377,-0.355489760234182,-0.630724982390749,-0.138582452643814,-0.460752306310207,-0.522144794058146,-0.518956527479693,-0.616154550217587,1.36395231186501
1110,57,0.22795729057252,-0.237882507588811,-0.0820993528035629,-0.206712640224352,-0.248340505395972,-0.329470580667049,-0.297932245772136,0.883629420556398,0.24722617171446,-0.170138372648527,-0.0146506538078167,-0.0767339670539758,-0.172191910871282,-0.187842716794538,-0.22907200707212,0.432347391027509,-0.163363416787431,-0.667015536847131,-0.163347105050988,-0.513579156967577,-0.55698345640033,-0.651165482040311,-0.643773742925912,1.61932515276453,-0.312888631568825,-0.67025721960175,-0.138656441956053,-0.463217167566283,-0.52679464000362,-0.510239762563878,-0.619342140006018,1.46218950956207
1120,54,0.127939093511676,-0.269635612894281,-0.0792080400740948,-0.199165653371197,-0.240634024824531,-0.336939145645035,-0.316522504391212,0.870410023571964,0.285321859781035,-0.133522556758215,-0.0116111798670313,-0.0767339670539758,-0.172191910871282,-0.187842716794538,-0.219452958884627,0.439689130053068,-0.0869350874623908,-0.582504458157111,-0.172041195782845,-0.511333621149573,-0.548433481423907,-0.658154144133904,-0.624253781913171,1.65864498841063,-0.294222557689904,-0.67280047024878,-0.121638931298999,-0.460529705865839,-0.542213386295013,-0.514963410484749,-0.62758163072996,1.46655659144544
1130,58,0.101472825517977,-0.289608059678098,-0.0733321539903859,-0.205236133735873,-0.246404048898797,-0.336939145645035,-0.316522504391212,0.858598098226875,0.311153073990308,-0.113356645413112,-0.0116111798670313,-0.0767339670539758,-0.172191910871282,-0.187842716794538,-0.219452958884627,0.445196252265401,-0.0830166110780312,-0.716226640257922,-0.17914794570388,-0.483229623369176,-0.544426292235704,-0.655250527124435,-0.630218035764218,1.64561865240951,-0.324589752153415,-0.611825824907127,-0.144320050002097,-0.446705613116862,-0.530419875425508,-0.524936549865044,-0.612839900364583,1.45138089275195
1140,58,0.109152153620738,-0.297964170965384,-0.0733321539903859,-0.199797901479171,-0.246472768935961,-0.341318586441687,-0.321618942384942,0.859018265108445,0.316186815996375,-0.10996217162451,-0.0185341302386892,-0.0726130467807094,-0.172191910871282,-0.187842716794538,-0.215957655258386,0.447627345364278,-0.237763802811727,-0.773929831538278,-0.202047790848968,-0.486459357084244,-0.566635021405824,-0.627502190630461,-0.600238897366906,1.60251027947248,-0.337657600736255,-0.737630601800674,-0.129568767336069,-0.420321287299081,-0.519234307090298,-0.547048726613155,-0.590665762297839,1.41817750269203
1150,60,0.060373083112919,-0.357038625444365,-0.0850621441423368,-0.207048030530679,-0.253683281578392,-0.365955349584192,-0.315455483625227,0.853888841713656,0.316186815996375,-0.10996217162451,-0.0185341302386892,-0.0726130467807094,-0.172191910871282,-0.187842716794538,-0.215957655258386,0.447627345364278,-0.0717554443709722,-0.759396044584303,-0.218494222492091,-0.506362108323408,-0.555830677451544,-0.624498721640251,-0.594642104987973,1.60897595924478,-0.268164316505395,-0.648241583426582,-0.108807277681587,-0.415974087960851,-0.524340390753334,-0.560694897970664,-0.617867366634865,1.44458986098474
1160,52,0.0747796907713908,-0.327528888616529,-0.0850621441423368,-0.200798218500296,-0.248768911732904,-0.372433700339722,-0.32388703390522,0.860322988098367,0.231033726721076,-0.16723917731466,-0.0214302818541632,-0.0827710900849003,-0.172135208130001,-0.18459136004526,-0.210581595579332,0.447623147139127,-0.117393847435894,-0.75611370644571,-0.220590850008641,-0.515169842136525,-0.558427948035659,-0.579523607062948,-0.605095271747316,1.62563921830216,-0.333214921014886,-0.604225102443563,-0.117368599951534,-0.424122998655019,-0.515315516143644,-0.575401553622332,-0.603554656754153,1.39487179075007
1170,60,0.11967416522075,-0.292395271656188,-0.0850621441423368,-0.200798218500296,-0.248768911732904,-0.36665173314036,-0.320278697035405,0.873385038480743,0.231033726721076,-0.16723917731466,-0.0214302818541632,-0.0827710900849003,-0.172135208130001,-0.18459136004526,-0.210581595579332,0.447623147139127,-0.145343962434251,-0.695868362572542,-0.201508473238387,-0.506332822451436,-0.561875016097788,-0.555033883630699,-0.616692828903083,1.63962558736762,-0.174673803647128,-0.565844264946874,-0.0975454065687713,-0.420039518932075,-0.509059978249625,-0.567993896714693,-0.611601907454588,1.41443330810621
1180,54,0.0916379731228349,-0.287128933420095,-0.0912114082159202,-0.199793637060439,-0.25540858252837,-0.362533710142754,-0.315296531077564,0.870184339905546,0.264764478909834,-0.149185347669429,-0.0159981029604536,-0.0840961245353744,-0.178348130158102,-0.179623761306715,-0.202993327254659,0.450166216746108,-0.108809342851605,-0.658832924908126,-0.194641463651847,-0.462589691842633,-0.549955467456912,-0.570673870616964,-0.601518172494615,1.63997798720118,-0.366118201008884,-0.561940711811247,-0.114460948845542,-0.427929287666758,-0.524075816967997,-0.560187929310643,-0.607982238718892,1.30844207349606
1190,57,0.0868704398848165,-0.292196303565969,-0.0912114082159202,-0.194217757412766,-0.25540858252837,-0.36527985705226,-0.322446725905298,0.86527957363866,0.283404237845159,-0.157319471115501,-0.0159981029604536,-0.0840961245353744,-0.174130400623531,-0.177095657677557,-0.20624272314042,0.446848447092464,-0.16206009113061,-0.626529510589455,-0.210272201890706,-0.458735546354927,-0.547770352167886,-0.549335884887375,-0.574868645676483,1.66469617370841,-0.298603097225131,-0.543448745410565,-0.120865531912486,-0.4389728942892,-0.52376615265906,-0.572025119038634,-0.57663629467209,1.3294866383499
1200,53,0.0690004438424414,-0.2575610524749,-0.0908235214946652,-0.194217757412766,-0.256131490218734,-0.367677517281274,-0.312367089333977,0.871139305210388,0.277084826140977,-0.158031916915252,-0.0138465570761303,-0.0840961245353744,-0.174130400623531,-0.174229265778703,-0.204177553205101,0.446014628085934,-0.0815364130346486,-0.535338542971265,-0.220768384789665,-0.478186395506105,-0.535423003366246,-0.512854664230597,-0.565569839851022,1.66774029188013,-0.210086709334544,-0.571698701008429,-0.119200573369175,-0.44134880868694,-0.535300389319263,-0.562992571991907,-0.573075944887485,1.33179605764544
1210,60,0.0491976205571447,-0.304777225958203,-0.0908235214946652,-0.205713055681948,-0.261773512989414,-0.374374741835822,-0.309011646837821,0.860992367443131,0.289951433127234,-0.154926517552094,-0.0138465570761303,-0.0840961245353744,-0.174130400623531,-0.174229265778703,-0.201078798738796,0.446014628085934,-0.0702916345283965,-0.556828846045759,-0.218725685183376,-0.488392727875391,-0.533022309694961,-0.506278274541962,-0.585054131673671,1.65154621668489,-0.224951114611731,-0.530469766861039,-0.132876501026277,-0.472891721931847,-0.538134378690626,-0.518230524660833,-0.59110426754368,1.36577816732895
1220,61,0.00675512319289709,-0.399364267694215,-0.0922428579461267,-0.220699974562307,-0.271133513299457,-0.370798120292066,-0.324094647217113,0.866557137162449,0.285880938724775,-0.160675864321543,-0.0208675835583193,-0.0840961245353744,-0.174130400623531,-0.174229265778703,-0.201078798738796,0.439008307204321,-0.18789382836278,-0.55609716502832,-0.21840490311721,-0.466374164363902,-0.529870818461727,-0.522297350529857,-0.602499909754437,1.63669490249553,-0.27598821238929,-0.565541723266686,-0.152783543203782,-0.475974915056497,-0.536823758079204,-0.509802264324228,-0.587811367186136,1.38931265168954
1230,63,-0.0305076182653222,-0.542017913243388,-0.0941498876674781,-0.227129130823467,-0.277602341430686,-0.373805298814901,-0.342697197058808,0.866660923212526,0.262706250365498,-0.165072856886626,-0.0225584028489115,-0.0942116464243075,-0.178696171271254,-0.193218846004695,-0.201694316799428,0.436671162001432,-0.240700203226255,-0.493720353973325,-0.237244909446433,-0.4476211655286,-0.537185959810932,-0.517658396930774,-0.601052788667128,1.60260299116353,-0.262158010826372,-0.567077089842574,-0.169742433528224,-0.450475924732388,-0.556402602646984,-0.575106798584408,-0.603007538488851,1.43787930096978
1240,55,0.0520798710899413,-0.527107428936011,-0.095180401905964,-0.222333310899444,-0.280064131056921,-0.37000691293225,-0.348585892454709,0.887953407045871,0.18785372085636,-0.196320618656722,-0.0341685823664563,-0.0965951091177596,-0.189699044992933,-0.192208719990266,-0.20343811556216,0.442546687488568,-0.1254585112042,-0.520847760856138,-0.250459911298201,-0.448891746712497,-0.53123804138963,-0.492856188985792,-0.587966844829913,1.63644412990619,-0.193216378386913,-0.589297728379705,-0.164549860374963,-0.442981241130074,-0.53168795803374,-0.573026467856759,-0.598876523461735,1.40209632654316
1250,62,0.0930557563987464,-0.50338477846829,-0.095180401905964,-0.227868031000527,-0.276003375708857,-0.370005324992036,-0.348787286740415,0.903892572876071,0.208192364399927,-0.176795399270077,-0.0341685823664563,-0.0965951091177596,-0.189699044992933,-0.192208719990266,-0.20343811556216,0.442546687488568,-0.142984283069181,-0.629411526781802,-0.260590781689013,-0.473634104787185,-0.541008912351658,-0.516061337894426,-0.571504809891501,1.61803180342485,-0.333955831781173,-0.608885002556738,-0.16930907312565,-0.469289534146953,-0.538398196186359,-0.574524151730459,-0.590549965690722,1.3423279957132
1260,55,0.151988370490355,-0.464471094260631,-0.0876682636542887,-0.235518573150292,-0.294657556817729,-0.363063348647256,-0.362540696076461,0.919736664326171,0.185181429480123,-0.163209027080019,-0.0341685823664563,-0.0965951091177596,-0.189699044992933,-0.199579560824626,-0.19558058535243,0.43897235813565,-0.190135875088903,-0.556553338354414,-0.252084528834156,-0.459404153652494,-0.53965026882288,-0.510189794507879,-0.573587886599638,1.61329709616542,-0.358734109017114,-0.651365089334497,-0.175746919916199,-0.455328613061082,-0.564769550179738,-0.56378526534133,-0.601348144256932,1.36259057215029
1270,55,0.149737972664634,-0.456559301051219,-0.0876682636542887,-0.235518573150292,-0.294657556817729,-0.363063348647256,-0.368447707215827,0.913843942377242,0.200031392725857,-0.148909306074797,-0.0341685823664563,-0.0965951091177596,-0.189699044992933,-0.199579560824626,-0.19558058535243,0.44241700475443,-0.235862751970289,-0.552964996429259,-0.268290333157498,-0.462807702984003,-0.565643881034949,-0.512935193257766,-0.567553964888217,1.61632685060657,-0.20993686059981,-0.594835739554485,-0.175453169844142,-0.470919982665369,-0.575836740556459,-0.575528501947325,-0.598278315196799,1.39817113456312
1280,57,0.13338962634489,-0.478369241858183,-0.0876682636542887,-0.252367347280353,-0.2992955828071,-0.33995070257009,-0.359042613147797,0.906948215833812,0.214088799004445,-0.135360173232041,-0.030901613708466,-0.0965951091177596,-0.189699044992933,-0.199579560824626,-0.19558058535243,0.445676791264116,-0.110379042890457,-0.577479800636486,-0.272672847416298,-0.444469775923512,-0.538892637520577,-0.56544057759959,-0.583490280007688,1.65774039870169,-0.228111615505097,-0.557331024075619,-0.156539010611519,-0.474710245036308,-0.56923468833878,-0.574830589060546,-0.596754344708596,1.42358082419352
1290,59,0.119700916367217,-0.446077255364384,-0.0906367449384364,-0.255171810047275,-0.313178548578035,-0.343006349107037,-0.341455297539471,0.927514012743495,0.238566236388967,-0.132413695701273,-0.0311405636172162,-0.0965951091177596,-0.181832879195848,-0.195632157168199,-0.19558058535243,0.444902877953974,-0.161077320270594,-0.659305960399393,-0.286159162509177,-0.425907576044134,-0.545617126320881,-0.575341123659068,-0.602250085577455,1.59459713751866,-0.313245514991438,-0.586824162682093,-0.186929214086765,-0.486080347934205,-0.577654360762079,-0.572818173646631,-0.565548052722431,1.35101244092924
1300,56,0.180720537275316,-0.475123789793216,-0.0936981205695104,-0.26473890127129,-0.327541133729663,-0.348127776378505,-0.33063413940353,0.940824030004542,0.235667183619162,-0.135193744676868,-0.0240558972384233,-0.0903654712245076,-0.178122243101688,-0.195648164210591,-0.201583263830413,0.446730425325383,-0.167318188033562,-0.59074304440305,-0.286408902752167,-0.431379064054367,-0.54557166232951,-0.572899376015208,-0.582976517306749,1.564016701787,-0.268922859790329,-0.618892267652801,-0.180360387482555,-0.461137423484059,-0.534165381574061,-0.584318634740186,-0.586003631474637,1.39408022142928
1310,59,0.180720537275316,-0.475123789793216,-0.0936981205695104,-0.26473890127129,-0.327541133729663,-0.348127776378505,-0.33063413940353,0.940824030004542,0.213608764070524,-0.153119808262782,-0.0290897722878321,-0.0896107923422906,-0.178122243101688,-0.195648164210591,-0.20753300797756,0.453583121208377,-0.0103377850406698,-0.480627087743912,-0.275608905157301,-0.418291783128809,-0.554128510384551,-0.588056911986103,-0.601518250572065,1.60673680455441,-0.106698499235372,-0.52831044304217,-0.174760599169017,-0.47358494521395,-0.513428130412885,-0.561726979253347,-0.589876462204982,1.46624540423557
1320,56,0.134045960600413,-0.500061016874299,-0.0872706891235474,-0.25759569396022,-0.327856198056393,-0.345851220033956,-0.342159353745041,0.953483220803749,0.180486677490838,-0.166889812816701,-0.0392330924051783,-0.0857538457991839,-0.178122243101688,-0.195715227121978,-0.208050933516865,0.443653110382665,-0.105408997409641,-0.665349353972559,-0.278893217096704,-0.41338276142873,-0.578706665594488,-0.574025182446058,-0.593173308846176,1.579518135302,-0.171622114535485,-0.608882278671355,-0.175644018459651,-0.457300672143349,-0.524517426926303,-0.565970624339729,-0.575486254366224,1.36812195689548
1330,52,0.194317917213569,-0.462788315692878,-0.0912830077805187,-0.25759569396022,-0.325092852908328,-0.345851220033956,-0.342159353745041,0.953483220803749,0.146998718543068,-0.189595660413171,-0.0505723189109136,-0.0857538457991839,-0.178122243101688,-0.195715227121978,-0.202714787308285,0.440740954438552,-0.215463366671438,-0.618221138148292,-0.285594939527904,-0.396181705917986,-0.577810943728775,-0.573826071998287,-0.612525385618643,1.53919160827903,-0.141104195274124,-0.603852668793913,-0.166928122993806,-0.457930365102203,-0.538462086181977,-0.539426244998228,-0.569918151204619,1.34896835056482
1340,55,0.21395922669056,-0.437137472940716,-0.0912830077805187,-0.25759569396022,-0.318919432156285,-0.345851220033956,-0.342159353745041,0.959642047506645,0.164809714181751,-0.172485541004924,-0.0464614289003387,-0.0857538457991839,-0.178122243101688,-0.195715227121978,-0.202714787308285,0.444841895847026,-0.132531491066919,-0.550622046399775,-0.27501295508681,-0.385069781673707,-0.562848027946355,-0.555443414689115,-0.63719444781752,1.56023140752519,-0.243767063402753,-0.647493474385194,-0.170622663777678,-0.431671927120075,-0.512742263488647,-0.55246108644043,-0.586974373519592,1.34202362085168
1350,59,0.202462122840192,-0.423971018652604,-0.0912830077805187,-0.25759569396022,-0.295698339626165,-0.35080294033906,-0.342159353745041,0.958484974877113,0.164809714181751,-0.172485541004924,-0.0464614289003387,-0.0857538457991839,-0.178122243101688,-0.195715227121978,-0.202714787308285,0.444841895847026,-0.100018902723584,-0.657604962231619,-0.272467215008389,-0.400953033910014,-0.55716485474838,-0.563439642985994,-0.629542601892313,1.58237066740227,-0.254581492972798,-0.557507218361973,-0.164620598451405,-0.417151981420733,-0.513946916724353,-0.54417696782841,-0.562446770222358,1.35247402577929
1360,57,0.210209942914473,-0.423971018652604,-0.0912830077805187,-0.25759569396022,-0.295698339626165,-0.35080294033906,-0.340270341206086,0.960371094817708,0.096789284058331,-0.178102096164436,-0.0424973426188964,-0.0720372664759831,-0.187664921111748,-0.201609904681192,-0.212748693968508,0.437222120708284,-0.0555397045394736,-0.58835802922833,-0.275442961989257,-0.402439105788301,-0.57234798820198,-0.59161754822599,-0.646701883614377,1.58476359719464,-0.323992157641184,-0.573275558047256,-0.144278736374214,-0.419986317922781,-0.505863837628628,-0.574036198784024,-0.564682557465433,1.36433933164685
1370,55,0.167359114314814,-0.442985867104366,-0.0887775787166025,-0.261298868026617,-0.295698339626165,-0.341049729353794,-0.353910434528771,0.963052025516535,0.112895781089568,-0.175435683273434,-0.0424973426188964,-0.0772694547883378,-0.187664921111748,-0.202751494548197,-0.207908439262118,0.431156636258703,-0.064622909121303,-0.513246996983115,-0.263319701115073,-0.413773808032032,-0.592195198237084,-0.563947446096185,-0.653065054141048,1.60651990414895,-0.283930353029593,-0.601526479129707,-0.147879664697534,-0.425209455018465,-0.509409155747594,-0.56368909763013,-0.547719100390826,1.40030006134177
1380,54,0.201211400528538,-0.416586466860582,-0.0842421859893567,-0.261298868026617,-0.288048545178498,-0.337040137753973,-0.357002946233236,0.976058625683092,0.147755707208516,-0.166151014755454,-0.0374861189108123,-0.0831503396906682,-0.187664921111748,-0.192276955315622,-0.203035442837612,0.425290004579172,-0.23260153227324,-0.594430701446146,-0.282322057993294,-0.431640734388064,-0.595287060003502,-0.561785903771425,-0.679645538888629,1.56148223259111,-0.333515443338766,-0.679367065036452,-0.129990310603781,-0.441168610216194,-0.500997003850983,-0.563713734930215,-0.563980518398364,1.40944080168913
1390,56,0.1890514228855,-0.415904814017149,-0.0791550124506273,-0.255754916530343,-0.29286886343986,-0.341726566375363,-0.357491020687875,0.975630222237039,0.130461518724824,-0.147865874530201,-0.0442802704654786,-0.0793826724079263,-0.206775254458174,-0.187662236806734,-0.198779012818918,0.420916341968846,-0.262726043770873,-0.536966716624158,-0.280538112586725,-0.417494496840291,-0.599083532321,-0.590216018675809,-0.673176925710743,1.58093484682683,-0.337297813918171,-0.669675823449133,-0.11732167003239,-0.444892677194765,-0.509821357758083,-0.602686497910729,-0.57025815618933,1.4146022688409
1400,58,0.198837789767981,-0.385294873606513,-0.0797466739459043,-0.252318384705484,-0.297541757956756,-0.353673649105176,-0.353663139241489,0.978626797474503,0.134844253715228,-0.158225381496278,-0.0534077035764741,-0.0799226802714699,-0.202052956560592,-0.183055943798103,-0.187684487666975,0.428848015604845,-0.258005978536742,-0.609034020896248,-0.269128716944638,-0.429739627754868,-0.610897054718024,-0.593695651951275,-0.690665091514333,1.58703968231683,-0.25205210117601,-0.540892828039466,-0.11020837379144,-0.417937961590838,-0.509995575957877,-0.575207794552154,-0.564286097494783,1.45156807884825
1410,58,0.185192960273158,-0.418755990667378,-0.0959425553927714,-0.259298299114797,-0.302389677659767,-0.354476096809031,-0.357250964338461,0.987744149283166,0.169046321002412,-0.151388653897758,-0.0500200360371634,-0.0799226802714699,-0.198978790850958,-0.183055943798103,-0.187684487666975,0.432228098788633,-0.198132371149444,-0.635739612687111,-0.264705472924067,-0.415833672160931,-0.616219069025477,-0.606210688836895,-0.702270185164349,1.59631136094763,-0.291257612578891,-0.541732673053381,-0.0945696366206167,-0.414200063340484,-0.537000889157679,-0.591931239091683,-0.58312515253178,1.46910761779784
1420,53,0.0826074243637078,-0.390987524869135,-0.109948576405441,-0.258674259745377,-0.300551998903819,-0.346734893335644,-0.372666370269848,0.979477066111798,0.260846347794005,-0.101416842482669,-0.0500200360371634,-0.0799226802714699,-0.191863532891879,-0.174179576635595,-0.18189148159518,0.437191549125787,-0.0514874457025951,-0.598565062179173,-0.245719918787617,-0.391920762637855,-0.593239005238185,-0.593920904601284,-0.712796094826478,1.61473671165519,-0.35689770237681,-0.555741403615866,-0.0764849284241467,-0.397295033812753,-0.559369555129322,-0.588364415598876,-0.600467264737154,1.4138712152535
1430,54,0.127011565611114,-0.37969084676462,-0.109948576405441,-0.250386185757072,-0.300551998903819,-0.340880910299894,-0.37541475541735,0.965750489988326,0.282790810293883,-0.0838677566609618,-0.0500200360371634,-0.0799226802714699,-0.188061707197642,-0.174179576635595,-0.18189148159518,0.439587106592882,-0.124754369080027,-0.484926044239763,-0.237780633970024,-0.39051728188534,-0.582494937231237,-0.577889063438306,-0.704777746672856,1.59977534770816,-0.371715375832559,-0.70697579581726,-0.0524873853919791,-0.422177936931958,-0.544655953328716,-0.586043841123034,-0.603261547066185,1.38036321950275
1440,60,0.117449636749974,-0.421665640064024,-0.11593757907585,-0.251379328407735,-0.318009545318821,-0.367669552732901,-0.365844810375421,0.970569787259582,0.244300332197086,-0.158781522355087,-0.0547231773748041,-0.0766910203385305,-0.194033269291624,-0.171361812014337,-0.19364522313028,0.436916291441703,-0.205377849113659,-0.650818019123512,-0.238372952732175,-0.383212169271011,-0.584702279193668,-0.581417813136536,-0.705159035749284,1.54934473962042,-0.289803359129838,-0.684401208694786,-0.0770127171823676,-0.440948436288134,-0.569998163223502,-0.572785846603669,-0.604465542923217,1.40984299874117
1450,55,0.10294669495607,-0.473028149131923,-0.123158382733378,-0.251379328407735,-0.329504328096207,-0.381457826150472,-0.363260034407859,0.968667847914918,0.222067228303226,-0.14614327647691,-0.0587649599008656,-0.0788339640958143,-0.189652641017156,-0.172000709727381,-0.19364522313028,0.434624269738344,-0.229710776987818,-0.632580596164311,-0.24275770402002,-0.379161039348779,-0.610573477372677,-0.544296216306105,-0.722053781533208,1.56196710278558,-0.356266455271428,-0.714396803065706,-0.0779764513385934,-0.436506991442383,-0.558427547807644,-0.585478546397609,-0.612982354125216,1.38082750249289
1460,53,0.0747935604537881,-0.500853348421364,-0.130173149044528,-0.247188166192705,-0.322841744581883,-0.381457826150472,-0.379850745152627,0.966734074990928,0.193700683931323,-0.148477447228791,-0.0587649599008656,-0.0788339640958143,-0.189652641017156,-0.168075827348747,-0.200311594164102,0.431888257740357,-0.176617460997019,-0.592105986263503,-0.248135910630728,-0.397368131747495,-0.606374463647965,-0.53440268829675,-0.685650056294652,1.61949721697432,-0.269428448142205,-0.646692365239149,-0.0714199358124306,-0.437749692459377,-0.560421526439573,-0.568502538004521,-0.603863850205008,1.46790423658671
1470,60,-0.00356116816645598,-0.561113054669712,-0.130173149044528,-0.250247946432571,-0.331295007130056,-0.37973207391406,-0.390482785945199,0.949550880564278,0.209633488051558,-0.133151461426251,-0.0587649599008656,-0.0788339640958143,-0.189652641017156,-0.168075827348747,-0.196623911893975,0.43556736005119,-0.0568618254794882,-0.517708612056612,-0.223829630327949,-0.427430072066681,-0.581436761120348,-0.547173478274701,-0.670683971452995,1.64051112472947,-0.368094952137952,-0.637659567387336,-0.0931140291400357,-0.434940560603503,-0.573969547104232,-0.546523063186156,-0.63642309834277,1.38041616272612
1480,58,0.0548424845151141,-0.582630418236482,-0.147146490014779,-0.261665278017615,-0.328385735801716,-0.372363402745336,-0.386807993365585,0.950014898511183,0.230232085279346,-0.156482762928731,-0.0559476929379963,-0.0810790030263659,-0.192026902318478,-0.169296755457015,-0.196623911893975,0.436604217528797,-0.200718176935736,-0.581910778477335,-0.245074758063052,-0.43712033690751,-0.58349335123962,-0.547451788144894,-0.664008338895966,1.58940161919173,-0.311061554266744,-0.597616572423911,-0.097755140327218,-0.442571036630173,-0.610429398978675,-0.563642291699049,-0.618596410146182,1.39897220639292
1490,57,0.0709495617853384,-0.577287616415965,-0.144353358232421,-0.270634584529962,-0.333177033363853,-0.377996682044425,-0.387250511993676,0.963062122460588,0.137530422539758,-0.177190462497422,-0.0614803660331537,-0.0784803055738927,-0.192026902318478,-0.169296755457015,-0.192745864517732,0.40952346136847,-0.0713515591196319,-0.587179918509231,-0.256523734901399,-0.449799521139981,-0.576526240735878,-0.561323503245661,-0.65268943776054,1.62215046829553,-0.336592689202795,-0.625743533717275,-0.0757870923982565,-0.41161514481221,-0.617416093262011,-0.564128420653067,-0.613332340965498,1.32930177980263
1500,54,0.0739207021822418,-0.584281801326415,-0.144353358232421,-0.270634584529962,-0.341516240608931,-0.386338634909856,-0.387250511993676,0.953610459853768,0.188151610776217,-0.147913856959462,-0.0527025996112184,-0.0741968936672351,-0.192026902318478,-0.169296755457015,-0.192745864517732,0.40952346136847,-0.0704403338747545,-0.42775623007982,-0.258226015596368,-0.441773626882638,-0.573745877036348,-0.563770458348206,-0.652327902784248,1.63454117340488,-0.174777624247103,-0.593132768015968,-0.092725018487795,-0.439901653603441,-0.628227519944938,-0.571111393000075,-0.60312427657871,1.42602114650788
1510,58,0.0939161825207423,-0.599328974116975,-0.151922006254583,-0.274713286908213,-0.345808092271007,-0.389468006903769,-0.382924387007608,0.967869202608822,0.215807488848017,-0.141247848916328,-0.0527025996112184,-0.0741968936672351,-0.189082649462945,-0.169296755457015,-0.189038914116935,0.412461601565668,-0.189966259462545,-0.463592208157124,-0.265842091091894,-0.435139969248865,-0.578615117199957,-0.567188583360889,-0.625175685281218,1.62162179144206,-0.226591603406873,-0.579916517088275,-0.0924131441953478,-0.426317092174268,-0.60895774355918,-0.57110549425036,-0.626200172247117,1.42427145755018
1520,60,0.105064352075498,-0.580645897640668,-0.148562357545101,-0.281155552411008,-0.350203624641567,-0.403919285088754,-0.389109093637537,0.959852485463382,0.242522753773033,-0.128361775725811,-0.0527025996112184,-0.0716077756444939,-0.189082649462945,-0.165499100443963,-0.189038914116935,0.415045754781695,-0.145507683986917,-0.50113940736032,-0.269035827426174,-0.437971677612455,-0.574206711425387,-0.566262837674161,-0.623113270982105,1.62651746815553,-0.22917445511869,-0.538117210362726,-0.0888027232191576,-0.447360571132141,-0.607383498720467,-0.579090624498118,-0.634585031784675,1.47309726282844
1530,61,0.106652689956713,-0.604799676207308,-0.150439111945236,-0.286265574522885,-0.35362226704235,-0.405440614811155,-0.391640389627654,0.95155606257077,0.226675225164128,-0.151273777081101,-0.0591608834055547,-0.067731140288531,-0.189082649462945,-0.165499100443963,-0.189038914116935,0.408602257157859,-0.0731298157787555,-0.425268359030273,-0.256388556685782,-0.425072858996662,-0.566282778063458,-0.575053281263365,-0.611372096986246,1.63079114970717,-0.317569912792131,-0.684549165817283,-0.0897898782473216,-0.459034302393259,-0.604913045289111,-0.592621499166965,-0.655138297898891,1.42331524899477
1540,54,0.128958762317255,-0.519103084993056,-0.14609150254422,-0.280667664137584,-0.359963085896446,-0.39987362907486,-0.391959205835165,0.974134294438443,0.253270641046322,-0.142647433996038,-0.0641223666346904,-0.0681793452715028,-0.191657944403996,-0.164307856966858,-0.185209378323585,0.39836681161674,-0.133715501829434,-0.518520400742647,-0.256420265269941,-0.42636080455449,-0.566712700733198,-0.583204982763287,-0.599856179162041,1.60185377051608,-0.212517379701363,-0.603804064087581,-0.0660645205375342,-0.451077168212416,-0.595838770582834,-0.59380648566082,-0.659068836622885,1.44966922019712
1550,59,0.164678777007655,-0.512142216068144,-0.14609150254422,-0.280667664137584,-0.352537201629709,-0.393843632430931,-0.391959205835165,0.970619986125661,0.209335009374335,-0.175563716426921,-0.0700992362913362,-0.0732072108832224,-0.189433673487035,-0.163769487079506,-0.190774181509861,0.394236303881714,-0.154018059641694,-0.544979270839297,-0.270442239292824,-0.44206318084082,-0.554775349354785,-0.565130891203385,-0.577400011161705,1.61012061075725,-0.222042112971422,-0.627155067894788,-0.0517984024380538,-0.409861612170263,-0.58408507492072,-0.601278407849052,-0.666435282914099,1.42693317441452
1560,56,0.15154545112074,-0.488984408834282,-0.142458222907565,-0.281789105865426,-0.370549996219167,-0.398136569086364,-0.399280860694075,0.970924347464084,0.222687300063356,-0.169122968258743,-0.0700992362913362,-0.0732072108832224,-0.186241358773801,-0.163769487079506,-0.190774181509861,0.397421684976246,-0.154867840235561,-0.546053492955976,-0.272932689506964,-0.438673636776532,-0.542531285105349,-0.561465889569156,-0.580018844783648,1.58115784149584,-0.255892917102041,-0.595751300199391,-0.0643764083484202,-0.422205584562854,-0.588394059652551,-0.635958655935131,-0.64434382100117,1.38548919343304
1570,57,0.115837931235787,-0.475409461324043,-0.142458222907565,-0.289080319092749,-0.369286041120516,-0.408087532570024,-0.409609194250562,0.979588266019819,0.252962869983699,-0.133928276299003,-0.0700992362913362,-0.0761453149470562,-0.186241358773801,-0.163769487079506,-0.190774181509861,0.397675394913184,-0.0916382444132536,-0.498889401425634,-0.269811320739737,-0.431214670173274,-0.535307080958057,-0.573281500522683,-0.590770736739106,1.60220057201927,-0.220895910881055,-0.534103150065181,-0.0810635837370196,-0.434131591968792,-0.576967494283708,-0.620477876689648,-0.648744795376301,1.40656602681711
1580,54,0.146824184559807,-0.451493885352724,-0.142458222907565,-0.29249780861122,-0.369286041120516,-0.408116973385375,-0.415376532088357,0.998158121659739,0.236808868186536,-0.141986676318809,-0.0771375895545198,-0.0761453149470562,-0.175602796450399,-0.158873777896798,-0.188654342978659,0.402234143797874,-0.048438349887955,-0.478756398938506,-0.267395861412692,-0.439345847843211,-0.514286445642402,-0.553253218171612,-0.592937494178771,1.63304510720116,-0.275284009703763,-0.574545041835207,-0.0838155035755986,-0.440244712115232,-0.569216757891908,-0.621938797421925,-0.626335380186195,1.44407824271784
1590,55,0.122950461255196,-0.447133735558527,-0.142458222907565,-0.297068062965865,-0.376663199178103,-0.382598741281736,-0.425116515379444,1.00269257874103,0.226357315434131,-0.16353568570989,-0.0788075145599708,-0.0932172412020583,-0.175602796450399,-0.154300385416014,-0.194347916524543,0.397658274603379,-0.182551117568635,-0.614307889713784,-0.269875356760544,-0.456088052872267,-0.50912311276447,-0.535626641446982,-0.618801121591783,1.6283960667606,-0.319294070219892,-0.645309939154381,-0.0795618038076348,-0.432041857493222,-0.545905324126296,-0.634971335108789,-0.637310952819093,1.41883722476907
1600,59,0.21079277152284,-0.387110328291532,-0.137999942902865,-0.297068062965865,-0.370572113642126,-0.378304631599419,-0.41887351129091,1.01499750192257,0.26782717791052,-0.153309240382518,-0.0717130845066517,-0.0950653052597576,-0.169913922576524,-0.15006315557828,-0.194347916524543,0.390307621517347,-0.139163556734105,-0.550282545377902,-0.271797708559422,-0.456088052872267,-0.497368021516663,-0.53452467840304,-0.618801121591783,1.64743156103055,-0.258062159765081,-0.624726268920608,-0.114768481427906,-0.464141463166258,-0.538961539208926,-0.637304791953574,-0.615831652604434,1.46070037603431
1610,53,0.123500548009421,-0.391827478610095,-0.137999942902865,-0.297068062965865,-0.370572113642126,-0.378304631599419,-0.424300338281676,0.998620789211862,0.293791517382395,-0.137551262433714,-0.0717130845066517,-0.0950653052597576,-0.16681919441415,-0.15006315557828,-0.191292234019188,0.393356823832709,-0.11980468250916,-0.531363342175308,-0.261915300203236,-0.456348635773691,-0.491347345343548,-0.543198337937225,-0.601369032085797,1.63859521677586,-0.217170939852963,-0.629664967524435,-0.105861523219958,-0.448484415105245,-0.525094732565606,-0.667682540158131,-0.632746407423268,1.52375567733368
1620,60,0.162512386094413,-0.355120648960944,-0.137999942902865,-0.297068062965865,-0.376623534559388,-0.375901826968997,-0.402057655028444,1.00290529570109,0.261679846132765,-0.150530907119803,-0.0679645792237077,-0.108580843300476,-0.165000888315968,-0.156423584573935,-0.19584749620725,0.397312629305449,-0.0699276829287543,-0.619757784882577,-0.264636404230592,-0.473495102516749,-0.485909574647608,-0.564335823893148,-0.586926661466082,1.64131974719893,-0.286724339483342,-0.646698124464663,-0.127726677678283,-0.470017988780626,-0.534678683864751,-0.658653627886592,-0.645953149567326,1.50761341802822
