GAMES,ROUNDS,NoHits14,NoHits24,NoHits34,NoHits44,NoHits54,NoMisses4,NoHits15,NoHits25,NoHits35,NoHits45,NoHits55,NoMisses5,NoHits13,NoHits23,NoHits33,NoHits43,NoHits53,NoMisses3,NoHits12,NoHits22,NoHits32,NoHits42,NoHits52,NoMisses2
10,86,-0.0222511697639771,-0.00759928819178832,0.0151044546393016,0,0,-0.230337386992056,-0.0182569222570317,-0.0046087969429261,0.00598138373164288,0.000215562462616717,0.00574990582715819,-0.205831712783474,-0.0262313478535944,0.0391831826260079,0.0319924308791559,0.00196291160488472,0.00271230598047236,-0.124642886758646,-0.0888460861332028,0.130285989567704,0.0395568492960606,0.0331487901860457,-0.0082233639275657,-0.562629317068836
20,80,-0.0457633736030073,0.00499655029209502,0.0375065643343259,0.00732916055610811,-0.00546339820954662,-0.224751873581451,-0.0182569222570317,-0.0046087969429261,0.00598138373164288,0.000215562462616717,0.0126871233362913,-0.178141880397018,-0.0664366056351547,0.0896964800694982,0.0700636859515366,0.00262886465636181,0.00271230598047236,-0.331943519475706,-0.0549573985481228,0.215008043042765,0.0989758881688755,0.043717465588502,-0.0137973862662664,-0.484624611049002
30,89,-0.0674514262584683,0.00499655029209502,0.0600197203412586,0.00732916055610811,-0.00546339820954662,-0.215315366101409,-0.0223313651550422,-0.00148598945501647,0.00598138373164288,0.0167723393373749,0.0126871233362913,-0.192643608792949,-0.119655792665747,0.136499720090974,0.0972300909696821,0.0343946553975426,0.000636766638672643,-0.42661074534788,-0.0628025259942441,0.309556501059674,0.135189631752168,0.0602588658280808,-0.0212021330598433,-0.506717280175795
40,86,-0.0674514262584683,0.00499655029209502,0.0600197203412586,0.00732916055610811,-0.00546339820954662,-0.215315366101409,-0.0491778487508878,0.00605118206544162,0.0232946538307485,0.0306678769626948,0.0126871233362913,-0.1333966488158,-0.0872382817912812,0.15150012363501,0.10856971358043,0.0330584962991618,-0.00617622455055109,-0.331014591098927,-0.0149645836965282,0.380316364110082,0.205300750165317,0.0840807659139563,-0.0111780207355531,-0.51623420974481
50,82,-0.0784433184526688,0.0182938249776393,0.0836547074639913,0.0134950050778892,-0.00546339820954662,-0.116794312860315,-0.0541361534032526,0.00605118206544162,0.0232946538307485,0.0396760635007309,0.0126871233362913,-0.207626863055869,-0.122270266307187,0.186189936610199,0.10856971358043,0.0424634206365614,-0.011747912991961,-0.344081946855651,-0.0309497900112432,0.524392449803971,0.250255271379821,0.0928481586811675,-0.0136127731918851,-0.569457567776306
60,84,-0.0784433184526688,0.0254067341978355,0.076342917370322,0.0204900051157659,-0.00546339820954662,-0.186682161494473,-0.068418701259536,0.00605118206544162,0.0232946538307485,0.0459932198290776,0.0126871233362913,-0.267416946050894,-0.103326334207398,0.219043159911164,0.126433386839951,0.0493116351825388,-0.011747912991961,-0.334382348969789,-0.0436730967593952,0.621925103249725,0.301451612285728,0.137179667981388,-0.0160467062600284,-0.52897124388568
70,87,-0.102596175719595,0.0329352491035129,0.0951429269997244,0.0177977658728374,-0.00546339820954662,-0.247296744649252,-0.078297115795693,0.00605118206544162,0.029546326215494,0.0478759589627077,0.0126871233362913,-0.31002626309295,-0.106705565057785,0.241643130292615,0.129585592734113,0.0541483454472253,-0.00476062897335058,-0.383856434908168,-0.0563551484275984,0.714737727496016,0.354135833312567,0.15193475220807,-0.00717379119039157,-0.527620137866186
80,87,-0.102596175719595,0.0329352491035129,0.0951429269997244,0.0265637188330736,-0.00546339820954662,-0.177245232988533,-0.0750150313166781,0.0137503739259742,0.0369758897567638,0.0478759589627077,0.0126871233362913,-0.243073033725807,-0.117344412681706,0.274380613958131,0.147914448303658,0.067232046631702,0.00620939018480224,-0.453348837533886,-0.0201307783777858,0.800389546534168,0.380182445306258,0.17934968390856,-0.0110795144853214,-0.562506022707607
90,83,-0.11448486162739,0.0294231250486929,0.109382439460004,0.033192511473531,-0.00546339820954662,-0.147278819723559,-0.0752938982842042,0.0194817296596784,0.0389023389124755,0.0591721476438053,0.0126871233362913,-0.261476344527726,-0.0899483228827083,0.284263994161618,0.158379241814363,0.063866601176159,0.00494787572837677,-0.529810490092904,-0.00312257912840946,0.88742432753904,0.432842613278475,0.208539925266843,-0.0080545045138956,-0.467031007221698
100,73,-0.166546242458915,0.0368520141243371,0.112991001662924,0.033192511473531,-0.00546339820954662,-0.214859956945089,-0.0730733421903301,0.0194817296596784,0.0459189413977042,0.0731730134977029,0.0126871233362913,-0.168715643724554,-0.0972899810894961,0.329074564309367,0.162580346191874,0.077378151223979,0.00154938274542158,-0.567799428058832,0.00725307873582705,0.873300197469627,0.449237750174956,0.20873860903083,0.00696828451132783,-0.701114254233936
110,76,-0.186184773686122,0.0454109302611962,0.146008088152286,0.0401960411072087,-0.00546339820954662,-0.145364674957158,-0.0758565713931089,0.0194817296596784,0.052517496612473,0.0895141867039852,0.0126871233362913,-0.12080580299417,-0.0867353016210261,0.373712130616234,0.197986165936797,0.0809989633640841,-0.000936669644248374,-0.488238662649651,-0.034430739588054,0.979349932151349,0.466385438671086,0.240413860894529,0.00588581035223648,-0.665772818895638
120,81,-0.191469774770544,0.0518175246510138,0.151935625549453,0.0401960411072087,-0.00546339820954662,-0.106689381654706,-0.0789782851612485,0.0194817296596784,0.052517496612473,0.109362483618674,0.0126871233362913,-0.079485561986002,-0.118779975097679,0.4349614563942,0.214475245546231,0.0845248095351133,0.00693437957071052,-0.202137964467616,-0.036074113872414,1.07742167892996,0.53807489893663,0.240117821282647,0.00486413786614784,-0.541377021989142
130,90,-0.191469774770544,0.0518175246510138,0.151935625549453,0.0401960411072087,-0.00546339820954662,-0.106689381654706,-0.0789782851612485,0.0194817296596784,0.052517496612473,0.109362483618674,0.0126871233362913,-0.079485561986002,-0.148416980763442,0.451351857029385,0.22222014209216,0.0845248095351133,0.0164520056458143,-0.242991402143557,-0.0603361378132158,1.16170541282492,0.637644626712114,0.264496004829133,-0.00931519751719929,-0.588666488315411
140,88,-0.191469774770544,0.0518175246510138,0.151935625549453,0.0401960411072087,-0.00546339820954662,-0.106689381654706,-0.0789782851612485,0.0194817296596784,0.052517496612473,0.120062815077402,0.0182393305880436,0.0502204869090485,-0.195114346342658,0.471078097389481,0.238295962077196,0.0949455956099076,0.0132254860975608,-0.417556869342038,-0.0681389301580317,1.15297890894219,0.62149060675385,0.291108373227571,-0.00359190607933656,-0.62063647168296
150,83,-0.191469774770544,0.0518175246510138,0.151935625549453,0.0401960411072087,-0.00546339820954662,-0.106689381654706,-0.0732974892484725,0.0194817296596784,0.0576471045481943,0.117295788390638,0.0182393305880436,0.0329289533170725,-0.183580418904776,0.49079442478023,0.259247973156242,0.116264737019126,0.0192158043590866,-0.366952248469031,-0.117434533170181,1.24992004196369,0.630888476564534,0.304772927235265,-0.000616274504665261,-0.598511219965047
160,88,-0.214077548628883,0.0518175246510138,0.157676557856399,0.0401960411072087,-0.00546339820954662,-0.213799701870478,-0.0732974892484725,0.0194817296596784,0.0576471045481943,0.112173047875461,0.0182393305880436,-0.0223122672224215,-0.207813576721061,0.539105390582416,0.270381345371829,0.114570839937193,0.0178214626864639,-0.408629003709929,-0.0866393164171788,1.26140296391069,0.702409985186292,0.343847034828503,-0.00566873375372323,-0.694190361871714
170,83,-0.214077548628883,0.0518175246510138,0.157676557856399,0.0401960411072087,-0.00546339820954662,-0.213799701870478,-0.0732974892484725,0.0194817296596784,0.0576471045481943,0.112173047875461,0.0182393305880436,-0.0223122672224215,-0.256673702217094,0.599446195166464,0.290903132650151,0.128896780999742,0.0225250334975093,-0.353764086379967,-0.0139828276688606,1.35400089305834,0.709338038867227,0.3906625811641,-0.00621093177146067,-0.584205693336989
180,82,-0.229254927472823,0.0487244977041302,0.179251818948922,0.0401960411072087,-0.00119622128697536,-0.196693923452454,-0.0732974892484725,0.0245694629146314,0.0524525283536213,0.126301197021331,0.0182393305880436,0.0251291555050655,-0.245985527341765,0.631382197001193,0.304502857832765,0.135478142067015,0.0192842780575461,-0.400912706607159,-0.0129257615353809,1.36780708988605,0.753767567744514,0.421418671050254,-0.011340203261078,-0.898385568880305
190,82,-0.229254927472823,0.0487244977041302,0.179251818948922,0.0401960411072087,-0.00119622128697536,-0.196693923452454,-0.0732974892484725,0.0245694629146314,0.0524525283536213,0.130490090378347,0.023514846848989,-0.0110899327420268,-0.268801357704192,0.67719956080884,0.31128780320884,0.143325163809822,0.0177039333967038,-0.404212709636867,-0.0418136497743003,1.44886848402093,0.823445208267012,0.458929127150287,-0.00622183865247561,-0.706168332676481
200,79,-0.229254927472823,0.0487244977041302,0.188313556175345,0.0401960411072087,-0.00119622128697536,-0.160529566595695,-0.0676005801415589,0.0245694629146314,0.0620987622321031,0.130157414146813,0.023514846848989,0.0284364183062465,-0.270707594753899,0.677169870723867,0.324878677715722,0.162793365389832,0.011360776446808,-0.466681827910545,0.00424437281646411,1.40980911610278,0.820113854199799,0.472287423693512,-0.0116027133171857,-0.726941768779856
210,89,-0.252624365519855,0.0557857236969594,0.20563804553054,0.0466415418314161,0.00514981403324163,-0.225052804476818,-0.0676005801415589,0.0245694629146314,0.0620987622321031,0.13427270268301,0.023514846848989,0.0612790268314013,-0.262727368818601,0.696356838674569,0.324878677715722,0.161558718954382,0.011360776446808,-0.430452447956279,-0.0780707354304044,1.41537694525131,0.85526533359322,0.498305829099283,0.00134300020409115,-0.595068138830274
220,86,-0.252624365519855,0.0557857236969594,0.20563804553054,0.0466415418314161,0.00514981403324163,-0.225052804476818,-0.0676005801415589,0.0245694629146314,0.0620987622321031,0.13234882943162,0.023514846848989,0.0276067180091219,-0.256169365064791,0.716163215367383,0.342022587429854,0.161558718954382,0.0182824434895429,-0.366786823548367,-0.0559091812596679,1.49600232952632,0.858198640999599,0.545192473560139,-0.00561188570024469,-0.582196831021037
230,78,-0.259187113071046,0.0557857236969594,0.225523252623257,0.0424919184718705,0.00514981403324163,-0.254735708829868,-0.0608368574661731,0.0242075487070233,0.0628904237926443,0.132441680407026,0.023514846848989,-0.0604517031447141,-0.259600293413555,0.726026494063818,0.352970288975447,0.155042537072661,0.0182824434895429,-0.493941314415428,-0.00538473676559793,1.42802791738436,0.869307805589766,0.550682992865261,0.00583519412830593,-0.88921200457052
240,83,-0.252890314623051,0.0581194205436776,0.231220149651208,0.0487409940059856,0.00514981403324163,-0.241688405245235,-0.0608368574661731,0.0242075487070233,0.0628904237926443,0.132441680407026,0.0290584199747283,-0.0383322075571569,-0.244100720220851,0.746101490990688,0.368047606543663,0.163769222456363,0.0170061131742751,-0.324396088135703,0.00354404988141329,1.51006855320359,0.913802441748176,0.582876058774213,0.0121558586375595,-0.493602247497768
250,87,-0.252890314623051,0.0581194205436776,0.231220149651208,0.0487409940059856,0.00514981403324163,-0.241688405245235,-0.0608368574661731,0.0242075487070233,0.0681163658294129,0.141906029685769,0.0290584199747283,0.038718935353974,-0.277247422649205,0.782202281005613,0.382583494379291,0.190057220076529,0.00731109012932396,-0.390486679435633,-0.0153593862302102,1.49381998408162,0.922602447655378,0.581770529582944,0.010718872870839,-0.826526940958873
260,82,-0.252890314623051,0.0581194205436776,0.241068249297743,0.057422570295381,0.00514981403324163,-0.103289311950814,-0.0608368574661731,0.0242075487070233,0.0681163658294129,0.146625828815483,0.0290584199747283,0.0114051204355444,-0.243454733801654,0.797769061799808,0.385153603379317,0.19564105179028,0.00546580465797259,-0.501645159639582,-0.0690747199692102,1.54715818568188,0.934099179313588,0.635505311810332,0.00563593432698331,-0.769665508027118
270,80,-0.252890314623051,0.0581194205436776,0.242834466551089,0.0587278595811218,0.00514981403324163,-0.172580884548107,-0.0608368574661731,0.0185617813481935,0.0731021878926829,0.155726989642503,0.0290584199747283,0.0225578726751162,-0.261155973999619,0.845594307813845,0.410237284296416,0.202868004377292,0.00546580465797259,-0.337057676453596,-0.0637656621588783,1.54647166440573,0.935153468095476,0.652167629782077,0.00538032515291715,-0.881885541336805
280,88,-0.260897777616991,0.0721481101846919,0.247483607686563,0.0587278595811218,0.00514981403324163,-0.146305302486239,-0.0660292367640243,0.0251663067221197,0.077295838995433,0.166257115980252,0.0290584199747283,-0.120545102254352,-0.244318292268641,0.841174614902347,0.426200535623999,0.212355883456803,0.0114658560681423,-0.363009543443783,-0.0479502040532918,1.57819546981759,0.923872831441435,0.675143354931411,0.00516765768783764,-0.788790063138515
290,84,-0.260897777616991,0.0721481101846919,0.247483607686563,0.0587278595811218,0.00514981403324163,-0.146305302486239,-0.0788295415586563,0.0317609613009861,0.0796173789216052,0.178507660057998,0.0355354022606048,-0.0280518903737887,-0.286354968739264,0.882616713413987,0.425922013773636,0.220156277089481,0.0196501575275167,-0.418638578449504,-0.0875011328512327,1.60397790774952,0.97156995461789,0.641346101814104,-0.00810280178946393,-0.694629061920597
300,81,-0.260897777616991,0.0721481101846919,0.249326954358703,0.0587278595811218,0.00514981403324163,-0.138949126991879,-0.0725169208811777,0.0317609613009861,0.0895001355242259,0.183109557724088,0.0404043831507901,-0.0207629241999683,-0.288189640254995,0.912294066787064,0.455111583563458,0.237234937563636,0.0345783544477362,-0.314282064223146,-0.0774409738602907,1.5463327127325,0.967615813522391,0.649943842166837,-0.00502801242322099,-0.890117290198575
