GAMES,ROUNDS,HitSpacesInRow4,HitSpacesInRow14,HitSpacesInRow24,HitSpacesInRow34,HitSpacesInRow44,HitSpacesInRow54,AdjMisses4,NonMissSpaces14,NonMissSpaces24,NonMissSpaces34,NonMissSpaces44,NonMissSpaces54,NoDiagHitsWithAdjHit4,HitSpacesInRow5,HitSpacesInRow15,HitSpacesInRow25,HitSpacesInRow35,HitSpacesInRow45,HitSpacesInRow55,AdjMisses5,NonMissSpaces15,NonMissSpaces25,NonMissSpaces35,NonMissSpaces45,NonMissSpaces55,NoDiagHitsWithAdjHit5,HitSpacesInRow3,HitSpacesInRow13,HitSpacesInRow23,HitSpacesInRow33,HitSpacesInRow43,HitSpacesInRow53,AdjMisses3,NonMissSpaces13,NonMissSpaces23,NonMissSpaces33,NonMissSpaces43,NonMissSpaces53,NoDiagHitsWithAdjHit3,HitSpacesInRow2,HitSpacesInRow12,HitSpacesInRow22,HitSpacesInRow32,HitSpacesInRow42,HitSpacesInRow52,AdjMisses2,NonMissSpaces12,NonMissSpaces22,NonMissSpaces32,NonMissSpaces42,NonMissSpaces52,NoDiagHitsWithAdjHit2
10,69,-0.0177425344277059,-0.0566764411123572,-0.00575772209179281,0.0166994370871074,0,0,-0.440445279768835,-0.00114560531449547,-0.0205641865537261,-0.027519920210973,-0.0407960260971684,-0.0118259713956423,0.0103403508732617,0.00506252517975041,-0.00443410805059763,0,0,0.00228875170715196,0,-0.0485599613923854,0.00543891832025311,0,0,0.00105617102782553,0,0.00110601871873415,-0.0210967141852082,-0.0363160470040708,0.00614189865793985,0.00625788300231915,-0.00390452341852082,0,-0.150531263263461,0.00327766540304441,0.000868342647947303,-0.00936061362891539,-0.0087313266576013,-0.0207549310270903,0.0829606070719697,0.0637390412223437,-0.0423601596076298,0.0208273630658658,0.0208609751271024,0.0230734917401573,-0.0178491691057012,-0.254935002131805,-0.0331263143874084,-0.0027201799589686,-0.0530723912876063,-0.0420609480209512,-0.0532805257953706,0.178971462805877
20,66,0.0817880167669497,-0.0696363358498242,-0.00894710263556111,0.0367987353602581,0.00830496712898184,0.004378419512852,-0.42255268227609,-0.00114560531449547,-0.0205778536130246,-0.0331818065680153,-0.0519265794545763,-0.00927891074006865,0.0458252574139304,-0.0140894356097598,-0.0654965621688993,-0.00327226064433226,0.00266840315013274,0.0177269221846198,-0.00429621814365654,-0.370918065565972,-0.00738564674588254,-0.00963292177731558,-0.0349689696559946,-0.0112791267978705,-0.0238762602482463,0.0225996597409503,-0.000116257512866912,-0.129177905162671,0.0570121367306842,0.011424354703195,0.00113152788260662,-0.00473649091676315,-0.388741973083076,-0.0176828263589618,-0.0377716764479081,-0.0653001317910225,-0.0722797224703835,-0.0473493497554184,0.202592998757423,0.0746541618208572,-0.108850526285537,0.0821466326379809,0.0568949328414709,0.00806511304363398,-0.0321048647930692,-0.328421238740253,-0.0417555736156555,-0.0171154473541183,-0.0664503234810962,-0.0559221449370292,-0.0938370416931557,0.290337510493366
30,62,0.133982856330282,-0.0696363358498242,-0.00894710263556111,0.053919293628003,0.00830496712898184,0.004378419512852,-0.357462478519952,-0.00114560531449547,-0.0205778536130246,-0.0257992298512771,-0.0461553259886775,-0.00165407559519065,0.0534362561739966,0.0491627520054773,-0.0684219312258373,-0.00327226064433226,0.00266840315013274,0.033878063426985,-0.00429621814365654,-0.383970576458341,-0.015334924736361,-0.0156420933793109,-0.0349689696559946,-0.0143629314162523,-0.026881615277197,0.0304393567123977,0.0647301673754591,-0.133061481731354,0.076286242811453,0.0303716852211538,0.00139456167183635,-0.010188076395452,-0.306358165014883,-0.0297044108847547,-0.0232203006387539,-0.0510107790827093,-0.0970225159203925,-0.073565622448995,0.29675234952941,0.0718032053584656,-0.157053707269268,0.130762642241053,0.0511390673025596,-0.00320685251250558,-0.028523613843359,-0.547104562299449,-0.0372446642933543,-0.0509397891500671,-0.104855738304642,-0.0710670842446131,-0.163813419472747,0.378087925450498
40,59,0.140969820953846,-0.0804063257030962,-0.00956988281843888,0.0623845153142484,0.00664289017805424,0.004378419512852,-0.353696636772482,-0.00577484794175611,-0.0152393353743197,-0.0314703820195499,-0.0615035036953404,-0.00709983232208313,0.0559718534273695,0.0491627520054773,-0.0684219312258373,-0.00327226064433226,0.00266840315013274,0.033878063426985,-0.00429621814365654,-0.383970576458341,-0.015334924736361,-0.0156420933793109,-0.0349689696559946,-0.0143629314162523,-0.026881615277197,0.0304393567123977,0.00709464571666362,-0.160412552596418,0.0661966247143408,0.035439205981946,0.0066986986157682,-0.0190963013207512,-0.283997878912488,-0.0419565676850931,-0.0232203006387539,-0.0599810387485761,-0.0895105932087852,-0.0908441071604313,0.306649547663157,0.0241203850240317,-0.249162736608274,0.193621794104728,0.101998657811666,-0.01159284095237,-0.051786447809292,-0.581797010336136,-0.0357213621308697,-0.0979523930346845,-0.121360428239855,-0.185265064332637,-0.200747479419832,0.506869360356126
50,63,0.154566988984319,-0.129439980927965,-0.00883077933901044,0.0916799682923216,0.00301407396280574,0.0018789935340264,-0.439066300873919,-0.0125857807893454,-0.0261833707423388,-0.0355767788523602,-0.0859994426648236,-0.0308715798216167,0.0900454844729247,0.120422797997754,-0.0985572780145701,0.00330182208275447,0.0108357322174102,0.0492885457169219,-0.00429621814365654,-0.391540584316513,-0.00798267660689496,-0.0254177074020535,-0.0417621495782905,-0.0277746449544159,-0.0335230960397322,0.0662798332937481,0.0533225424696336,-0.158291958613132,0.0780432376519979,0.0420399006637573,0.0066986986157682,-0.0190963013207512,-0.250407165529102,-0.0455334067424218,-0.0207061092933104,-0.0562996613703856,-0.0929475718729593,-0.0974049926708041,0.326491296344298,-0.00371581819005996,-0.272683564016811,0.267691692800692,0.116406135655301,-0.00241230326231235,-0.085533923575616,-0.544272142182006,-0.0384852140765213,-0.154622659381952,-0.139671677473261,-0.228919915885778,-0.254661509970719,0.638721845712702
60,59,0.183102543885121,-0.142088120390662,-0.0033009937769201,0.0939831303916665,0.00856192867221299,0.0018789935340264,-0.403987242968718,-0.0125857807893454,-0.0190558333061757,-0.0349844548277969,-0.0857062505928584,-0.0388652649804818,0.0971584071850738,0.120422797997754,-0.0985572780145701,0.00330182208275447,0.0108357322174102,0.0492885457169219,-0.00429621814365654,-0.391540584316513,-0.00798267660689496,-0.0254177074020535,-0.0417621495782905,-0.0277746449544159,-0.0335230960397322,0.0662798332937481,0.0547374744217707,-0.144542884526627,0.0885318670941615,0.0472107385056478,0.00200439132051645,-0.024706323844439,-0.262412025328631,-0.0353015777599805,-0.0239545735606854,-0.0690888856702625,-0.0944190191785163,-0.117739014649494,0.344211925510268,0.00793635727607942,-0.321002134899317,0.322338526061094,0.112561004074627,0.0240334088953909,-0.0946993509027657,-0.656099353220776,-0.0671916172888493,-0.142180119534597,-0.178008296548596,-0.2552620952128,-0.256438658176169,0.779443882801098
70,57,0.175754468828885,-0.167196870739768,-0.00284533673569576,0.0994924115861359,0.00856192867221299,0.0018789935340264,-0.392541433410441,-0.0125857807893454,-0.0131612888538934,-0.0447741753430774,-0.0857062505928584,-0.0388652649804818,0.0971584071850738,0.151828880113799,-0.116764757305388,0.00330182208275447,0.0165503751914026,0.0570584792036987,-0.00429621814365654,-0.386927104660692,-0.00595557782638618,-0.00841042680712984,-0.0466577593759509,-0.036612000503149,-0.0513822392244969,0.0741101525049822,-0.0977138599425753,-0.149484666598118,0.0756687225874237,0.0395468405979783,-0.00989089609833119,-0.0281792974208367,-0.404365297722204,-0.0424773760132788,-0.0405194950181485,-0.0898843617034002,-0.142748425102019,-0.132774610674962,0.351863789637362,-0.0939172023352672,-0.354405822905282,0.340498607784668,0.123921031468927,0.0130408026168148,-0.104825961861767,-0.641689240611994,-0.0655740872126868,-0.118354527281335,-0.19478265310668,-0.302950597942717,-0.284656760822097,0.822648797716399
80,61,0.202170097932762,-0.181597030205955,0.00643694673482446,0.106741082622374,0.00856192867221299,0.0018789935340264,-0.372980426923687,-0.0156137854927632,-0.0113737789723952,-0.0428625417305558,-0.0894932278349243,-0.0426986282119567,0.119824950400594,0.215372729640809,-0.133820177167098,0.00910643740028834,0.0216874839887099,0.0698697117706267,-0.00429621814365654,-0.33349195617214,0.00485138915357848,-0.0124593331744021,-0.0466577593759509,-0.036612000503149,-0.0614125330700077,0.103766335317487,0.0425835239667331,-0.168117237287603,0.111659067287748,0.0625227108620587,-0.00139856140171652,-0.031697711533409,-0.396110144304686,-0.0342143020380301,-0.0502040578323016,-0.113262438173613,-0.142002301821837,-0.147140811415839,0.432776245748199,-0.0748481847237729,-0.292206686472887,0.385917233069242,0.0877801099210857,0.0287497297392299,-0.121561466269758,-0.56940782146867,-0.0470760950329014,-0.11190985152061,-0.188215532278543,-0.341728618632097,-0.306396864325529,0.87709932685992
90,57,0.216036373795749,-0.199573999697891,0.0115584912590833,0.126974041183553,0.00856192867221299,-0.00570596990148697,-0.330846921382936,-0.0156137854927632,-0.00631610439256757,-0.0390842981134684,-0.0878150278296692,-0.0475918978565913,0.140109052163286,0.191865038171017,-0.11497465676965,0.0191325805545248,0.0118271990096215,0.0678524786201627,-0.000428658832676928,-0.315177099514919,0.00459432537695367,-0.00753614145611142,-0.0416048674311626,-0.0417495758570528,-0.0584648138178705,0.0979703361146705,0.0866009887405423,-0.196038808245627,0.114789881011963,0.0787243611176424,-0.00274298141924191,-0.0276131569001022,-0.451150322986674,-0.0394181499074185,-0.0537743780794871,-0.131176603444303,-0.138945358326266,-0.160437378045352,0.472144020948681,-0.197995624373733,-0.284872994406887,0.420112831544381,0.0185016751268994,0.0465517721288984,-0.133024241592816,-0.565718432771148,-0.0782775807905804,-0.140661126576496,-0.177413285376861,-0.338206568906848,-0.32529817196317,0.872908624466234
100,60,0.213715746153041,-0.211755813012705,0.00296658847804267,0.146216815243855,0.00856192867221299,-0.00570596990148697,-0.302575296836259,-0.0156137854927632,-0.00830049165251708,-0.0390842981134684,-0.0815092794117715,-0.0475918978565913,0.147884268754651,0.191865038171017,-0.11497465676965,0.0191325805545248,0.0118271990096215,0.0678524786201627,-0.000428658832676928,-0.315177099514919,0.00459432537695367,-0.00753614145611142,-0.0416048674311626,-0.0417495758570528,-0.0584648138178705,0.0979703361146705,0.136027628570402,-0.216388922439334,0.0911112639917999,0.105971090878964,0.015283606127592,-0.041197024951625,-0.547242088785946,-0.0385570575057825,-0.0767420686110078,-0.148348833251016,-0.177826407041204,-0.154619353100517,0.53720935007118,-0.183205561764427,-0.31124432493642,0.413443761870304,0.026363301622736,0.0471793296018746,-0.127808319530874,-0.584488391814739,-0.044275550198607,-0.131111665771777,-0.202974722007424,-0.363673996914764,-0.366088926838323,0.909383462711758
110,60,0.191920990273653,-0.211755813012705,0.00296658847804267,0.150726058977721,0.00856192867221299,-0.0124540769316447,-0.300312414875704,-0.0156137854927632,-0.00830049165251708,-0.0390842981134684,-0.0815092794117715,-0.0431383023184467,0.145608412091316,0.202920935937115,-0.153617539966222,0.0247792693724329,0.0118271990096215,0.0770670575538785,-0.000428658832676928,-0.343864959751434,0.000502020060386735,-0.01174157188011,-0.046667668682843,-0.0664787411379862,-0.0470650328183491,0.1136873052038,-0.0185031686477882,-0.299575812772711,0.127413251574317,0.100177288128803,-8.83885109391816E-06,-0.0530619974181664,-0.583749674776019,-0.0646294542510068,-0.074780562539402,-0.145030094191394,-0.180565706841849,-0.170085800859765,0.547519595259735,-0.122232988835627,-0.349196169247459,0.418308259380402,0.0680221120260586,0.0614887919327096,-0.145954791216163,-0.597311929196139,-0.0438731796732862,-0.169586898120536,-0.233384714419949,-0.36977634269952,-0.399050677166155,0.925584464032649
120,60,0.223268390889302,-0.214968569470299,0.00998808290914783,0.1523577505406,0.0122688207454808,-0.0124540769316447,-0.301701014580508,-0.00998723714946091,-0.00805079515237685,-0.0457126716083564,-0.0846356698005229,-0.0495813153971654,0.153923997494526,0.173905943344929,-0.177496831912305,0.0247792693724329,0.0105110244060695,0.0838551692570047,-0.00588047921546408,-0.410962515434701,-0.00222784198065009,-0.0146607965731957,-0.058531170008069,-0.0808891173032663,-0.0605710576174724,0.107954452059154,0.00772424694886809,-0.262329988448788,0.128584181429215,0.108268193056934,0.00543643146613545,-0.0644401306838264,-0.587816612259545,-0.0732130962766705,-0.0831381637718153,-0.146662292585529,-0.21244937726279,-0.216716965333779,0.590004672657557,-0.243236588651104,-0.322552499070564,0.383444029226509,0.0856487394821992,0.0394295462189666,-0.153478844269835,-0.634913955120323,-0.0619190812055647,-0.203251503929638,-0.208194570178113,-0.372950438515084,-0.445784921666477,0.965780745654138
130,60,0.120934133663762,-0.234163754404393,0.0133375406851106,0.146925218477833,0.00269559637381698,-0.0187180615261781,-0.388375718778007,-0.0102591000378533,-0.0183211836228913,-0.0498358795346671,-0.0990746599899436,-0.0676514174261419,0.156888937695714,0.219670677786484,-0.205279828650094,0.0307419449379975,0.030652756891638,0.0838551692570047,-0.00588047921546408,-0.412037403433624,-0.00516145695819003,-0.0215038267410196,-0.0531943994644078,-0.072305275168888,-0.076353644864743,0.139390757627196,0.0981499026327008,-0.264167027873925,0.168236910359039,0.10877351986809,0.0117333381657907,-0.0673570726972075,-0.563173305835041,-0.0638896148651344,-0.0756600253198708,-0.142192332372559,-0.207663186283538,-0.225188802280654,0.680874703607847,-0.0926816775614405,-0.297727440060046,0.414002912067041,0.0964603225512917,0.0469374631741833,-0.153478844269835,-0.519574169540121,-0.0544819465441145,-0.174087757895554,-0.227516723016686,-0.39174365514555,-0.430005948239898,1.08547185294691
140,62,0.117033780821951,-0.281692727140711,0.0272838762704564,0.152050035794505,0.00269559637381698,-0.0187180615261781,-0.422628664767044,-0.0161977596898556,-0.0322943183972782,-0.0582330384568793,-0.108438052729068,-0.0877945394946177,0.177834875040796,0.219670677786484,-0.205279828650094,0.0307419449379975,0.030652756891638,0.0838551692570047,-0.00588047921546408,-0.412037403433624,-0.00516145695819003,-0.0215038267410196,-0.0531943994644078,-0.072305275168888,-0.076353644864743,0.139390757627196,0.0344381791299385,-0.28411945116526,0.175104136042158,0.10877351986809,0.0117333381657907,-0.0781519013172442,-0.571078953029199,-0.0719816875913477,-0.0687606613438254,-0.156845993197403,-0.210766817602946,-0.243534668357584,0.678128553544185,-0.161433438782405,-0.419383086514304,0.430258088079,0.116520095537002,0.0464863980219613,-0.161007823897732,-0.628080867789275,-0.0671533951662956,-0.182162194665972,-0.260504273400602,-0.400436806365594,-0.449958831343056,1.08616004896376
150,58,0.107921043792515,-0.281692727140711,0.0294006504367401,0.152606181574321,-0.000930737339051551,-0.0187180615261781,-0.474917728245183,-0.0151497605853667,-0.0322943183972782,-0.0692497862821821,-0.122570039691357,-0.0854283427869163,0.181252608075084,0.243071490727619,-0.220130029104435,0.0359901203365806,0.0355210805281975,0.0869318057718317,-0.00588047921546408,-0.396570367207009,-0.010110188209486,-0.0215038267410196,-0.0580479252337332,-0.072305275168888,-0.076353644864743,0.157627625755257,0.00168301966462151,-0.264250060041081,0.187093065958614,0.124773607097765,0.00570440131609739,-0.0901584611938419,-0.452824905286416,-0.057698515871436,-0.0736638269975605,-0.180903875076879,-0.244709756263896,-0.240839487704267,0.729558774173264,-0.162007182053651,-0.436776326051891,0.459097189671281,0.129874231590033,0.0307033282998005,-0.164064500188304,-0.652227586307823,-0.0750058424430389,-0.192597826331509,-0.303874401215285,-0.401412976980508,-0.478084853006695,1.15552635262142
160,59,0.117302547782886,-0.316522438637566,0.0275926080123499,0.176374507715328,0.00424435593120728,-0.0271875030612033,-0.502390206927394,-0.0246356507867308,-0.0485289851524415,-0.0803033066058989,-0.133947709440849,-0.101756973214502,0.202085110467666,0.224499248719162,-0.25054603219304,0.0309083151103968,0.042784563370024,0.0869318057718317,-0.00588047921546408,-0.427497966514958,-0.00983187559817245,-0.0271308777596972,-0.0714343703761123,-0.0848782869006557,-0.0903194299011878,0.164624718437519,0.00151409895736959,-0.313855763915072,0.178172064014291,0.139186917898188,0.0112539527834687,-0.0953559676141536,-0.500357053014697,-0.0661772322774573,-0.0776517866786267,-0.20379710780335,-0.23771147827627,-0.252336457532484,0.735508488263361,-0.226267450237382,-0.386653065705805,0.482283826882251,0.13260424057782,0.0141365140638717,-0.173691425305556,-0.565169101028498,-0.0818300330849337,-0.168398828838365,-0.314469663693278,-0.444624170810688,-0.492801529689226,1.21519430857184
170,62,0.118880335699897,-0.316522438637566,0.0275926080123499,0.183680097938022,0.00424435593120728,-0.0310315439495675,-0.489557803427449,-0.0284343973440681,-0.0536454226248258,-0.0827756950118324,-0.141171996471268,-0.101756973214502,0.209798390390019,0.249961407088971,-0.25054603219304,0.0309083151103968,0.042784563370024,0.0930586014088725,-0.00588047921546408,-0.40304898031828,-0.00983187559817245,-0.0271308777596972,-0.0714343703761123,-0.0848782869006557,-0.0903194299011878,0.170502206921217,-0.00589782639312882,-0.341626969671994,0.206978640014758,0.142331160077598,-0.000115894384971072,-0.0953559676141536,-0.518287547655491,-0.0760530686813111,-0.0850163813603806,-0.212084685501226,-0.246937582161002,-0.270405481280669,0.749610787815759,-0.163709807845004,-0.415268842479781,0.477301161584119,0.140964103597846,0.038015928726718,-0.178115117180779,-0.64997080879037,-0.0908543689416295,-0.211215822504829,-0.342905183906142,-0.480235451782931,-0.49858555551017,1.2362879295716
180,58,0.118880335699897,-0.316522438637566,0.0275926080123499,0.183680097938022,0.00424435593120728,-0.0310315439495675,-0.489557803427449,-0.0284343973440681,-0.0536454226248258,-0.0827756950118324,-0.141171996471268,-0.101756973214502,0.209798390390019,0.21071634165079,-0.263485317322041,0.0294092912787007,0.0458382589610196,0.0851446066825007,-0.00588047921546408,-0.413387793796091,-0.00983187559817245,-0.0435392419198728,-0.0847185435558802,-0.114621117702752,-0.0919393067645884,0.167538261038178,-0.0511651811347312,-0.353507646264527,0.217587422862379,0.136960408412012,-0.00382958543445818,-0.0996439471268123,-0.585078204488246,-0.0860007642295931,-0.104723625561126,-0.194285963240401,-0.250425568133675,-0.273375566763795,0.763465715385275,-0.239059347428112,-0.429829285711628,0.481861734663896,0.150083112098653,0.0379354090523676,-0.189082486145961,-0.589715773570337,-0.089643593923104,-0.214318127108257,-0.347734902532312,-0.464276668412143,-0.482519951793127,1.25193206684523
190,59,0.142852609272891,-0.316495555098069,0.0311126829666064,0.189170073975532,0.00424435593120728,-0.0310315439495675,-0.471553400243973,-0.021729684512147,-0.0482233645381682,-0.0827756950118324,-0.141171996471268,-0.101756973214502,0.215206986868617,0.247664024517963,-0.267331451279236,0.0345340594894023,0.0508458565316594,0.0851446066825007,-0.00302061703836061,-0.39643173230582,-0.00477101604184838,-0.0435392419198728,-0.0847185435558802,-0.0979144789470387,-0.103122186621151,0.18540985852336,-0.018355422452508,-0.310729925154534,0.199453438527904,0.144272870175194,0.0124660298660695,-0.0996439471268123,-0.644221412029828,-0.0809609982055447,-0.100098147591925,-0.217616648764346,-0.266462145254272,-0.294939560612241,0.789135991209081,-0.237371013546682,-0.43845056282626,0.471747946669916,0.163742740332968,0.0378418823146543,-0.191020821469514,-0.603456696355627,-0.116887173924091,-0.186451484284966,-0.373030761217717,-0.49824112901998,-0.480226558883886,1.25442085119722
200,58,0.175221910807226,-0.314116764141805,0.0405847185707107,0.184598510180916,0.0103326516942686,-0.0310315439495675,-0.467715603881872,-0.021729684512147,-0.0558955083525857,-0.0781005214993341,-0.143753853922362,-0.0940892320951098,0.240888086816824,0.260780792272689,-0.298909115004706,0.0345340594894023,0.0575637864886374,0.0909641201118825,-0.00302061703836061,-0.40830451707604,-0.00878832063533361,-0.0512074818449198,-0.0919700257585403,-0.101646545440393,-0.108547910011958,0.197435626245031,0.0103241363861046,-0.320973270103739,0.220120609985694,0.15269356008091,0.0124660298660695,-0.105005839672813,-0.627133054621021,-0.0939828010798775,-0.089594873527953,-0.216577270050198,-0.285864333509132,-0.267661458491241,0.829023882845738,-0.146037821354216,-0.40187036982158,0.461330553545452,0.20968628591836,0.0382715038860025,-0.196106513003054,-0.494356839610524,-0.100177589671954,-0.222658512158443,-0.387561117718824,-0.48086685821151,-0.503072918271899,1.31595574916765
210,61,0.160336254242132,-0.333049306117705,0.0531499602772295,0.174978067813532,0.0153184996925613,-0.0333938994541042,-0.57258833409834,-0.0213844186693604,-0.0680556168047281,-0.0962157586182488,-0.146647943249531,-0.109107230226249,0.242811032819288,0.286677236193255,-0.298909115004706,0.0345340594894023,0.0575637864886374,0.0971983270904629,-0.00302061703836061,-0.383426277577074,-0.00878832063533361,-0.0512074818449198,-0.0919700257585403,-0.101646545440393,-0.102565008575984,0.197435626245031,-0.0932714362265301,-0.292425359314896,0.213815176085886,0.162083785805979,-0.00317497308935399,-0.114349730801337,-0.632406861462896,-0.0908590270729639,-0.105695927120692,-0.219817352260813,-0.29593786945151,-0.311200555806477,0.842410386021171,-0.215432709981906,-0.422938428781968,0.448377400489665,0.229008283125384,0.014217845952296,-0.183083687550687,-0.585563379860911,-0.119148108833031,-0.236872824318105,-0.411989148332697,-0.491927543195607,-0.511161432282599,1.27659899119385
220,58,0.155344433859328,-0.345902287557359,0.0540693892105806,0.176951387950915,0.0153184996925613,-0.0333938994541042,-0.564430175637416,-0.0213844186693604,-0.0680556168047281,-0.091171606654081,-0.16504394220135,-0.107293149434767,0.242362271523474,0.29175287734013,-0.302887019651843,0.0390613617211445,0.0559596177172813,0.0983303905330538,-0.00302061703836061,-0.360587423966565,-0.0127472052519304,-0.0406702236398706,-0.0919700257585403,-0.101646545440393,-0.103300828834226,0.21134028356491,0.0173664497713518,-0.297508777658418,0.239930475731395,0.192898703708407,0.00395972190097267,-0.125582410165009,-0.533760991463578,-0.0831032994319652,-0.107796949589894,-0.247477082734161,-0.311344983018061,-0.334371030529177,0.916364108077561,-0.193597425761521,-0.414467070598134,0.457807320838192,0.233664528045324,0.0258988771166697,-0.20822135745876,-0.521123768700132,-0.122433578695657,-0.237621976528826,-0.440136765637722,-0.494277436321283,-0.512016074204876,1.31323157326628
230,59,0.163808559696549,-0.34015492374156,0.056173152450821,0.176443708427243,0.0153184996925613,-0.0333938994541042,-0.549740523069161,-0.02575712430987,-0.0666171495683668,-0.0873029581589232,-0.16504394220135,-0.107293149434767,0.254280339531144,0.262093745299351,-0.302887019651843,0.0342089953001977,0.0611635223355514,0.0896617200886309,-0.00302061703836061,-0.369978488715782,-0.0127472052519304,-0.0478646363063087,-0.0868309627771116,-0.0973822489101131,-0.103300828834226,0.199368505023559,0.0897650734165561,-0.26856445866041,0.257302168287964,0.198705360159267,0.00547095616115002,-0.128533742098016,-0.460795649682571,-0.0914408631590269,-0.104321389815488,-0.240945417645031,-0.301424475064352,-0.316820704832871,0.92085076246619,-0.270044959857628,-0.372614259768315,0.446608011997553,0.22110880231996,0.0371979087159877,-0.227919443862081,-0.587380255103823,-0.107885549154082,-0.245220628764162,-0.467611956553179,-0.531784579697299,-0.541361669607639,1.36457043716904
240,55,0.158014714898373,-0.358410661672423,0.0588344947948222,0.178834711022401,0.0153184996925613,-0.0333938994541042,-0.602638596643304,-0.0224228964992563,-0.0764319548288233,-0.101392294428668,-0.16702847729929,-0.107293149434767,0.25655840226678,0.293724326133122,-0.302887019651843,0.0342089953001977,0.0611635223355514,0.0820858191041192,0.00364355143313124,-0.347862401314499,-0.0127472052519304,-0.0446510700673327,-0.0868309627771116,-0.0973822489101131,-0.103300828834226,0.203672591488731,-0.0411714245627133,-0.263492811567981,0.253905613559732,0.186758962098804,0.00606467863762237,-0.146404947282145,-0.47370392227517,-0.0967123440966232,-0.101811400302355,-0.24200220056611,-0.304181059934504,-0.307382360798975,0.905792225422317,-0.270969845135693,-0.342145847417632,0.433938035531186,0.230452064775388,0.0360524747312268,-0.233597179365682,-0.634843137882632,-0.126978075361668,-0.26430924221814,-0.473341718977746,-0.541287605747468,-0.521071612055252,1.41323267918437
250,58,0.158014714898373,-0.358410661672423,0.0588344947948222,0.178834711022401,0.0153184996925613,-0.0333938994541042,-0.602638596643304,-0.0224228964992563,-0.0764319548288233,-0.101392294428668,-0.16702847729929,-0.107293149434767,0.25655840226678,0.306684367271652,-0.302887019651843,0.0342089953001977,0.0611635223355514,0.0851766881619904,0.00364355143313124,-0.311973669729329,-0.0127472052519304,-0.0446510700673327,-0.081847122695526,-0.0986631661211531,-0.109119781173274,0.21791772680286,-0.0118626651180938,-0.255723240055727,0.266652103439403,0.187331460147974,0.0178262371871316,-0.151670454772594,-0.509704715611684,-0.0982901406780409,-0.118825437034705,-0.234651428200348,-0.326306952084975,-0.294449407850417,0.918837735209443,-0.265321597525032,-0.370384350346058,0.469907469019321,0.2500638367377,0.0233691659964708,-0.242117134918535,-0.610793248876641,-0.12251380990553,-0.280060802009396,-0.444371184744075,-0.549012977455274,-0.544226660726321,1.46256441711391
260,56,0.193341856349466,-0.363894388142066,0.0588344947948222,0.192214796802699,0.0153184996925613,-0.0333938994541042,-0.602683437851186,-0.0224228964992563,-0.079967250690423,-0.101392294428668,-0.161881442944077,-0.109341541564076,0.264551418139373,0.316530792246409,-0.302887019651843,0.0342089953001977,0.0611635223355514,0.0875659408246482,0.00364355143313124,-0.309588758972885,-0.0127472052519304,-0.0446510700673327,-0.081847122695526,-0.0962825839729499,-0.109119781173274,0.220293993589382,-0.0451292205497591,-0.276366798247009,0.271460762495755,0.173645835490203,0.0374057227752767,-0.163161777558824,-0.598638218316131,-0.0975757214467246,-0.137145851537717,-0.225533834250134,-0.328900800538188,-0.315059708629772,0.933799860356307,-0.292413332924432,-0.35207367399502,0.471587254253059,0.246603393120101,0.0124547644489895,-0.240669512279431,-0.585136490335231,-0.142424997837213,-0.280894895107435,-0.445923330082849,-0.521655963533911,-0.582576960096041,1.4712645296471
270,55,0.273979143107307,-0.368183324844313,0.0784099159740741,0.209076404052857,0.0195457182130231,-0.0410174817857424,-0.524685985725337,-0.0180217699934387,-0.0767389492423753,-0.0914821614553332,-0.166159877376914,-0.0983786774951234,0.285876202533132,0.316530792246409,-0.302887019651843,0.0342089953001977,0.0611635223355514,0.0875659408246482,0.00364355143313124,-0.309588758972885,-0.0127472052519304,-0.0446510700673327,-0.081847122695526,-0.0962825839729499,-0.109119781173274,0.220293993589382,-0.107782976635923,-0.281421658732537,0.26036794269076,0.174185254890419,0.0374057227752767,-0.170050974397789,-0.606379179930139,-0.106784042321762,-0.123011867290898,-0.212779194233335,-0.354974814384571,-0.333215914741618,0.913594019489619,-0.210628017668314,-0.36765114584431,0.503833409483067,0.236401568280392,0.0412568932575025,-0.239235017591551,-0.600470846210924,-0.152121398444645,-0.304144670087572,-0.449723122090914,-0.506429094196085,-0.554410502132059,1.49839193948907
280,61,0.284996519656183,-0.38424445245425,0.0784099159740741,0.207875812598066,0.0186056023006084,-0.0344089092694903,-0.503630997648331,-0.0174922793050517,-0.0849730956660675,-0.101329598006507,-0.177606532139261,-0.104917166512507,0.288383418858119,0.334148698339413,-0.302887019651843,0.0342089953001977,0.0611635223355514,0.0917975346384564,0.00364355143313124,-0.29270368674958,-0.0127472052519304,-0.0446510700673327,-0.081847122695526,-0.0922251468820575,-0.109119781173274,0.224341651313763,-0.113205237521035,-0.317868692295846,0.309981217347472,0.173970583421901,0.0426695649723964,-0.179972312842074,-0.59207197848492,-0.0652186934404307,-0.152535783013427,-0.215783788363306,-0.35136477753539,-0.353687853681477,0.995269821357137,-0.359881508782456,-0.443205771043726,0.51922905117167,0.213700438040074,0.0379583296629534,-0.243281448578663,-0.619122139967296,-0.158572614202476,-0.302364093013811,-0.442090230012888,-0.507412831555458,-0.552867811823239,1.40120622688137
290,57,0.244157474267356,-0.398113102738808,0.0799608104145625,0.220147151836957,0.0186056023006084,-0.0388126260428422,-0.537419817772049,-0.0174922793050517,-0.0831256879510263,-0.111286969127019,-0.166709077528007,-0.126817070525057,0.299518406489991,0.38247427081319,-0.328941349436931,0.0345664496323114,0.075971532508336,0.098679906532666,0.00364355143313124,-0.235768098933281,-0.00329283803760241,-0.0537629678926179,-0.0729892040147724,-0.0916366622453227,-0.113825250022392,0.242612834226226,-0.0370821638874873,-0.289029578957765,0.311091334274588,0.173970583421901,0.0467873333377324,-0.17475837534777,-0.511761190560318,-0.0586540221606296,-0.13605681857333,-0.215620601329952,-0.352420652078842,-0.36235495577847,1.03999895584423,-0.256154481069854,-0.481117993277953,0.554146875671245,0.208670237288217,0.0535155113806999,-0.238637509327876,-0.597421360767236,-0.170727191705674,-0.287841084927762,-0.449899656932496,-0.532926751821226,-0.550076960483145,1.44115048042316
300,52,0.247574423823492,-0.387930725994799,0.0744001871530875,0.222250521103972,0.0271448140523861,-0.0459651796308316,-0.516457309996793,-0.0174922793050517,-0.0834340627810945,-0.118127818405421,-0.159050381133322,-0.120560784144192,0.306212293727078,0.38247427081319,-0.328941349436931,0.0345664496323114,0.075971532508336,0.098679906532666,0.00364355143313124,-0.235768098933281,-0.00329283803760241,-0.0537629678926179,-0.0729892040147724,-0.0916366622453227,-0.113825250022392,0.242612834226226,-0.109546913448214,-0.291574436464212,0.287609399745644,0.159991114928627,0.0507629625180237,-0.179882166488245,-0.499948327455088,-0.0715311883556682,-0.141670136049096,-0.215953661595182,-0.354501395676161,-0.374322273579071,1.03016739448374,-0.201084344270064,-0.47297405152956,0.573084154359189,0.230030431011984,0.042833687871174,-0.240840980232277,-0.571701512118808,-0.162856020676115,-0.294682539857145,-0.458510781497205,-0.536866599956231,-0.549356047393876,1.4605812626024
310,60,0.244838256172199,-0.397154565884617,0.0854880161558345,0.217075429612985,0.0271448140523861,-0.0459651796308316,-0.509570236796746,-0.0174922793050517,-0.0834340627810945,-0.118127818405421,-0.159050381133322,-0.125671369807837,0.301114478971722,0.353471605460678,-0.323777559484657,0.0357418038451571,0.0820748398585559,0.0852261632040549,0.00364355143313124,-0.222577342123398,-0.00329283803760241,-0.0596962853693439,-0.069052424409091,-0.086485768977068,-0.133036999212962,0.247339885607241,-0.101698389801801,-0.281746411424665,0.299564660800687,0.173841876828416,0.0467905561748299,-0.189550674466029,-0.488999390243032,-0.0905064361826234,-0.149356899871012,-0.246324019404047,-0.37799394030729,-0.389788715267002,1.05189429043707,-0.244157572720383,-0.462201961319919,0.578666580452131,0.23872589790521,0.0288997150967293,-0.247348245402999,-0.574938925788261,-0.130123324685169,-0.292647944053552,-0.46294118245494,-0.583717956437465,-0.536393331841049,1.49040995699857
320,58,0.259268504916838,-0.397154565884617,0.0815432182869264,0.237172737277236,0.0219175922461812,-0.0492383158058594,-0.493156522697442,-0.0213901523571204,-0.0834340627810945,-0.121279885231385,-0.159050381133322,-0.120378840614508,0.297969211960678,0.390424796718953,-0.323777559484657,0.0357418038451571,0.0859452771470891,0.091283723971313,0.00364355143313124,-0.182953292171571,-0.00329283803760241,-0.0596962853693439,-0.069052424409091,-0.086485768977068,-0.133036999212962,0.249914381472148,0.00852770638890917,-0.256442484414196,0.321301786214564,0.186138213298862,0.053698938826349,-0.194143442831427,-0.406681246226538,-0.112604051422048,-0.117763322622837,-0.267125671835249,-0.365006729622083,-0.404157169377811,1.06576890545615,-0.253987105726947,-0.35167759244546,0.512680027695337,0.261276595062577,0.0299674503420127,-0.258734795331854,-0.61412274336843,-0.141958818511472,-0.297597663243733,-0.437641858834093,-0.563628313959612,-0.530755383350625,1.49430689777549
330,53,0.22605314394758,-0.403760972672938,0.0815432182869264,0.244606092968126,0.0150369656418671,-0.0531700159062095,-0.497043205074306,-0.0171038773114354,-0.09027694271219,-0.126322954543638,-0.151864966352534,-0.120378840614508,0.294390194372972,0.335236354704299,-0.323777559484657,0.0357418038451571,0.0859452771470891,0.0880374659026508,-0.00442608658836334,-0.189785871396887,-0.00329283803760241,-0.0596962853693439,-0.069052424409091,-0.0935207065492578,-0.137373325671387,0.249914381472148,-0.0502967510648842,-0.261129937985476,0.317118502280534,0.186419175802366,0.0698421787424613,-0.215515442136521,-0.538460055034936,-0.115863649582982,-0.135339508459214,-0.277467621333981,-0.344682457771859,-0.398971536183672,1.02633533259704,-0.270859021819949,-0.364879557661032,0.498321207806777,0.263219306331681,0.0423716641462812,-0.264864231720674,-0.518917459173202,-0.156548619097143,-0.292575904462183,-0.443932401672801,-0.55551205999674,-0.522147491726638,1.47707515851953
340,55,0.159231327991142,-0.406573084407777,0.0737492008915118,0.248064937811849,0.0150369656418671,-0.0642227548472065,-0.556484947683325,-0.0215689874774797,-0.0936920319275488,-0.126732485952293,-0.165022307358658,-0.121189093785498,0.29367382701306,0.316681711080873,-0.324291575186383,0.0388549821293532,0.0887559607408474,0.0799270160786722,-0.00442608658836334,-0.17092301465686,-0.000621232293576951,-0.0568912777975754,-0.065945916825426,-0.0935207065492578,-0.134415441588193,0.238941355772741,0.0577500307536382,-0.296095791711878,0.331211503519047,0.202709260744442,0.0909635958574898,-0.219679154879898,-0.590713819001246,-0.145110624252199,-0.142603795589611,-0.286014580811432,-0.347835997831252,-0.388506261010036,1.02413204094372,-0.359868798754471,-0.369561136670406,0.46940127212025,0.288135383890854,0.0245121584230738,-0.276539576438566,-0.578686465322931,-0.142314689782951,-0.287887824639699,-0.455786328798851,-0.570450032845853,-0.534391395655505,1.45337775447139
350,60,0.139125072966899,-0.421321616924399,0.0746194146302191,0.249458175577786,0.0150369656418671,-0.0663740538685759,-0.586611394222281,-0.0265586429934481,-0.108022536171244,-0.132703169803837,-0.154579701425681,-0.136519469011846,0.283225626808352,0.330284695002294,-0.324291575186383,0.0388549821293532,0.0887559607408474,0.0832067317366127,-0.00442608658836334,-0.157833050483507,-0.000621232293576951,-0.0568912777975754,-0.065945916825426,-0.0935207065492578,-0.134415441588193,0.238941355772741,0.0811426339147004,-0.285563778075628,0.34639449670817,0.211958086263584,0.0983870844597601,-0.234182894571647,-0.533502169943285,-0.132154664811508,-0.139140294090236,-0.287444111604999,-0.322667771171617,-0.397828174352283,1.0647898809587,-0.272186188251093,-0.389948955230955,0.504339159870075,0.293335374658694,0.0352025943777662,-0.28075585296362,-0.543681258909187,-0.11254758929124,-0.300657226660991,-0.458765621531766,-0.547072411137017,-0.534516127613933,1.49126254613951
